tree
version=v4
num_class=1
num_tree_per_iteration=1
label_index=0
max_feature_idx=18
objective=regression
feature_names=lw hw tw f′c fyt fysh fyl fybl ρt ρsh ρl ρbl P/(Agf′c) b0 db s/db AR M/Vlw θ
feature_infos=[400:3500] [495:5486.3999999999996] [26:305] [13.380000000000001:93.599999999999994] [0:1187] [0:1375] [160:1000] [0:900] [0.00054500000000000002:0.025139000000000002] [0:0.041887999999999995] [0:0.029089] [0:0.031438000000000001] [0:0.85999999999999999] [45:3045] [0:500] [0:47.65625] [0.3888888888888889:5.833333333333333] [0.3888888888888889:4.0999999999999996] [0.0275:4.8499999999999996]
tree_sizes=2091 1764 2112 1694 1937 2197 1688 1591 1301 2385 1406 1755 2312 2202 1324 2322 1596 1479 1871 2207 2059 1953 1952 1604 1485 2425 1302 2325 1143 2319 1695 1707 1241 1699 2503 1524 2161 2065 1936 2470 2505 2227 2218 2465 1863 2133 1195 1345 2167 1860 1701 2231 1145 2287 1220 1891 2127 2335 1836 1477 1688 1424 1288 1226 1683 1339 1514 2505 2013 2071 979 1200 2138 2321 1053 1527 1946 1037 2095 1240 1350 1839 1147 1696 1054 1502 1160 1682 2083 2200 1414 2669 1410 1672 1131 1855 1657 1675 2156 1690 1977 1868 1496 1601 1510 1395 2008 1608 1157 1741 1127 1029 1254 2282 2080 1711 986 1846 952 1457 1652 1071 2219 1717 950 2158 1624 1409 1682 1496 1364 1270 1456 1687 1325 1949 1221 1799 2120 1264 1431 1424 1882 1393 1680 1714 1484 1586 1262 1760 1162 1031 1542 1493 850 1435 2360 1685 1880 1247 1419 1694 1522 1230 1162 1404 1139 1307 1991 1952 1986 1630 1345 1783 1497 846 1899 1397 1062 1397 1601 1247 1174 1500 1526 1897 1159 1671 1844 1529 1223 1899 807 1673 1503 1251 1108 1228 1217 1845 1071 1332 1914 1227 1952 941 1592 867 1609 1910 1225 1958 791 2021 1276 1459 1308 1583 1128 1430 1738 1561 1783 1536 1656 1300 1838 1912 1519 1138 1313 1477 1180 1216 2170 2277 1790 1585 1385 1226 1357 1767 1255 957 1892 1789 1817 1448 1138 945 1313 1068 1651 1144 987 863 1392 1942 1111 1474 1410 1103 1949 1531 1023 1482 1294 1222 1299 1573 1690 1757 1423 1588 1957 798 974 1860 1323 1436 1225 1762 1278 1842 1377 1711 1295 1314 1226 1561 1431 1912 1075 1681 771 1377 1999 2012 1241 1070 1407 1514 1408 1145 1876 1916 2027 1014 1716 1329 1758 1393 1221 1484 1589 1501 1389 1583 1411 966 1413 1534 1514 1597 1641 1365 1535 925 1440 794 1685 1700 1032 969 1742 1380 1554 1586 1354 1317 1348 1134 1587 1756 1941 1542 1219 1838 1110 1880 1703 1537 2029 979 1208 1514 1942 1026 970 1314 1054 1513 1030 1632 1717 1608 1486 801 1391 1223 1425 2122 1444 1051 1023 1126 1188 1168 1578 1798 1411 1340 1584 2150 1611 1294 1569 1849 1718 1086 1674 1833 1169 1140 1977 936 1272 1096 1720 1500 1287 2271 1332 1306 1878 778 1458 1021 1572 1684 1221 1796 1667 1844 939 1213 1578 1484 1053 1195 952 1609 1569 1805 1049 1198 1125 1084 1769 1692 1393 769 1249 1246 1793 1007 1276 1542 1594 1463 1938 1744 1792 1135 1620 1069 1423 1826 1373 1430 1920 1336 1439 1051 1244 881 1767 1249 1238 1078 1636 1235 1635 1180 1863 1728 1184 1937 1755 1438 1847 796 1709 1128 1635 1535 1066 1583 1544 1481 1143 1541 1920 1271 1805 2036 1403 1076 1642 2014 2259 1727 1319 1606 1494 1231 1238 1779 1524 1993 1103 1756 776 1308 1143 1426 1311 1793 794 1429 1079 2058 1834 1659 1405 1432 957 1452 1679 1064 1432 1625 1647 1693 1363 1109 977 1681 1556 1449 1762 1231 1864 784 1538 1074 1159 970 2031 948 1254 1290 1885 1807 1662 1540 1443 1529 1602 1233 844 2198 1302 1913 987 1718 1186 1551 1299 1427 2089 1093 1636 2023 916 1658 2040 1239 1127 1464 1931 1027 1453 1840 1294 1472 1649 2220 1188 1925 892 766 1474 1469 1508 1338 1156 1946 1483 745 2046 1015 1716 1062 1222 1646 1471 1482 1591 879 1519 1520 1435 1779 1418 1157 2105 1239 1300 943 1699 1104 957 1578 1376 1504 1368 2246 1674 1293 1641 1668 985 1495 1570 946 2010 1123 1060 1510 1485 1518 1154 1212 1139 1127 1593 1102 1363 1546 1236 1318 1259 1089 1550 1052 893 1965 1461 1088 1722 1422 1431 1638 1154 1906 2143 1303 1082 1025 1255 1368 1635 1224 1742 1672 1714 1635 1392 1668 1479 1649 1275 1112 1103 1791 1443 1653 1223 1925 1906 1262 952 1559 767 1362 921 909 1835 1153 1721 951 1341 1243 1598 1464 1225 1998 1196 1402 1421 1954 1385 1297 1207 1429 1651 1377 1812 855 1201 1529 1149 1230 1152 1193 1326 1024 1562 1183 1934 1550 1782 1375 1350 1177 1099 1278 1546 1154 1378 939 1387 1065 1235 1198 1934 1760 1117 1648 1770 1278 1571 1197 1991 1371 1250 1729 1477 1236 1042 1507 1260 1050 1581 858 1187 1582 1488 1506 688 1532 1326 1638 1579 1536 2213 1473 1374 1038 1545 1234 1795 1508 1041 1752 1857 1432 901 1139 1539 976 1567 1393 1892 1706 1318 1483 1516 1070 1112 924 845 913 1526 1780 1574 1192 1596 1055 1432 949 1750 1792 1090 1327 1735 1754 1659 805 1785 1770 1060 2019 963 1298 2211 1746 1258 922 1690 1514 1124 1083 1491 1650 1688 1376 1433 1830 1013 1903 1518 1899 1755 1122 1280 1115 1321 1410 1343 1470 1042 1391 1047 1253 1411 1364 1591 1113 1294 976 1201 1235 1290 1575 1881 1000 1719 1276 870 1642 1645 886 1664 1003 1909 1095 1272 1762 1842 1187 1785 1272 1970 1985 1609 1181 1917 1701 1879 1305 1427 1067 1766 1148 1315 1506 1204 978 1547 1040 1246 1785 1641 1566 1290 1455 1578 2236 1531 1760 1955 1392 953 1726 872 1299 1497 1439 1191 1225 1663 1033 1139 1455 1815 1636 1233 2011 1420 1733 1035 1886 1729 845 1723 1216 1310 2201 1149 1394 1077 1385 1045 2003 1483 1436 1558 1341 1593 1274 1422 1251 1806 1665 2265 965 1730 1524 1174 1688 1716 2058 1276 1166 1592 1318 2285 906 945 1899 2006 1455 1302 1241 1577 1790 1507 1259 1080 1197 1762 1867 1042 1058 843 1202 1803 1979 1448 1043 1633 1407 1328 1773 1841 1290 1361 1703 1585 987 927 2313 1528 1848 1695 1685 1569 1456

Tree=0
num_leaves=23
num_cat=0
split_feature=18 18 18 1 7 3 7 12 12 10 5 11 12 18 11 10 8 7 7 4 11 18
split_gain=3.56204 0.497924 0.450901 0.325696 0.285596 0.21783 0.175036 0.160154 0.128932 0.125194 0.122973 0.108678 0.102255 0.080449 0.0675405 0.0583147 0.0528407 0.0475537 0.0321378 0.0238146 0.0233801 0.00960213
threshold=1.386916666666667 0.97929989655172434 2.3810115740740745 2225.0000000000005 390.50000000000006 27.150000000000002 376.81000000000006 0.035692068608362944 0.096280515891294369 0.0044440000000000009 346.50000000000006 0.005373000000000001 0.028171778796844186 1.8474444444444447 0.005373000000000001 0.012684500000000001 0.0034175000000000004 413.50000000000006 366.50000000000006 343.50000000000006 0.004811000000000001 2.734500000000001
decision_type=2 2 2 2 2 2 2 2 2 2 2 2 2 2 2 2 2 2 2 2 2 2
left_child=1 3 4 6 18 11 10 16 9 -6 -1 -3 -7 -10 -8 17 -5 -4 -2 -9 -14 -19
right_child=2 5 15 7 8 12 14 19 13 -11 -12 -13 20 -15 -16 -17 -18 21 -20 -21 -22 -23
leaf_value=0.15192923943829678 0.15648706688284705 0.15534272951950601 0.15725680120409749 0.15308025269437392 0.15554861604752618 0.15364656000675345 0.15206524756952383 0.15152539131614515 0.15290901797208512 0.1537217577191064 0.15345071735795032 0.1531560044997721 0.15262565866785746 0.15397692421918466 0.15106468845253077 0.15443894240649017 0.15147575889290127 0.15505351578261203 0.15487544991107535 0.15046124585924653 0.15188865735364376 0.15606279587490968
leaf_weight=154 85 85 79 70 127 111 386 89 263 170 237 86 174 231 216 67 64 114 83 475 200 173
leaf_count=154 85 85 79 70 127 111 386 89 263 170 237 86 174 231 216 67 64 114 83 475 200 173
internal_value=0.152999 0.152018 0.15473 0.151633 0.154199 0.153006 0.152141 0.150925 0.153843 0.154543 0.152857 0.154299 0.152552 0.153404 0.151688 0.155874 0.152322 0.156105 0.155784 0.150609 0.152212 0.155714
internal_weight=0 2347 1392 1691 959 656 993 698 791 297 391 171 485 494 602 433 134 366 168 564 374 287
internal_count=3739 2347 1392 1691 959 656 993 698 791 297 391 171 485 494 602 433 134 366 168 564 374 287
is_linear=0
shrinkage=1


Tree=1
num_leaves=18
num_cat=0
split_feature=16 17 3 1 17 5 3 15 15 8 5 6 3 10 3 4 3
split_gain=0.344746 0.469477 0.303039 0.301946 0.189812 0.214529 0.199661 0.165588 0.136637 0.132466 0.0963351 0.0822848 0.0761062 0.0829531 0.0758623 0.0325005 0.00290705
threshold=1.0794117647058827 0.67220528455284556 24.150000000000002 4566.0000000000009 2.2250000000000005 249.00000000000003 39.45000000000001 0.93796992481203023 1.5618421052631579 0.0046090000000000011 461.65000000000003 519.80000000000007 27.350000000000005 0.0044440000000000009 26.600000000000005 489.25000000000006 44.675000000000004
decision_type=2 2 2 2 2 2 2 2 2 2 2 2 2 2 2 2 2
left_child=1 7 8 4 5 -2 -7 -1 -3 -4 16 15 -6 -14 -11 -12 -5
right_child=3 2 9 10 12 6 -8 -9 -10 14 11 -13 13 -15 -16 -17 -18
leaf_value=0.00014533829453062548 0.0020405171021985655 0.0034604864192125111 0.0015675966440237114 0.0010584879936812175 -0.0021186019144983333 9.2209863106946507e-05 -0.00086339220668900309 -0.0025580075905137565 0.0013210301834202496 0.00041579226856168369 0.00037661040298791408 0.0012941375037296599 -9.5187917270873016e-06 -0.0010487850211010989 -0.0013651885571186462 -0.00054494268253807139 0.0018929623766240648
leaf_weight=77 72 131 108 74 90 1054 622 76 119 99 127 103 197 550 68 138 84
leaf_count=77 72 131 108 74 90 1054 622 76 119 99 127 103 197 550 68 138 84
internal_value=0 0.00083049 0.00143649 -0.000224968 -0.000415155 -0.000159018 -0.000261154 -0.00120337 0.00249935 0.000430719 0.000697191 0.000297639 -0.000941288 -0.000782167 -0.00030017 -8.81243e-05 0.00156793
internal_weight=0 678 525 3111 2585 1748 1676 153 250 275 526 368 837 747 167 265 158
internal_count=3789 678 525 3111 2585 1748 1676 153 250 275 526 368 837 747 167 265 158
is_linear=0
shrinkage=0.0425396


Tree=2
num_leaves=22
num_cat=0
split_feature=18 18 18 7 11 7 7 13 6 11 6 11 1 18 6 3 7 2 17 7 2
split_gain=3.44583 0.388848 0.386429 0.281537 0.252614 0.242253 0.197832 0.143438 0.141196 0.104608 0.0984864 0.087883 0.0826489 0.082589 0.0713543 0.060857 0.0571074 0.0474582 0.0317829 0.0273049 0.0161119
threshold=1.3685313131313135 0.88218950000000007 2.4246111111111115 385.00000000000006 0.005373000000000001 390.50000000000006 390.50000000000006 122.50000000000001 503.00000000000006 0.004811000000000001 427.70000000000005 0.0075605000000000004 2225.0000000000005 1.6496147333333335 343.50000000000006 27.450000000000003 575.45000000000016 95.000000000000014 2.4209302325581397 362.50000000000006 77.500000000000014
decision_type=2 2 2 2 2 2 2 2 2 2 2 2 2 2 2 2 2 2 2 2 2
left_child=1 4 6 11 5 7 12 -1 13 10 -5 19 -2 -8 -6 -7 -10 -11 -4 -3 -16
right_child=2 3 18 9 14 15 8 -9 16 17 -12 -13 -14 -15 20 -17 -18 -19 -20 -21 -22
leaf_value=-0.0016639145601362506 0.0032427255713016485 0.0022476915889141839 0.0030480192424753392 -0.00088829802364319887 -0.00064488156125976732 -0.00064516122873834413 -2.8805759249779807e-05 0.0003942805386714114 0.0028816886567705796 -0.0017703149344949244 0.00063470458853304168 -0.00013755214924184302 0.0010940015265490739 0.00096675308906190639 -0.0029624781902181183 -0.0017059770007337078 0.001054727867787874 -0.00069439465631743484 0.0017790972652162022 0.00082115228899731492 -0.0020173213304407766
leaf_weight=73 111 81 319 137 73 156 214 289 81 139 163 62 64 445 89 426 77 220 88 62 451
leaf_count=73 111 81 319 137 73 156 214 289 81 139 163 62 64 445 89 426 77 220 88 62 451
internal_value=0 -0.000952142 0.00169629 -0.00022077 -0.00135344 -0.000901614 0.00122633 -2.36937e-05 0.000930502 -0.00065318 -4.92043e-05 0.00113307 0.00252692 0.000638808 -0.0020309 -0.00143599 0.00207043 -0.00113923 0.00280602 0.0017014 -0.00220358
internal_weight=0 2421 1399 864 1557 944 992 362 817 659 300 205 175 659 613 582 158 359 407 143 540
internal_count=3820 2421 1399 864 1557 944 992 362 817 659 300 205 175 659 613 582 158 359 407 143 540
is_linear=0
shrinkage=0.0425396


Tree=3
num_leaves=17
num_cat=0
split_feature=7 16 10 15 1 5 14 10 6 9 10 8 10 10 6 1
split_gain=0.428134 0.30998 0.376219 0.250307 0.276867 0.153607 0.12237 0.10073 0.0913791 0.0583776 0.0524769 0.0284021 0.0242675 0.0149425 0.00651639 0.00409184
threshold=521.24000000000012 2.6041666666666674 0.010499500000000004 12.583333333333334 1170.0000000000002 579.30000000000007 193.50000000000003 0.013019000000000003 418.75000000000006 0.011240000000000002 0.0040195000000000014 0.0054460000000000003 0.0017080000000000001 0.018100500000000002 392.50000000000006 2900.0000000000005
decision_type=2 2 2 2 2 2 2 2 2 2 2 2 2 2 2 2
left_child=1 2 3 4 -1 8 14 10 -2 12 -3 -12 -10 -8 -4 -7
right_child=5 7 6 -5 -6 15 13 -9 9 -11 11 -13 -14 -15 -16 -17
leaf_value=0.002085810893885529 -0.0014754631009517444 -0.0006055440215762182 -0.00073180306280466387 -0.0014064226611634307 0.00055204132783331092 -0.0023302809102495581 0.0005498952718453584 0.00022897090712219133 0.00015571432163006562 0.00047663342672517729 -0.0024460585474610367 -0.00099211829193718076 -0.00069327145437526557 -0.00021084973096427344 -0.0015202940836160047 -0.0014477078302911899
leaf_weight=242 138 133 64 98 1798 85 74 100 65 140 80 67 292 103 182 109
leaf_count=242 138 133 64 98 1798 85 74 100 65 140 80 67 292 103 182 109
internal_value=0 0.000237015 0.000406667 0.000637089 0.000740182 -0.000855087 -0.000742371 -0.000886634 -0.000518526 -0.000233591 -0.00129783 -0.00185987 -0.00052659 8.86798e-05 -0.00134891 -0.00189911
internal_weight=0 2941 2561 2138 2040 829 423 380 635 497 280 147 357 177 246 194
internal_count=3770 2941 2561 2138 2040 829 423 380 635 497 280 147 357 177 246 194
is_linear=0
shrinkage=0.0425396


Tree=4
num_leaves=20
num_cat=0
split_feature=18 18 18 11 7 6 16 13 12 16 16 6 12 18 12 7 11 16 11
split_gain=3.14745 0.393506 0.370073 0.236447 0.205504 0.187461 0.186262 0.126426 0.109503 0.103095 0.0840702 0.0697971 0.058978 0.0533783 0.0480219 0.0470158 0.0276237 0.0251958 0.0218242
threshold=1.3171050000000004 2.0944550000000004 0.93350000000000011 0.005373000000000001 390.50000000000006 333.50000000000006 1.0794117647058827 122.50000000000001 0.040063299310991736 1.0794117647058827 1.0794117647058827 343.50000000000006 0.035692068608362944 2.7005000000000003 0.031093869053708447 390.50000000000006 0.0072925000000000012 2.4998633132859491 0.0102185
decision_type=2 2 2 2 2 2 2 2 2 2 2 2 2 2 2 2 2 2 2
left_child=2 6 3 4 7 -4 -2 -1 -6 -7 -3 -5 16 18 -11 -14 -8 -13 -12
right_child=1 10 5 11 8 9 12 -9 -10 14 13 17 15 -15 -16 -17 -18 -19 -20
leaf_value=-0.0015103226433387494 0.0024933177382042084 0.0039252793771810688 0.0019730546777930891 -0.00052982790429912611 -0.00051480253414250699 0.0010480089745614825 0.0020614658677539977 0.00038180714153095835 -0.0017539477731845015 0.00014756093199255423 0.0020870303649641242 -0.0019480577989170018 0.0013412235192943813 0.0027176162747149769 -0.00081119177225080742 0.00028203707094690879 0.00074185519861221601 -0.0030600436148121401 0.0011762459338282545
leaf_weight=79 118 66 64 67 209 74 71 267 419 112 169 515 91 218 404 500 83 73 145
leaf_count=79 118 66 64 67 209 74 71 267 419 112 169 515 91 218 404 500 83 73 145
internal_value=0 0.00153426 -0.000990996 -0.0013337 -0.000898485 -0.000127576 0.000937146 -5.11476e-05 -0.00135485 -0.000375582 0.00237572 -0.00196403 0.000671774 0.00214502 -0.000595201 0.000461085 0.00141781 -0.00211497 0.00170202
internal_weight=0 1461 2283 1629 974 654 863 346 628 590 598 655 745 532 516 591 154 588 314
internal_count=3744 1461 2283 1629 974 654 863 346 628 590 598 655 745 532 516 591 154 588 314
is_linear=0
shrinkage=0.0425396


Tree=5
num_leaves=23
num_cat=0
split_feature=18 18 18 11 7 16 7 12 12 15 17 16 11 18 8 12 7 14 3 0 12 7
split_gain=3.00561 0.328373 0.32776 0.226679 0.217124 0.190041 0.175185 0.111733 0.0778483 0.0774984 0.0735976 0.0727184 0.0582215 0.0559691 0.0447257 0.0430053 0.0427717 0.0340888 0.0269701 0.0260134 0.0245521 0.0168065
threshold=1.3685313131313135 0.93350000000000011 2.1272500000000005 0.005373000000000001 390.50000000000006 1.0794117647058827 385.00000000000006 0.040063299310991736 0.098203592814371285 0.62025444264943463 2.4209302325581397 1.0794117647058827 0.0063370000000000006 2.5941383333333339 0.0070230000000000006 0.20034722222222226 414.31500000000005 151.20000000000002 38.20000000000001 1219.6000000000001 0.217 369.85000000000008
decision_type=2 2 2 2 2 2 2 2 2 2 2 2 2 2 2 2 2 2 2 2 2 2
left_child=1 3 5 4 9 -2 12 -6 14 -1 16 -4 -3 19 -8 -10 -7 -12 -15 -13 21 -5
right_child=2 6 11 20 7 10 8 -9 15 -11 17 13 -14 18 -16 -17 -18 -19 -20 -21 -22 -23
leaf_value=0.00054267857310008616 0.0025552494317925066 0.0018659164977697612 0.00380084039740029 -0.0013409038103588387 -0.00044687855122673337 0.0018331375259183816 0.00043802086704847898 -0.0016906653107750134 -0.0012663904955289855 -0.0007033221728688986 -0.00074118285275790786 0.0009736911033838097 0.0001990935128446596 0.0018627991083657828 -0.00075479324706923987 -5.7989124542401901e-05 0.00076575862338246951 0.00042518312664961949 0.0030524809184734759 0.0020019843169276669 -0.0010375645346800758 -0.0021377042035538836
leaf_weight=211 120 80 65 128 211 92 172 417 217 151 68 120 83 122 79 81 432 117 154 142 97 428
leaf_count=211 120 80 65 128 211 92 172 417 217 151 68 120 83 122 79 81 432 117 154 142 97 428
internal_value=0 -0.000899195 0.00156893 -0.00122947 -0.000809947 0.00100227 -0.00012812 -0.00128564 -0.000497529 8.82948e-06 0.000719298 0.00232801 0.00107055 0.00211291 3.90122e-05 -0.00095795 0.000974999 0 0.00257931 0.00157104 -0.00184927 -0.00197391
internal_weight=0 2355 1432 1643 990 829 712 628 549 362 709 603 163 538 251 298 524 185 276 262 653 556
internal_count=3787 2355 1432 1643 990 829 712 628 549 362 709 603 163 538 251 298 524 185 276 262 653 556
is_linear=0
shrinkage=0.0425396


Tree=6
num_leaves=17
num_cat=0
split_feature=12 2 15 7 11 8 12 7 17 5 15 0 11 17 15 0
split_gain=0.384271 0.50918 0.316883 0.314056 0.171766 0.15902 0.119135 0.129558 0.106776 0.085347 0.0474707 0.0375601 0.0161268 0.0144198 0.013018 0.00217836
threshold=0.028171778796844186 77.500000000000014 0.15500000000000003 352.50000000000006 0.0063370000000000006 0.0029430000000000007 0.069597776324395053 583.4000000000002 2.1825000000000006 486.20000000000005 0.39947643979057595 1385.0000000000002 0.0078650000000000022 1.4309523809523812 0.49154589371980678 806.00000000000011
decision_type=2 2 2 2 2 2 2 2 2 2 2 2 2 2 2 2
left_child=1 15 4 -3 -2 13 11 8 -8 -6 -7 -4 -9 -5 -13 -1
right_child=2 3 6 5 9 10 7 12 -10 -11 -12 14 -14 -15 -16 -17
leaf_value=-0.0015625607786035171 -0.00094944351551808515 0.0037250959744403655 -0.0020998535215938354 -0.00064319023424606382 0.0017802994219695658 0.00071245420209433937 1.0999810155804797e-05 -0.0015380264742518577 -0.00065495304698041977 0.00030647543106203346 0.0016292080352721275 -0.00043264547701494128 -0.00059116719601757899 0.00010386623356074721 -0.0012598850208306721 -0.00082674571645878828
leaf_weight=106 73 77 78 63 208 201 1290 158 644 122 308 97 73 129 95 64
leaf_count=106 73 77 78 63 208 201 1290 158 644 122 308 97 73 129 95 64
internal_value=0 0.000734847 -0.000252459 0.00119834 0.000842843 0.000893304 -0.000436707 -0.000327384 -0.000209474 0.00125959 0.00128482 -0.00127827 -0.00127385 -0.000127842 -0.000883077 -0.00133818
internal_weight=0 948 2838 778 403 701 2435 2165 1934 330 509 270 231 192 192 170
internal_count=3786 948 2838 778 403 701 2435 2165 1934 330 509 270 231 192 192 170
is_linear=0
shrinkage=0.0425396


Tree=7
num_leaves=16
num_cat=0
split_feature=12 2 7 9 3 16 14 14 11 14 7 7 2 0 11
split_gain=0.394386 0.470985 0.28448 0.198743 0.160023 0.250161 0.227473 0.120346 0.0906582 0.0897496 0.0786539 0.0640072 0.0268967 0.0151886 0.0134289
threshold=0.028171778796844186 77.500000000000014 352.50000000000006 0.00088000000000000003 26.600000000000005 2.3428571428571456 263.50000000000006 198.00000000000003 0.0012920000000000002 235.00000000000003 452.60000000000008 442.30000000000007 140.00000000000003 625.00000000000011 0.0049885000000000007
decision_type=2 2 2 2 2 2 2 2 2 2 2 2 2 2 2
left_child=1 13 -3 14 5 7 8 -5 -6 12 -8 -11 -4 -1 -2
right_child=3 2 9 4 6 -7 10 -9 -10 11 -12 -13 -14 -15 -16
leaf_value=-0.0016026581460387565 -0.0021076224614875929 0.0035226087494383313 0.0018633513661764978 0.0010974323092945661 -0.0020908382623511484 -0.0019327022802129383 0.0008003992859623529 -5.241130682012015e-05 -0.00051770086075112452 0.0014773278074197594 -0.00041435288045455528 0.00017505428468008686 0.00085487129570095005 -0.00055686819590174456 -0.00097359223467911925
leaf_weight=103 90 83 168 408 68 71 344 262 1485 87 125 320 113 62 64
leaf_count=103 90 83 168 408 68 71 344 262 1485 87 125 320 113 62 64
internal_value=0 0.00076639 0.00121031 -0.000235186 -0.000149206 0.000381286 -0.000346173 0.000643879 -0.000595044 0.000904642 0.000466574 0.000476745 0.00149236 -0.00125992 -0.00170367
internal_weight=0 936 771 2917 2763 741 2022 670 1553 688 469 407 281 165 154
internal_count=3853 936 771 2917 2763 741 2022 670 1553 688 469 407 281 165 154
is_linear=0
shrinkage=0.0425396


Tree=8
num_leaves=13
num_cat=0
split_feature=13 17 7 14 11 14 5 4 16 4 11 11
split_gain=0.253778 0.199513 0.251512 0.157977 0.145104 0.220424 0.0850357 0.0532128 0.0343598 0.0328203 0.0249422 0.00402949
threshold=72.500000000000014 2.4209302325581397 572.95000000000016 243.80000000000004 0.0010260000000000002 81.500000000000014 603.00000000000011 343.50000000000006 2.2300000000000004 461.65000000000003 0.0072925000000000012 0.0078650000000000022
decision_type=2 2 2 2 2 2 2 2 2 2 2 2
left_child=-1 2 4 7 -2 -6 8 -3 -4 -5 -9 -8
right_child=1 3 6 9 5 -7 11 10 -10 -11 -12 -13
leaf_value=-0.0017244132391347311 0.001963709267446323 0.00019824120703500743 2.2725447297203003e-05 0.0012021718570359571 -0.0020069059823071985 0.00044070814911909386 -0.0014580516135963217 -0.00071528625584636534 -0.00073120792806226885 0 -0.0013822560114682687 -0.00071902141900153
leaf_weight=146 105 66 377 80 64 2046 122 301 144 73 226 65
leaf_count=146 105 66 377 80 64 2046 122 301 144 73 226 65
internal_value=0 5.84809e-05 0.00021812 -0.000558835 0.000442096 0.00036042 -0.00047488 -0.000875325 -0.000181674 0.000630333 -0.00101852 -0.00124622
internal_weight=0 3669 2923 746 2215 2110 708 593 521 153 527 187
internal_count=3815 3669 2923 746 2215 2110 708 593 521 153 527 187
is_linear=0
shrinkage=0.0425396


Tree=9
num_leaves=25
num_cat=0
split_feature=18 18 1 7 18 0 4 4 7 5 0 15 7 18 6 15 7 18 4 9 18 2 18 15
split_gain=2.61268 0.383073 0.21122 0.199682 0.15667 0.107553 0.0971465 0.0902211 0.0864468 0.0873994 0.0784674 0.0736695 0.072457 0.0856226 0.0594954 0.0578039 0.05635 0.0473077 0.043334 0.037851 0.0246635 0.0183441 0.0140591 0.00433851
threshold=1.2272500000000004 1.9859542222222226 2225.0000000000005 385.00000000000006 0.7651363555555557 1100.0000000000002 343.50000000000006 424.50000000000006 376.81000000000006 388.50000000000006 1867.0000000000002 0.39947643979057595 366.50000000000006 2.8479951111111119 401.00000000000006 0.97368421052631582 385.00000000000006 0.85419270833333349 427.70000000000005 0.0056630000000000014 1.0190141818181822 77.500000000000014 0.68871741727941194 0.17650523560209427
decision_type=2 2 2 2 2 2 2 2 2 2 2 2 2 2 2 2 2 2 2 2 2 2 2 2
left_child=2 3 4 19 8 16 22 15 9 -1 20 -9 -3 14 -14 -5 -6 -12 -7 -2 -8 -10 -4 -15
right_child=1 12 6 7 5 18 10 11 21 -11 17 -13 13 23 -16 -17 -18 -19 -20 -21 -22 -23 -24 -25
leaf_value=-0.0010927115185770365 0.0010115260412222934 0.0035118707502654386 -0.00072918919120603569 0.00018801687288534885 0.00062478800877679812 0.00011474014357860815 -0.0022000454988723669 0.00037785534645209284 -0.0021027773182764344 0.00021397161974535001 -0.0014608637706402072 0.0015755333896024068 0.00032376908159813413 0.003154813181957527 0.0017313912973206229 -0.0011332487222113156 -0.00077240552030500274 -0.00035443296475314072 0.0015503536809731498 0.0025106204721067485 -0.0011448226211249941 -0.0011714149384899975 0.00011110656109885045 0.0020857266220230685
leaf_weight=175 71 67 61 192 61 80 354 314 68 180 228 140 77 92 334 80 221 122 85 110 85 370 62 112
leaf_count=175 71 67 61 192 61 80 354 314 68 180 228 140 77 92 334 80 221 122 85 110 85 370 62 112
internal_value=0 0.00131594 -0.000955568 0.000730218 -0.000584932 4.28686e-05 -0.00144956 0.000401751 -0.000942592 -0.000423448 -0.00162352 0.000768179 0.00207896 0.0018922 0.00148436 -0.000196519 -0.000450012 -0.00109662 0.000900951 0.00198374 -0.00201884 -0.00134517 -0.000282007 0.00264471
internal_weight=0 1589 2152 907 1240 447 912 726 793 355 789 454 682 615 411 272 282 350 165 181 439 438 123 204
internal_count=3741 1589 2152 907 1240 447 912 726 793 355 789 454 682 615 411 272 282 350 165 181 439 438 123 204
is_linear=0
shrinkage=0.0425396


Tree=10
num_leaves=14
num_cat=0
split_feature=12 13 7 6 14 7 3 4 13 4 7 11 7
split_gain=0.268274 0.390378 0.279405 0.239743 0.230992 0.160118 0.120525 0.117389 0.114918 0.106555 0.0855116 0.0805147 0.0143073
threshold=0.028171778796844186 82.000000000000014 352.50000000000006 293.50000000000006 151.20000000000002 583.4000000000002 24.150000000000002 684.1400000000001 156.00000000000003 368.28000000000003 442.30000000000007 0.0032950000000000002 719.50000000000011
decision_type=2 2 2 2 2 2 2 2 2 2 2 2 2
left_child=1 -1 -3 6 7 8 -2 9 -6 -5 -4 -12 -7
right_child=3 2 10 4 5 12 -8 -9 -10 -11 11 -13 -14
leaf_value=-0.0013315848985136036 0.0021227523806995143 0.0033232138614520852 0.001394586825126612 -0.00023275667354807995 -0.00026544741198528587 -0.00066995740974340955 0.00010664363161152803 0.00067302247141107533 0.00043583785613847262 -0.0014865886647638562 0.0011431275587750142 -1.8659391077288332e-06 -0.0014878717486346599
leaf_weight=147 109 82 234 182 826 124 112 66 851 454 161 316 109
leaf_count=147 109 82 234 182 826 124 112 66 851 454 161 316 109
internal_value=0 0.000641993 0.00101859 -0.000185612 -0.000301343 -5.57058e-05 0.00114221 -0.000959022 8.80311e-05 -0.00113863 0.000728076 0.00038237 -0.00109128
internal_weight=0 940 793 2833 2612 1910 221 702 1677 636 711 477 233
internal_count=3773 940 793 2833 2612 1910 221 702 1677 636 711 477 233
is_linear=0
shrinkage=0.0425396


Tree=11
num_leaves=18
num_cat=0
split_feature=12 13 15 1 11 3 17 3 13 1 11 16 15 3 4 4 12
split_gain=0.278522 0.371155 0.203645 0.215573 0.1384 0.153299 0.12695 0.126228 0.119418 0.0668011 0.0622373 0.0603989 0.0513405 0.0218138 0.0136945 0.0117891 0.00725623
threshold=0.028171778796844186 82.000000000000014 0.17110655737704919 2470.0000000000005 0.0020765000000000007 21.900000000000002 0.75542635658914736 21.750000000000004 302.00000000000006 3659.0000000000005 0.0050410000000000012 2.0384615384615388 1.0466666666666669 29.800000000000001 480.25000000000006 486.45000000000005 0.13220812163079884
decision_type=2 2 2 2 2 2 2 2 2 2 2 2 2 2 2 2 2
left_child=1 -1 7 6 -3 -6 12 -2 16 13 -8 -7 -4 -5 -10 -11 -9
right_child=2 4 3 9 5 11 10 8 14 15 -12 -13 -14 -15 -16 -17 -18
leaf_value=-0.0014076022925467993 0.0020850214512178173 0.0025016451586431774 -0.00041101392104657902 -0.0020293664265148641 0.0023522983593177223 0 0.00025630302537665102 -0.00023716866303183617 0.00090346911929901875 -8.3043685715733569e-05 -0.00028240572488094141 0.00086142924757688134 -0.0022362754188566059 -0.0011490729577171943 0.00019047819222389769 -0.00071955612339851015 -0.00093476485916894924
leaf_weight=134 75 93 63 100 91 272 726 71 225 106 820 345 64 296 87 155 93
leaf_count=134 75 93 63 100 91 272 726 71 225 106 820 345 64 296 87 155 93
internal_value=0 0.00062033 -0.000222909 -0.000397857 0.000970788 0.0007495 -0.000137435 0.000506341 0.000231852 -0.00104912 -2.66012e-05 0.000491241 -0.00140775 -0.00140194 0.000723825 -0.000483121 -0.000672659
internal_weight=0 935 2881 2330 801 708 1673 551 476 657 1546 617 127 396 312 261 164
internal_count=3816 935 2881 2330 801 708 1673 551 476 657 1546 617 127 396 312 261 164
is_linear=0
shrinkage=0.0425396


Tree=12
num_leaves=24
num_cat=0
split_feature=18 18 11 18 3 16 12 18 10 3 12 8 11 16 6 3 18 15 11 11 3 9 12
split_gain=2.39338 0.320507 0.254328 0.189489 0.157554 0.12634 0.110774 0.0972727 0.0851112 0.0839775 0.0762788 0.0614568 0.0590274 0.0548748 0.0477649 0.0437773 0.0391182 0.0255891 0.0212172 0.0161009 0.0141815 0.0130898 0.00364745
threshold=1.2272500000000004 2.0944550000000004 0.005373000000000001 0.73761424275560428 27.150000000000002 1.0794117647058827 0.040063299310991736 1.0252706044444448 0.013544500000000003 35.750000000000007 0.035692068608362944 0.011690000000000001 0.0055070000000000006 2.6041666666666674 343.50000000000006 22.300000000000004 2.5303372319688111 0.66666666666666685 0.012591000000000003 0.0093825000000000019 35.150000000000006 0.0056630000000000014 0.040063299310991736
decision_type=2 2 2 2 2 2 2 2 2 2 2 2 2 2 2 2 2 2 2 2 2 2 2
left_child=2 5 3 9 21 15 -6 14 16 13 12 -12 -7 -1 -4 -2 18 -16 -3 -9 -18 -5 -11
right_child=1 8 7 4 6 10 -8 19 -10 22 11 -13 -14 -15 17 -17 20 -19 -20 -21 -22 -23 -24
leaf_value=-0.00039002433506606213 0.0026275645160334128 0.0019977919263006742 -0.00049264768366438284 0.0007340082186628377 0.0011741864424631115 0.0022590868300683144 -0.00073365238050082573 -2.1128965829764687e-06 0.00056955872710211122 -0.00097266209720233364 0.00019003407119152395 0.0015464279687732009 0.00061564715748130044 -0.0017359716296855242 -0.0018801120286308119 0.00089780263366539886 0.001928252634765628 -0.00095977325008159988 0.00095065534405945921 -0.00086313950040210925 0.00292602501240016 0.0017783190738131689 -0.0017011944708317669
leaf_weight=474 79 167 74 73 64 73 262 86 78 75 607 65 112 62 575 63 125 100 86 89 182 73 184
leaf_count=474 79 167 74 73 64 73 262 86 78 75 607 65 112 62 575 63 125 100 86 89 182 73 184
internal_value=0 0.0012568 -0.0008906 -0.000491251 0.000175421 0.000768583 -0.000335338 -0.00142861 0.00200407 -0.000891326 0.00056066 0.000336807 0.00132426 -0.000566537 -0.00164166 0.00193955 0.0021902 -0.00175723 0.00168094 -0.000474694 0.00256646 0.00132161 -0.0015264
internal_weight=0 1637 2191 1267 472 999 326 924 638 795 857 672 185 536 749 142 560 675 253 175 307 146 259
internal_count=3828 1637 2191 1267 472 999 326 924 638 795 857 672 185 536 749 142 560 675 253 175 307 146 259
is_linear=0
shrinkage=0.0425396


Tree=13
num_leaves=23
num_cat=0
split_feature=18 18 11 18 3 7 18 18 10 7 7 10 18 5 2 7 18 8 9 9 17 9
split_gain=2.13633 0.288117 0.231213 0.205537 0.159529 0.148336 0.103882 0.0882099 0.0637736 0.0524885 0.0484344 0.0444872 0.0444169 0.0364636 0.0477579 0.0342791 0.0223504 0.0183084 0.0160818 0.0132981 0.0102725 0.00845662
threshold=1.2193329431693991 2.2854542222222229 0.005373000000000001 0.68871741727941194 27.150000000000002 390.50000000000006 0.15118145454545459 0.8229819444444445 0.013544500000000003 390.50000000000006 390.50000000000006 0.013544500000000003 1.6496147333333335 343.50000000000006 95.000000000000014 412.50000000000006 2.6238459016393452 0.0035906400000000004 0.0056630000000000014 0.0056630000000000014 2.0083333333333342 0.0098245000000000016
decision_type=2 2 2 2 2 2 2 2 2 2 2 2 2 2 2 2 2 2 2 2 2 2
left_child=2 5 3 6 18 19 -1 17 12 -8 -6 15 -7 -9 -15 -3 -17 -4 -5 -2 -19 -21
right_child=1 11 7 4 10 8 9 13 -10 -11 -12 -13 -14 14 -16 16 -18 20 -20 21 -22 -23
leaf_value=0.00065281660309770759 0.0011461310014673647 0.0032681099269899197 -0.00088839652666201951 0.00071368730048053581 0.00068981258838922324 0.0003580379153496592 -0.00055472631793982775 0 -0.00045374900053511962 -0.0013804428597704818 -0.00055558165513433272 0.00079929478709400161 0.00099275687073385071 -0.0017161126961294886 -0.00055107440186078036 0.0013424111962763718 0.0022848491952919864 -0.0015591574357432805 0.0017566202059167517 0.0026617442055806087 -0.002218365606256446 0.0014464906794324336
leaf_weight=63 84 69 77 86 63 437 255 74 92 416 295 62 431 114 189 129 218 308 77 66 170 68
leaf_count=63 84 69 77 86 63 437 255 74 92 416 295 62 431 114 189 129 218 308 77 66 170 68
internal_value=0 0.00117452 -0.00084843 -0.000463646 0.000174954 0.000805858 -0.000921206 -0.00135733 0.000566703 -0.00107872 -0.000318705 0.00205854 0.000681595 -0.000817518 -0.00102173 0.0022256 0.00196791 -0.00170698 0.00126537 0.00180763 -0.00182058 0.00214159
internal_weight=0 1656 2187 1255 521 1178 734 932 960 671 358 478 868 377 303 416 347 555 163 218 478 134
internal_count=3843 1656 2187 1255 521 1178 734 932 960 671 358 478 868 377 303 416 347 555 163 218 478 134
is_linear=0
shrinkage=0.0425396


Tree=14
num_leaves=13
num_cat=0
split_feature=6 2 12 4 8 7 3 8 11 8 12 5
split_gain=0.179336 0.284428 0.271341 0.142492 0.137505 0.0788968 0.0765432 0.04625 0.0335738 0.0228423 0.00783626 0.00299716
threshold=305.00000000000006 77.500000000000014 0.028171778796844186 226.50000000000003 0.0029430000000000007 583.4000000000002 22.300000000000004 0.023879000000000001 0.0032950000000000002 0.0075105000000000007 0.079581739526411663 422.40100000000007
decision_type=2 2 2 2 2 2 2 2 2 2 2 2
left_child=3 9 4 -1 8 7 -6 -4 -3 -2 -7 -11
right_child=1 2 5 -5 6 10 -8 -9 -10 11 -12 -13
leaf_value=-0.00025030386901330436 -0.0019696048763280069 0.00059190370026128783 -0.00011926662936360497 0.0017511371871965064 0.0023882065514032784 -0.00033990112453640201 0.00088452988532882056 0.00088665939210464762 -0.00054113411970392871 -0.001144408129329407 -0.0010716333580252063 -0.00052678623894786335
leaf_weight=92 84 64 2116 180 75 61 467 81 139 150 168 64
leaf_count=92 84 64 2116 180 75 61 467 81 139 150 168 64
internal_value=0 -6.05209e-05 5.69513e-05 0.00106509 0.000765593 -0.00015985 0.00111798 -7.85138e-05 -0.00015792 -0.0013078 -0.000905424 -0.000993901
internal_weight=0 3469 3171 272 745 2426 542 2197 203 298 229 214
internal_count=3741 3469 3171 272 745 2426 542 2197 203 298 229 214
is_linear=0
shrinkage=0.0425396


Tree=15
num_leaves=24
num_cat=0
split_feature=18 18 18 7 7 7 12 16 12 8 10 10 10 8 3 17 8 12 18 7 3 10 18
split_gain=1.9452 0.232464 0.184549 0.146184 0.113589 0.112045 0.10046 0.0973209 0.0870452 0.0703588 0.0646326 0.0633396 0.0500438 0.0476632 0.0581255 0.0422023 0.0448762 0.0331655 0.0299819 0.020793 0.047032 0.0120135 0.0106257
threshold=1.3685313131313135 0.83033723196881104 2.2854542222222229 385.00000000000006 390.50000000000006 405.15000000000003 0.098203592814371285 2.4998633132859491 0.098203592814371285 0.0041895000000000014 0.0053200000000000009 0.0044440000000000009 0.013544500000000003 0.0052570000000000013 26.050000000000004 1.1125000000000003 0.0039100000000000011 0.23681324701195219 1.7600000000000005 412.50000000000006 28.150000000000002 0.005556000000000001 0.32650000000000007
decision_type=2 2 2 2 2 2 2 2 2 2 2 2 2 2 2 2 2 2 2 2 2 2 2
left_child=1 5 4 15 21 7 11 9 10 -1 -5 -6 19 14 -7 -3 -17 -10 -8 -4 -21 -2 -15
right_child=2 3 12 8 6 13 18 -9 17 -11 -12 -13 -14 22 -16 16 -18 -19 -20 20 -22 -23 -24
leaf_value=0.00023765278017254553 0.0022241747044538357 0.0015271082210592246 0.0030484885589542967 0.00053788442436974841 0.0019541193197192444 -0.000284753151841428 -0.00011855048962303817 -0.0021745820801348853 -0.0011793815920898437 -0.00076305637020849626 -0.00063758174812551512 0.0006418845068477091 0.00070541252204428225 -0.0010364993648198269 -0.0013727088180346769 0.0010538055497068249 -0.0003796553342751842 -0.00019414500301958939 0.00055619649308353647 0.00099533763289734022 0.0022537548834995025 0.0010999418147487749 -0.0019369312936414725
leaf_weight=181 107 74 64 176 129 136 221 63 290 372 155 175 68 70 357 66 81 95 232 103 232 62 302
leaf_count=181 107 74 64 176 129 136 221 63 290 372 155 175 68 70 357 66 81 95 232 103 232 62 302
internal_value=0 -0.000754454 0.00123854 -0.000222706 0.000875186 -0.0010863 0.000636802 -0.000628029 -0.000521143 -0.000428382 -6.64325e-07 0.00123263 0.001935 -0.00140284 -0.00108649 0.000716173 0.00024688 -0.000952384 0.000219469 0.00212384 0.00189746 0.00187494 -0.00179306
internal_weight=0 2418 1393 937 926 1481 757 616 716 553 331 304 467 865 493 221 147 385 453 399 335 169 372
internal_count=3811 2418 1393 937 926 1481 757 616 716 553 331 304 467 865 493 221 147 385 453 399 335 169 372
is_linear=0
shrinkage=0.0425396


Tree=16
num_leaves=16
num_cat=0
split_feature=12 13 11 6 14 8 8 0 6 1 10 11 0 10 2
split_gain=0.198153 0.233412 0.174909 0.151474 0.184535 0.0987429 0.0792383 0.0909156 0.0666431 0.0692995 0.0660119 0.0636464 0.0445855 0.0306915 0.0268234
threshold=0.028171778796844186 82.000000000000014 0.0020765000000000007 293.50000000000006 151.20000000000002 0.0029430000000000007 0.0039100000000000011 1219.1000000000001 486.45000000000005 2725.0000000000005 0.0063570000000000007 0.013335000000000001 1325.0000000000002 0.0017080000000000001 87.000000000000014
decision_type=2 2 2 2 2 2 2 2 2 2 2 2 2 2 2
left_child=1 -1 -3 12 6 13 7 -5 10 -10 -6 -7 -2 -4 -8
right_child=3 2 5 4 8 11 14 -9 9 -11 -12 -13 -14 -15 -16
leaf_value=-0.0010952349616961826 0.0014324266591426609 0.0025958541216874629 0.00017249724184594781 0.00043877228922883146 0.00033669407414500444 0.0011429127459706688 -0.0017981491039086696 -0.0010588971644990845 0.00020579446530510616 -0.00080213640013363267 -0.00026429556499195123 0 0.00013790767530436114 -0.00090962378847496547 -0.00094161005040832319
leaf_weight=128 121 87 110 149 884 397 118 133 180 343 516 120 93 72 318
leaf_count=128 121 87 110 149 884 397 118 133 180 343 516 120 93 72 318
internal_value=0 0.000549116 0.000826987 -0.000169079 -0.000259015 0.000585902 -0.000839025 -0.000257681 -3.87796e-05 -0.000448119 0.000111943 0.000885819 0.000903838 -0.000243406 -0.00119884
internal_weight=0 914 786 2855 2641 699 718 282 1923 523 1400 517 214 182 436
internal_count=3769 914 786 2855 2641 699 718 282 1923 523 1400 517 214 182 436
is_linear=0
shrinkage=0.0425396


Tree=17
num_leaves=15
num_cat=0
split_feature=6 12 3 14 15 11 5 5 5 9 3 6 12 12
split_gain=0.193262 0.18573 0.169744 0.155012 0.118623 0.103674 0.0944673 0.121196 0.0890319 0.0766924 0.0694668 0.0431139 0.0334469 0.0107204
threshold=305.00000000000006 0.028171778796844186 22.300000000000004 151.20000000000002 0.33166666666666672 0.0025075000000000006 729.00000000000011 413.50000000000006 486.20000000000005 0.018476500000000003 40.70000000000001 776.50000000000011 0.12605521095861302 0.217
decision_type=2 2 2 2 2 2 2 2 2 2 2 2 2 2
left_child=4 2 -2 6 13 -4 7 -3 10 -7 -5 -10 -6 -1
right_child=1 3 5 8 12 9 -8 -9 11 -11 -12 -13 -14 -15
leaf_value=0.0025346904865189536 0.0020368639491059222 -0.00059399214766015808 0.0017356901144074694 -5.74119949645016e-05 -0.00050065666385244463 0.00020328777778181486 0.00063725041114502375 -0.001941307841807768 -0.00030438492893028707 -0.0012681345334988395 0.00062389201067315086 -0.001269564087896257 0.00073444541110877096 0.0013157970663458219
leaf_weight=61 102 494 70 919 62 686 69 167 546 66 374 102 88 72
leaf_count=61 102 494 70 919 62 686 69 167 546 66 374 102 88 72
internal_value=0 -8.4632e-05 0.000432141 -0.000265449 0.00106176 0.000218041 -0.000792433 -0.000951436 -6.36764e-05 6.18108e-05 0.000137721 -0.000470472 0.00019591 0.0019693
internal_weight=0 3595 924 2671 283 822 730 661 1941 752 1293 648 150 133
internal_count=3878 3595 924 2671 283 822 730 661 1941 752 1293 648 150 133
is_linear=0
shrinkage=0.0425396


Tree=18
num_leaves=19
num_cat=0
split_feature=12 7 15 13 14 3 0 12 8 7 16 12 3 5 5 9 3 3
split_gain=0.176758 0.264235 0.145083 0.123403 0.10513 0.0938757 0.0798719 0.0679842 0.063769 0.0583818 0.0521112 0.0483422 0.0382945 0.0292797 0.0217051 0.0192823 0.00850691 0.00759552
threshold=0.028171778796844186 442.30000000000007 0.15500000000000003 95.000000000000014 136.00000000000003 21.750000000000004 950.00000000000011 1.0000000180025095e-35 0.0042755555555555559 751.00000000000011 2.0384615384615388 0.070611111111111138 35.150000000000006 489.50000000000006 423.75000000000006 0.0046425000000000008 23.725000000000005 38.350000000000001
decision_type=2 2 2 2 2 2 2 2 2 2 2 2 2 2 2 2 2 2
left_child=1 10 5 -3 6 -2 8 16 -4 11 -1 -6 -7 -14 -8 -9 -5 -12
right_child=2 3 4 7 9 12 14 15 -10 -11 17 -13 13 -15 -16 -17 -18 -19
leaf_value=0.0021944409912542933 0.0018204615735937042 -0.001290442467504836 0.00041618838383133218 0.0002922176947987487 -0.00056442403336632728 -0.00066347804762616495 -0.00080142585306484623 0.0015648558287196482 -0.00081538032739169556 -0.0011304955261495419 0.00057581990184361149 1.1871467044598481e-05 0.00089592034924027778 8.2632029898041465e-06 -0.0018233799508430163 0.00040493901020848997 -0.00018469362249162879 0.0012538409480306828
leaf_weight=118 81 111 114 83 311 64 97 68 196 99 99 1518 132 153 129 67 257 124
leaf_count=118 81 111 114 83 311 64 97 68 196 99 99 1518 132 153 129 67 257 124
internal_value=0 0.000507411 -0.000166219 -3.51389e-05 -0.000293313 0.000547634 -0.00081958 0.000258152 -0.000349091 -0.000143227 0.0014411 -8.4846e-05 0.000221057 0.000441786 -0.00142717 0.0010512 -5.33599e-05 0.000988852
internal_weight=0 927 2894 586 2464 430 536 475 310 1928 341 1829 349 285 226 135 340 223
internal_count=3821 927 2894 586 2464 430 536 475 310 1928 341 1829 349 285 226 135 340 223
is_linear=0
shrinkage=0.0425396


Tree=19
num_leaves=23
num_cat=0
split_feature=18 18 11 18 17 17 18 11 4 8 18 10 11 15 1 6 11 1 15 18 11 18
split_gain=1.70746 0.2465 0.181559 0.12638 0.109411 0.0794948 0.0773229 0.0676908 0.0677982 0.0605196 0.0576439 0.0472424 0.0307803 0.0288173 0.0282454 0.0263961 0.0240446 0.0202879 0.015692 0.0145703 0.00504428 0.00487519
threshold=1.2193329431693991 2.1479951111111117 0.005373000000000001 0.73761424275560428 2.4209302325581397 1.1816666666666669 0.97057826729846308 0.011984000000000003 407.50000000000006 0.0031065000000000003 0.17450000000000002 0.013544500000000003 0.0020940000000000004 0.97368421052631582 2010.0000000000002 343.50000000000006 0.004811000000000001 2060.0000000000005 0.66666666666666685 2.6238459016393452 0.012591000000000003 1.6893447491803282
decision_type=2 2 2 2 2 2 2 2 2 2 2 2 2 2 2 2 2 2 2 2 2 2
left_child=2 4 3 10 7 12 15 8 -2 -7 -1 19 -5 16 -12 -4 -6 -8 -17 20 -3 -9
right_child=1 11 6 5 13 9 17 21 -10 -11 14 -13 -14 -15 -16 18 -18 -19 -20 -21 -22 -23
leaf_value=0.0002627673503709978 0.00044810277975162506 0.00177296520918853 -0.00055889514233670244 0.00025422095654439078 0.0007377166954342342 0.00049822197239738654 0 -3.444651924195047e-05 0.0014339818773389144 -0.00066757279733955241 -0.0006228282751619365 0.00067381513471258953 0.0017006860617097171 -0.00077615024643541404 -0.00122276497378501 -0.0016713417917766753 -0.00023057913152961821 -0.00082333958843053615 -0.00087761391865499557 0.002237055744829566 0.0010429295013571101 0.00036906252267935929
leaf_weight=82 213 175 74 62 76 125 89 96 401 201 420 83 61 78 286 509 97 138 95 242 90 84
leaf_count=82 213 175 74 62 76 125 89 96 401 201 420 83 61 78 286 509 97 138 95 242 90 84
internal_value=0 0.00105143 -0.00077182 -0.000428992 0.000647837 0.000131787 -0.00123131 0.000892073 0.00110461 -0.000206665 -0.000753003 0.00174892 0.00103951 -0.000109695 -0.000878021 -0.00146217 0.000177837 -0.000508355 -0.00156086 0.00190914 0.00156212 0.00013443
internal_weight=0 1635 2142 1237 1045 449 905 794 614 326 788 590 123 251 706 678 173 227 604 507 265 180
internal_count=3777 1635 2142 1237 1045 449 905 794 614 326 788 590 123 251 706 678 173 227 604 507 265 180
is_linear=0
shrinkage=0.0425396


Tree=20
num_leaves=21
num_cat=0
split_feature=18 18 18 11 7 16 7 11 10 11 4 10 2 3 11 7 3 15 8 16
split_gain=1.61303 0.219506 0.153417 0.114784 0.11312 0.0943063 0.0885405 0.0677483 0.0575416 0.0531863 0.0433228 0.0395175 0.0356358 0.0295407 0.0275446 0.020018 0.0324019 0.0184082 0.0150864 0.00448628
threshold=1.3685313131313135 0.87384590163934439 2.2655000000000007 0.005373000000000001 385.00000000000006 1.0794117647058827 396.50000000000006 0.004811000000000001 0.013544500000000003 0.0063370000000000006 427.70000000000005 0.013544500000000003 111.00000000000001 27.450000000000003 0.011984000000000003 412.50000000000006 38.20000000000001 0.24959016393442626 0.0035906400000000004 2.3428571428571456
decision_type=2 2 2 2 2 2 2 2 2 2 2 2 2 2 2 2 2 2 2 2
left_child=1 3 5 6 9 -2 12 10 14 -3 -6 15 -1 -8 -7 -4 -17 -9 -5 -20
right_child=2 4 11 18 7 8 13 17 -10 -11 -12 -13 -14 -15 -16 16 -18 -19 19 -21
leaf_value=-0.00061116397078090842 0.0019226164624258032 0.0015441140720816318 0.0027486846548419558 -0.00069842708864322302 -0.00043826832169195293 0.0009447872404129685 -0.00047533440475846269 -0.0011621604966499074 -0.00031207147418220243 6.7601593139640098e-05 0.00054851315686645682 0.00064317196101550307 0.00015442415740587852 -0.0012645841496944472 0.00030669547909917917 0.0010936446702582887 0.0020771907500189142 -0.00046982933021566325 -0.001378525001348869 -0.0019698256333368033
leaf_weight=194 120 87 73 77 145 476 151 142 95 99 167 67 230 347 203 145 215 219 404 111
leaf_count=194 120 87 73 77 145 476 151 142 95 99 167 67 230 347 203 145 215 219 404 111
internal_value=0 -0.000658759 0.00116198 -0.000966612 -0.000108965 0.000812463 -0.000655873 -0.000370358 0.000624937 0.000800711 7.63823e-05 0.00176585 -0.000188322 -0.00104017 0.000763582 0.00192144 0.00171084 -0.000764727 -0.00143491 -0.00152984
internal_weight=0 2373 1394 1514 859 894 922 673 774 186 312 500 424 498 679 433 360 361 592 515
internal_count=3767 2373 1394 1514 859 894 922 673 774 186 312 500 424 498 679 433 360 361 592 515
is_linear=0
shrinkage=0.0425396


Tree=21
num_leaves=20
num_cat=0
split_feature=18 18 18 7 6 7 4 12 7 12 8 17 12 14 5 18 8 10 18
split_gain=1.47556 0.2424 0.136549 0.115544 0.104568 0.086845 0.0866316 0.060831 0.065666 0.0565379 0.0692691 0.0457218 0.0566949 0.0366612 0.0320303 0.0254903 0.0211958 0.0181219 0.00280029
threshold=1.4190141818181821 0.93350000000000011 2.5020551420765034 366.50000000000006 305.00000000000006 390.50000000000006 472.55000000000007 0.046870443657571349 356.35000000000008 0.028171778796844186 0.0054460000000000003 1.608823529411765 0.27500000000000008 81.500000000000014 503.50000000000006 0.61901418181818191 0.011690000000000001 0.0061605000000000002 1.7600000000000005
decision_type=2 2 2 2 2 2 2 2 2 2 2 2 2 2 2 2 2 2 2
left_child=1 3 5 7 -3 18 13 -1 -9 10 -6 15 -13 -7 -8 -5 -11 -4 -2
right_child=2 4 17 11 9 6 14 8 -10 16 -12 12 -14 -15 -16 -17 -18 -19 -20
leaf_value=0.00080251298303732409 0.001233895418583815 0.0015917661396231447 0.0022754294492851389 -0.0010152353746024627 0.0013054606106258329 -0.00048794675727113334 0.00089188143613761536 -0.001071556825209432 7.2637343267849789e-05 -0.00045604875583336499 -0.00038077541670960023 -0.0015020378760299347 -0.0004159058891559599 0.00048220768779582004 0.0019544446182283917 -0.00031902103147283113 0.00031865601400749743 0.0014125646412047846 0.0021279824518385063
leaf_weight=70 74 63 174 288 89 76 213 182 163 511 75 635 119 435 92 182 63 164 87
leaf_count=70 74 63 174 288 89 76 213 182 163 511 75 635 119 435 92 182 63 164 87
internal_value=0 -0.000619725 0.00114557 -0.000915507 -7.3943e-06 0.000875344 0.000681654 -0.000284067 -0.000524295 -0.000158333 0.000518466 -0.00112428 -0.00133975 0.000326536 0.00124952 -0.000760253 -0.000361706 0.00189282 0.00178679
internal_weight=0 2440 1315 1639 801 977 816 415 345 738 164 1224 754 511 305 470 574 338 161
internal_count=3755 2440 1315 1639 801 977 816 415 345 738 164 1224 754 511 305 470 574 338 161
is_linear=0
shrinkage=0.0425396


Tree=22
num_leaves=20
num_cat=0
split_feature=18 18 18 6 11 3 18 7 11 7 4 15 10 7 11 18 18 18 3
split_gain=1.37966 0.193701 0.152594 0.149288 0.097787 0.116535 0.0734238 0.0617113 0.0409123 0.0426228 0.0391634 0.035799 0.0353132 0.0338431 0.0328341 0.0301609 0.0127545 0.00660837 0.00518319
threshold=1.3685313131313135 0.73761424275560428 2.1272500000000005 305.00000000000006 0.005373000000000001 27.150000000000002 0.15118145454545459 390.50000000000006 0.0058790000000000014 390.50000000000006 407.50000000000006 0.50301204819277123 0.013544500000000003 412.50000000000006 0.004811000000000001 2.7005000000000003 1.6496147333333335 0.30557121212121213 21.650000000000002
decision_type=2 2 2 2 2 2 2 2 2 2 2 2 2 2 2 2 2 2 2
left_child=1 6 7 -3 5 -5 -1 18 9 -8 16 -6 13 -4 -12 -15 -9 -10 -2
right_child=2 3 12 4 11 -7 8 10 17 -11 14 -13 -14 15 -16 -17 -18 -19 -20
leaf_value=0.000289147516527891 0.0018024808993369981 0.0014544489151201874 0.0025977591295554955 0.001209329634615047 -0.0009583694946045029 -0.0003023993984004942 -0.00042079271287638853 -0.00052809823973451041 -0.00079860257778375241 -0.0011211685383896253 0.0011750804478369971 -0.00010522097884494294 0.00054005131299833357 0.0010590913970749147 0.00039547802675101731 0.0019081356497463614 0.00021604782766166365 -0.0015503985101546066 0.00091152474174203957
leaf_weight=68 78 83 85 117 411 377 279 70 67 485 154 130 69 214 355 206 82 344 68
leaf_count=68 78 83 85 117 411 377 279 70 67 485 154 130 69 214 355 206 82 344 68
internal_value=0 -0.000638743 0.00105169 -0.00022605 -0.00037055 5.43159e-05 -0.00100435 0.000659507 -0.0010837 -0.000874925 0.000468858 -0.000763851 0.00158639 0.00171493 0.00064783 0.00150114 -0.000103874 -0.00144802 0.001455
internal_weight=0 2361 1381 1118 1035 494 1243 807 1175 764 661 541 574 505 509 420 152 411 146
internal_count=3742 2361 1381 1118 1035 494 1243 807 1175 764 661 541 574 505 509 420 152 411 146
is_linear=0
shrinkage=0.0425396


Tree=23
num_leaves=16
num_cat=0
split_feature=12 2 9 5 6 8 14 8 5 14 0 5 8 9 16
split_gain=0.158646 0.222393 0.116025 0.0958688 0.0909454 0.0741318 0.0736639 0.103948 0.0564169 0.0445483 0.0233916 0.0192447 0.00913189 0.00890855 0.00728009
threshold=0.028171778796844186 77.500000000000014 0.00088000000000000003 441.50000000000006 293.50000000000006 0.0051859938779914953 151.20000000000002 0.0039100000000000011 486.20000000000005 235.00000000000003 1325.0000000000002 413.50000000000006 0.0031865000000000005 0.0091420000000000026 1.3961038961038963
decision_type=2 2 2 2 2 2 2 2 2 2 2 2 2 2 2
left_child=1 13 11 5 10 -3 7 -6 -8 12 -4 -2 -5 -1 -11
right_child=2 3 4 9 6 -7 8 -9 -10 14 -12 -13 -14 -15 -16
leaf_value=-0.00028765695904866493 -0.00055802389192196656 0.0021945182239438972 0.0011191193844442104 0.00059763649235864856 6.006373608674288e-05 0.00067345377158833236 0.00014620196534511268 -0.001083575678274367 -0.0003430766550468058 -0.00015905851089245874 9.7856877120497903e-05 -0.0017049888478512321 0.0014560323741688664 -0.0010677697956733849 0.00027409565750494282
leaf_weight=62 66 130 129 84 249 131 1247 314 641 76 74 87 71 117 283
leaf_count=62 66 130 129 84 249 131 1247 314 641 76 74 87 71 117 283
internal_value=0 0.000490644 -0.000142972 0.000805303 -7.45518e-05 0.00147113 -0.000148179 -0.000573496 -1.80129e-05 0.00044926 0.000777783 -0.00126713 0.00104731 -0.000834645 0.000169566
internal_weight=0 954 2807 775 2654 261 2451 563 1888 514 203 153 155 179 359
internal_count=3761 954 2807 775 2654 261 2451 563 1888 514 203 153 155 179 359
is_linear=0
shrinkage=0.0425396


Tree=24
num_leaves=15
num_cat=0
split_feature=12 2 7 6 14 4 5 7 11 4 14 4 7 14
split_gain=0.158513 0.216931 0.157559 0.0671362 0.10918 0.0701747 0.0633835 0.0569243 0.0618762 0.0467272 0.0442177 0.0318741 0.0291522 0.00770409
threshold=0.028171778796844186 77.500000000000014 352.50000000000006 293.50000000000006 156.20000000000002 684.1400000000001 413.50000000000006 435.10000000000008 0.0078520000000000013 414.46600000000007 103.50000000000001 276.50000000000006 442.30000000000007 145.00000000000003
decision_type=2 2 2 2 2 2 2 2 2 2 2 2 2 2
left_child=1 13 -3 11 5 6 -5 9 -9 -6 -4 -2 -12 -1
right_child=3 2 10 4 7 -7 -8 8 -10 -11 12 -13 -14 -15
leaf_value=-0.0010447468521519038 0 0.0025638088685752945 0.0012861843109086731 -0.00049043907018769687 -1.4571493175830526e-05 0.00058799565952179407 -0.0014106759075634618 -0.00055415466149437778 6.036394433766257e-05 0.00066892272873746281 0.00086001439453509371 0.0010508047405193425 0.00016454039007622096 -0.00031756483350869837
leaf_weight=115 89 79 128 474 451 68 207 553 608 285 164 110 382 67
leaf_count=115 89 79 128 474 451 68 207 553 608 285 164 110 382 67
internal_value=0 0.000478323 0.000799373 -0.000158884 -0.000217024 -0.000650707 -0.000783722 -4.23943e-05 -0.000229568 0.000246574 0.000570987 0.00058077 0.000386529 -0.000814173
internal_weight=0 935 753 2845 2646 749 681 1897 1161 736 674 199 546 182
internal_count=3780 935 753 2845 2646 749 681 1897 1161 736 674 199 546 182
is_linear=0
shrinkage=0.0425396


Tree=25
num_leaves=25
num_cat=0
split_feature=18 18 18 16 3 16 12 2 9 0 12 3 10 18 15 3 9 12 18 5 12 16 5 18
split_gain=1.26205 0.155306 0.137065 0.0912702 0.0829665 0.0743525 0.0519895 0.0516844 0.0468202 0.0325127 0.0339535 0.0313027 0.0282346 0.0254031 0.0242391 0.0218437 0.0192997 0.0154342 0.0202769 0.0139254 0.00998901 0.00984745 0.00696436 0.00163292
threshold=1.3067615333333336 2.2409518199233722 0.97057826729846308 1.0794117647058827 35.750000000000007 2.1961538461538468 0.028171778796844186 180.00000000000003 0.0057130000000000002 1219.6000000000001 0.092089052287581713 25.670000000000005 0.013544500000000003 1.6193329431693992 0.89117647058823535 35.150000000000006 0.0059170000000000013 0.063499360776837863 0.67248194444444453 450.05000000000007 0.098203592814371285 1.8823529411764708 380.50000000000006 2.6238459016393452
decision_type=2 2 2 2 2 2 2 2 2 2 2 2 2 2 2 2 2 2 2 2 2 2 2 2
left_child=2 3 4 8 5 7 16 -1 -2 13 -11 19 15 -5 -7 21 -4 18 -6 -8 -13 -3 -19 -17
right_child=1 12 6 9 17 14 11 -9 -10 10 -12 20 -14 -15 -16 23 -18 22 -20 -21 -22 -23 -24 -25
leaf_value=-0.00025893644719879143 0.0024036082449905819 0.0015956645259909384 0.0012090490647550371 -0.00020531135289167848 -0.0011458608871468907 -0.0018459081196378234 0.00071993228439626517 -0.0013615289521866087 0.00065175214061737442 0.0011132152141083943 0.00034635374759596244 -8.6376467159523116e-05 0.00058943061727453829 0.0004643623896306981 -0.00062574664856703194 0.0014816096415909712 9.6277894741114478e-05 -0.00079260014620580904 -0.00036990950212382724 -0.00011014373598219541 -0.00064838779536934791 0.00075669852086175215 -0.0015120466158130125 0.0022824941350508983
leaf_weight=773 73 101 62 167 218 94 62 85 63 216 253 104 65 232 71 91 67 76 119 63 225 90 297 152
leaf_count=773 73 101 62 167 218 94 62 85 63 216 253 104 65 232 71 91 67 76 119 63 225 90 297 152
internal_value=0 0.000963511 -0.00061742 0.000646551 -0.000806982 -0.000549726 -4.46939e-05 -0.00037956 0.00166863 0.000473869 0.000715759 -0.000266359 0.00158145 0.000174051 -0.00137627 0.00171272 0.000685884 -0.00116592 -0.000892876 0.000278178 -0.000487287 0.00124839 -0.00138788 0.00203161
internal_weight=0 1503 2316 1004 1733 1023 583 858 136 868 469 454 499 399 165 434 129 710 337 125 329 191 373 243
internal_count=3819 1503 2316 1004 1733 1023 583 858 136 868 469 454 499 399 165 434 129 710 337 125 329 191 373 243
is_linear=0
shrinkage=0.0425396


Tree=26
num_leaves=13
num_cat=0
split_feature=6 2 15 0 15 5 14 14 5 4 4 0
split_gain=0.0976554 0.176613 0.0803309 0.0773755 0.052434 0.0471928 0.0512294 0.0164185 0.00898955 0.00803393 0.00680363 0.00375455
threshold=305.00000000000006 77.500000000000014 0.33166666666666672 2175.0000000000005 0.39947643979057595 772.50000000000011 20.500000000000004 145.00000000000003 419.47500000000008 188.00000000000003 776.50000000000011 2750.0000000000005
decision_type=2 2 2 2 2 2 2 2 2 2 2 2
left_child=2 7 -1 5 11 6 -3 8 -2 -4 -7 -5
right_child=1 3 9 4 -6 10 -8 -9 -10 -11 -12 -13
leaf_value=0.0015864743919632605 -0.00077070617357386352 -0.00056116452427204489 -0.00026495684152630123 0.00039406036722338848 0.0014768267272717967 -0.00033060865682294481 6.7685997288552874e-05 -0.00054586233184972677 -0.0016100331513262522 0.00035437739869345381 -0.00095152527233215232 0
leaf_weight=117 82 254 61 87 99 102 2506 122 108 78 95 78
leaf_count=117 82 254 61 87 99 102 2506 122 108 78 95 78
internal_value=0 -6.8387e-05 0.000785067 2.44578e-05 0.000716919 -3.68532e-05 7.43995e-06 -0.00102784 -0.00129567 5.23143e-05 -0.000665841 0.000208917
internal_weight=0 3533 256 3221 264 2957 2760 312 190 139 197 165
internal_count=3789 3533 256 3221 264 2957 2760 312 190 139 197 165
is_linear=0
shrinkage=0.0425396


Tree=27
num_leaves=24
num_cat=0
split_feature=18 18 18 16 12 18 8 18 16 7 6 7 12 18 15 12 1 8 14 15 15 0 18
split_gain=1.1588 0.159637 0.124734 0.0972154 0.083022 0.0697373 0.0656253 0.05836 0.0468683 0.0403474 0.0619305 0.0373537 0.0351153 0.0287468 0.0277092 0.0276715 0.0261239 0.024376 0.0180602 0.0165461 0.00986525 0.00478768 0.000462799
threshold=1.2387335937500004 1.7449550000000003 0.72092244444444453 1.0794117647058827 0.27500000000000008 0.31316950000000005 0.0031065000000000003 2.5600000000000009 1.4309523809523812 385.00000000000006 503.00000000000006 390.50000000000006 0.040063299310991736 0.49957150416666668 0.97368421052631582 0.067687851386947176 2752.5000000000005 0.0030650000000000004 156.20000000000002 0.17650523560209427 0.28888888888888892 1219.6000000000001 3.0933188888888892
decision_type=2 2 2 2 2 2 2 2 2 2 2 2 2 2 2 2 2 2 2 2 2 2 2
left_child=2 9 4 18 8 -6 12 11 13 -2 14 -3 -5 -1 -11 -13 -8 -10 -4 22 -12 -21 -9
right_child=1 7 3 6 5 -7 16 19 17 10 20 15 -14 -15 -16 -17 -18 -19 -20 21 -22 -23 -24
leaf_value=-0.00094968896761567191 0.0010123655845129353 0.0017120367351852368 0.00014975968233876493 0.00085246346298839374 0.0010131547697666968 -0.00064066080279026551 -0.00049039990029334669 0.0015438799342820965 -0.00088480233767195666 5.8548216236581777e-05 0.00041348313633870131 0.001267887704131495 -0.0003266515190488979 -0.00015510483169663665 -0.00082412011764558416 0.00052706590672353063 -0.0011571101831820637 -0.0015415069381115763 0.0010514676928206291 0.00096522336586822252 0.0013243478277152573 0.0016987705924531675 0.0025890740488228921
leaf_weight=275 125 101 105 82 61 148 416 68 223 323 65 148 87 140 74 363 173 407 81 118 68 82 64
leaf_count=275 125 101 105 82 61 148 416 68 223 323 65 148 87 140 74 363 173 407 81 118 68 82 64
internal_value=0 0.000854472 -0.000648818 -0.000271094 -0.00092777 -0.00012666 -0.000487906 0.00120932 -0.00108264 0.000331819 0.000156193 0.000934367 0.000227305 -0.00069645 -0.000102253 0.00075901 -0.000700645 -0.00132361 0.000580466 0.00168451 0.000938227 0.00131716 0.0021492
internal_weight=0 1599 2198 944 1254 209 758 944 1045 655 530 612 169 415 397 511 589 630 186 332 133 200 132
internal_count=3797 1599 2198 944 1254 209 758 944 1045 655 530 612 169 415 397 511 589 630 186 332 133 200 132
is_linear=0
shrinkage=0.0425396


Tree=28
num_leaves=11
num_cat=0
split_feature=6 2 14 17 17 1 17 8 1 10
split_gain=0.0789364 0.140669 0.0797996 0.0774132 0.0786557 0.0474665 0.043065 0.0223964 0.00425847 0.00123018
threshold=305.00000000000006 77.500000000000014 9.2000000000000011 1.0500000000000003 0.67220528455284556 4566.0000000000009 1.9090909090909094 0.0075105000000000007 1170.0000000000002 0.010953500000000003
decision_type=2 2 2 2 2 2 2 2 2 2
left_child=6 7 -3 4 -4 -5 8 -2 -1 -9
right_child=1 2 3 5 -6 -7 -8 9 -10 -11
leaf_value=0.00050984743527422033 -0.0015150438188395639 -0.0013796843158433779 -0.0004550535151390998 -9.2890094978784074e-05 0.00096384058047356981 0.00035891043620825126 0.0014629419112845896 -0.00072137861526798636 1.4311354981320801e-05 -0.00028016526669507176
leaf_weight=68 88 66 85 2297 295 510 90 157 91 62
leaf_count=68 88 66 85 2297 295 510 90 157 91 62
internal_value=0 -4.66802e-05 3.46591e-05 6.71612e-05 0.000633529 -8.82008e-06 0.000730319 -0.000911018 0.000260929 -0.00062393
internal_weight=0 3560 3253 3187 380 2807 249 307 159 219
internal_count=3809 3560 3253 3187 380 2807 249 307 159 219
is_linear=0
shrinkage=0.0425396


Tree=29
num_leaves=24
num_cat=0
split_feature=18 18 11 7 7 12 18 4 10 12 18 2 3 12 12 4 18 18 11 16 12 2 12
split_gain=0.990532 0.149155 0.147165 0.0904204 0.0780108 0.0659673 0.063153 0.0620442 0.0453466 0.0402595 0.039981 0.0385572 0.0323825 0.0298476 0.0283724 0.0249876 0.0217566 0.0204961 0.0170637 0.0145414 0.00921223 0.00714631 0.00603787
threshold=1.1354542222222224 1.8631695000000004 0.005373000000000001 390.50000000000006 385.00000000000006 0.098203592814371285 0.66112400000000016 424.50000000000006 0.013544500000000003 0.12605521095861302 0.75158953488372104 111.00000000000001 18.500000000000004 0.23681324701195219 0.15041119195162686 478.25000000000006 0.19995677083333332 0.77850000000000019 0.0063370000000000006 1.466666666666667 0.217 82.000000000000014 0.069597776324395053
decision_type=2 2 2 2 2 2 2 2 2 2 2 2 2 2 2 2 2 2 2 2 2 2 2
left_child=2 4 3 6 18 7 11 -6 12 -8 16 -1 -3 -7 -14 -12 -5 20 -2 -19 22 -21 -4
right_child=1 8 17 10 5 13 9 -9 -10 -11 15 -13 14 -15 -16 -17 -18 19 -20 21 -22 -23 -24
leaf_value=-0.00095807270953086356 0.0016423267196945172 0.00025607554279419623 -0.001045438786957061 -4.0118697841085994e-05 -0.00023653343531833924 -0.00035238977295409086 0.0015373020287413528 0.0010110238565899205 0.00025668123262875738 7.5176265993942109e-05 -0.00050744546535318646 0.00012076423739816125 0.0012341400340325083 0.00048784597985960284 0.0022217933633072247 0.00031073111110636376 -0.00094444966157434564 -0.00020078909894709167 0.00067917488889953454 -0.0013928376130756938 -0.00062076286607781273 -0.00070861265871004415 -0.0015885044470992165
leaf_weight=83 79 63 181 66 96 351 74 224 102 73 157 172 556 90 80 106 434 82 116 71 67 174 238
leaf_count=83 79 63 181 66 96 351 74 224 102 73 157 172 556 90 80 106 434 82 116 71 67 174 238
internal_value=0 0.000733501 -0.000652822 -0.000338794 0.000365441 0.00016146 0.000167945 0.000625137 0.00116301 0.000863139 -0.00061091 -0.000223735 0.00128664 -0.000168008 0.00137946 -0.000161655 -0.000835118 -0.00109326 0.00111865 -0.000776873 -0.00128844 -0.000945288 -0.0013774
internal_weight=0 1757 1978 1165 956 761 402 320 801 147 763 255 699 441 636 263 500 813 195 327 486 245 419
internal_count=3735 1757 1978 1165 956 761 402 320 801 147 763 255 699 441 636 263 500 813 195 327 486 245 419
is_linear=0
shrinkage=0.0425396


Tree=30
num_leaves=17
num_cat=0
split_feature=16 17 2 12 12 3 14 14 14 12 2 11 11 3 0 0
split_gain=0.0846721 0.162349 0.0949797 0.0733752 0.0568407 0.0428747 0.0426266 0.0335924 0.0225176 0.0297476 0.020259 0.0166904 0.0133744 0.01173 0.00198846 0.00167743
threshold=1.0794117647058827 0.67220528455284556 72.500000000000014 0.028171778796844186 0.010037425840029932 24.150000000000002 177.50000000000003 198.00000000000003 66.000000000000014 0.23681324701195219 55.000000000000007 0.0032070000000000002 0.005663500000000001 26.600000000000005 1683.5000000000002 475.00000000000006
decision_type=2 2 2 2 2 2 2 2 2 2 2 2 2 2 2 2
left_child=1 7 10 -3 6 14 -4 -1 12 -10 15 -8 -6 -7 -5 -2
right_child=2 3 4 5 8 13 11 -9 9 -11 -12 -13 -14 -15 -16 -17
leaf_value=-0.0015164200732125518 -0.00073938629905607447 0.0016305683634219898 0.0011331952797926849 0.0011077604604831598 -0.00023618665439248168 0.00027788082376402687 0.0006705258904423654 -9.299267884324436e-05 -0.00016785425082701161 0.00023834255099017913 -0.0014803967486396535 2.7461834191202151e-05 -0.0010955578932207893 -0.00034971162641557734 0.00052865187883363736 -0.00024257167166939468
leaf_weight=67 64 132 98 112 105 139 90 65 1721 391 86 401 63 80 69 67
leaf_count=67 64 132 98 112 105 139 90 65 1721 391 86 401 63 80 69 67
internal_value=0 0.000427456 -0.000100504 0.000762714 -3.33657e-05 0.000451036 0.000335595 -0.000872894 -0.000131051 -9.02538e-05 -0.000950285 0.000159015 -0.000603344 2.67133e-05 0.000928178 -0.000533552
internal_weight=0 664 3086 532 2869 400 589 132 2280 2112 217 491 168 219 181 131
internal_count=3750 664 3086 532 2869 400 589 132 2280 2112 217 491 168 219 181 131
is_linear=0
shrinkage=0.0425396


Tree=31
num_leaves=17
num_cat=0
split_feature=12 2 11 6 14 1 13 13 8 11 2 17 13 11 16 0
split_gain=0.0741083 0.117005 0.0571953 0.0546792 0.0762817 0.0412061 0.0430305 0.0344764 0.0301191 0.0418623 0.0281577 0.0209717 0.0184032 0.00674544 0.00429022 0.00346063
threshold=0.028171778796844186 77.500000000000014 0.0020765000000000007 305.00000000000006 151.20000000000002 2060.0000000000005 304.50000000000006 87.000000000000014 0.0029430000000000007 0.013884500000000003 180.00000000000003 1.9090909090909094 137.50000000000003 0.0027925000000000003 1.5652777777777778 806.00000000000011
decision_type=2 2 2 2 2 2 2 2 2 2 2 2 2 2 2 2
left_child=1 15 -3 11 7 12 -7 13 14 -10 -9 -2 -6 -5 -4 -1
right_child=3 2 8 4 5 6 -8 10 9 -11 -12 -13 -14 -15 -16 -17
leaf_value=-0.00079366594478939346 0.00018195166969505136 0.0015531417170232958 -0.00022809788311631781 0.00036483840199775326 5.4370195200609585e-05 -0.00032492315292868915 0.00020960578481210896 -0.00084732701175972854 0.00075727802218265297 -0.00020808060280158266 -2.7823939160394281e-05 0.0011182536170451357 0.00053911151104617358 -0.00021001027327107412 0.00017645529780862629 -0.00023440699067245614
leaf_weight=118 142 90 110 62 392 924 372 447 408 91 105 71 242 74 68 61
leaf_count=118 142 90 110 62 392 924 372 447 408 91 105 71 242 74 68 61
internal_value=0 0.000320396 0.000551831 -0.00011361 -0.00016846 -2.85819e-05 -0.000167946 -0.00055189 0.000403226 0.000572274 -0.000700735 0.000530309 0.000248658 2.41147e-05 -4.90675e-05 -0.000637005
internal_weight=0 946 767 2831 2618 1930 1296 688 677 499 552 213 634 136 178 179
internal_count=3777 946 767 2831 2618 1930 1296 688 677 499 552 213 634 136 178 179
is_linear=0
shrinkage=0.0425396


Tree=32
num_leaves=12
num_cat=0
split_feature=7 11 9 1 6 6 6 8 14 11 1
split_gain=0.0706487 0.172438 0.0445877 0.0377063 0.0456874 0.0442838 0.035335 0.0448105 0.0358296 0.0234608 0.00874673
threshold=385.00000000000006 0.0098970000000000013 0.00057950000000000005 650.00000000000011 409.35000000000008 449.00000000000006 427.70000000000005 0.0027005000000000002 136.00000000000003 0.0072925000000000012 2010.0000000000002
decision_type=2 2 2 2 2 2 2 2 2 2 2
left_child=1 6 10 -4 9 -6 7 -1 -9 -5 -2
right_child=2 -3 3 4 5 -7 -8 8 -10 -11 -12
leaf_value=0.0011282855806218925 -0.0002867627054444879 -0.00104333539182338 -0.00088909602153990856 -0.00017438542805897864 0.00039669840768651249 -5.9266339622215691e-05 0.0013721940091674691 -0.00054122953025724583 0.00039878974985962386 -0.00079972691274446406 -0.0010989328947955416
leaf_weight=138 61 139 94 371 511 1489 86 78 515 169 90
leaf_count=138 61 139 94 371 511 1489 86 78 515 169 90
internal_value=0 0.00030986 -0.000113114 -6.98712e-05 -3.6366e-05 5.56619e-05 0.000549717 0.000439459 0.000264786 -0.000382954 -0.000816201
internal_weight=0 956 2785 2634 2540 2000 817 731 593 540 151
internal_count=3741 956 2785 2634 2540 2000 817 731 593 540 151
is_linear=0
shrinkage=0.0425396


Tree=33
num_leaves=17
num_cat=0
split_feature=18 18 4 18 18 17 11 16 18 4 14 15 11 4 15 8
split_gain=0.963667 0.168417 0.0880155 0.0842415 0.0779508 0.070772 0.0579325 0.0437604 0.0377704 0.0350592 0.0271655 0.0155272 0.0151132 0.00992057 0.0102057 0.00828939
threshold=1.5285000000000004 0.87384590163934439 333.50000000000006 0.15118145454545459 2.5303372319688111 2.4209302325581397 0.005373000000000001 1.0794117647058827 0.60000677083333342 382.00000000000006 101.80000000000001 0.386976439790576 0.004811000000000001 472.55000000000007 0.24459016393442626 0.0035906400000000004
decision_type=2 2 2 2 2 2 2 2 2 2 2 2 2 2 2 2
left_child=1 3 -3 -1 7 9 8 -2 -5 -4 -9 -12 -7 14 -6 -8
right_child=4 2 5 6 13 12 15 10 -10 -11 11 -13 -14 -15 -16 -17
leaf_value=0.00068921162757317898 0.0015567376685987322 0.0010754029298601709 -0.00073865884078856356 -0.00078780603690964607 0.0017384224150694954 -0.00029892347315107191 -0.00055122096491054876 -2.6842408494799948e-06 -0.00019605190591368737 0.00014078167782542305 0.00055841555411395084 0.0010686496702267091 -0.0011375525414258354 0.0021881689711142748 0.00099643596029509295 -0.0012039923083554125
leaf_weight=66 117 111 89 542 116 84 78 92 345 651 438 203 130 72 156 516
leaf_count=66 117 111 89 542 116 84 78 92 345 651 438 203 130 72 156 516
internal_value=0 -0.000446164 -2.98224e-05 -0.000729081 0.00101042 -0.00016728 -0.000797063 0.000774431 -0.000564627 2.54378e-05 0.000635176 0.000732895 -0.00084091 0.00156401 0.00135109 -0.00113021
internal_weight=0 2612 1065 1547 1194 954 1481 850 887 740 733 641 214 344 272 594
internal_count=3806 2612 1065 1547 1194 954 1481 850 887 740 733 641 214 344 272 594
is_linear=0
shrinkage=0.0425396


Tree=34
num_leaves=26
num_cat=0
split_feature=18 18 11 18 7 7 4 11 18 8 13 7 9 18 5 9 14 10 9 18 17 0 10 11 11
split_gain=0.935435 0.127036 0.107759 0.0928549 0.0666064 0.0607246 0.0562189 0.0583567 0.0326999 0.0316754 0.0275347 0.0268419 0.034067 0.0206983 0.0159805 0.0145266 0.0139229 0.0128482 0.0212219 0.0101672 0.00835139 0.00684892 0.0062863 0.00564897 0.00196357
threshold=1.2010000000000003 2.3810115740740745 0.005373000000000001 0.63984474918032797 390.50000000000006 385.00000000000006 427.70000000000005 0.004811000000000001 1.0252706044444448 0.0031065000000000003 275.00000000000006 411.15000000000003 0.0087270000000000004 1.718922666666667 343.50000000000006 0.0098245000000000016 198.00000000000003 0.0061605000000000002 0.0081495000000000022 0.72092244444444453 1.9090909090909094 1209.5000000000002 0.0052590000000000007 0.0041905000000000006 0.015246500000000003
decision_type=2 2 2 2 2 2 2 2 2 2 2 2 2 2 2 2 2 2 2 2 2 2 2 2 2
left_child=2 5 3 11 16 10 13 -8 14 -6 15 12 -1 -7 19 -2 -5 23 -19 -4 -16 -13 -10 -3 -25
right_child=1 17 8 4 9 6 7 -9 22 -11 -12 21 -14 -15 20 -17 -18 18 -20 -21 -22 -23 -24 24 -26
leaf_value=-6.9953400068638441e-05 0.0018085335297260117 0.0010361860834479728 -0.00086329379415127881 0.0012000202375843465 0.00015464854834696499 -0.00030220750656338578 0.0013020906289595226 0.00035394135236889668 0 -0.00057080203104556437 0.00027082908985150465 -0.00058489822450663695 -0.0010425467641136672 0.00032035007080296327 -0.00083961251305921967 0.00073881484023543957 0.00031307402416168431 0.0004577477879729833 0.0014298826164454645 -8.2167663179345005e-05 -0.0013324486523067698 -0.0011245117180635734 -0.00053752437281871682 0.0022686409932385727 0.001335018865816817
leaf_weight=239 101 68 107 78 196 216 168 455 61 219 61 132 92 166 190 64 88 93 122 61 382 209 80 78 73
leaf_count=239 101 68 107 78 196 216 168 455 61 219 61 132 92 166 190 64 88 93 122 61 382 209 80 78 73
internal_value=0 0.000756803 -0.000586939 -0.00032631 6.08261e-05 0.000527142 0.000375841 0.000623852 -0.000949254 -0.000219714 0.00116116 -0.000665718 -0.00036334 -1.98021e-05 -0.0010648 0.00144909 0.000775507 0.00138654 0.00104674 -0.000614264 -0.00118391 -0.000938292 -0.000299028 0.00167365 0.0018955
internal_weight=0 1665 2134 1253 581 1231 1005 623 881 415 226 672 331 382 740 165 166 434 215 168 572 341 141 219 151
internal_count=3799 1665 2134 1253 581 1231 1005 623 881 415 226 672 331 382 740 165 166 434 215 168 572 341 141 219 151
is_linear=0
shrinkage=0.0425396


Tree=35
num_leaves=15
num_cat=0
split_feature=12 7 9 0 7 12 3 5 0 7 10 5 2 12
split_gain=0.0678526 0.106025 0.0607474 0.0387518 0.0329201 0.025613 0.0227078 0.0218104 0.0196855 0.0185284 0.0115342 0.0107496 0.00610615 0.00600042
threshold=0.028171778796844186 442.30000000000007 0.00088000000000000003 806.00000000000011 719.50000000000011 0.051002559429525494 44.675000000000004 293.50000000000006 1260.0000000000002 352.50000000000006 0.0017080000000000001 413.50000000000006 140.00000000000003 1.0000000180025095e-35
decision_type=2 2 2 2 2 2 2 2 2 2 2 2 2 2
left_child=1 8 11 -3 5 12 10 -7 -1 -10 -5 -2 -4 -8
right_child=2 3 4 6 -6 7 13 -9 9 -11 -12 -13 -14 -15
leaf_value=0.00038325873054905694 -0.00036982729166243469 -0.00080237242111239906 -0.00067762731205985548 0.00024734015139618294 -0.00071628902082408914 0.00040325326472380951 8.5661721150077512e-05 -9.7415779556806983e-06 0.0017537944784027811 0.00079129615396363506 -0.00026922534733129122 -0.0012383101266929216 -8.1872402579922406e-05 0.00067293902153899932
leaf_weight=112 69 90 114 113 119 253 68 2133 77 149 209 85 69 126
leaf_count=112 69 90 114 113 119 253 68 2133 77 149 209 85 69 126
internal_value=0 0.000328495 -8.67295e-05 -2.39997e-06 -3.72705e-05 -2.96023e-06 0.000134283 3.28777e-05 0.000927001 0.00116516 -7.36771e-05 -0.000897652 -0.000483444 0.000495517
internal_weight=0 944 2842 606 2688 2569 516 2386 338 226 322 154 183 194
internal_count=3786 944 2842 606 2688 2569 516 2386 338 226 322 154 183 194
is_linear=0
shrinkage=0.0425396


Tree=36
num_leaves=22
num_cat=0
split_feature=18 18 18 18 11 12 11 12 11 7 7 7 10 7 4 15 12 2 7 14 18
split_gain=0.816046 0.1118 0.0880867 0.0669362 0.0660616 0.0473415 0.0446453 0.0427748 0.0584799 0.0379032 0.0315826 0.0256412 0.0255655 0.0299924 0.0231244 0.0204959 0.0163233 0.0157443 0.0104957 0.0050792 0.00346189
threshold=1.3685313131313135 0.83033723196881104 1.8936833333333336 0.13800350000000003 0.004811000000000001 0.028171778796844186 0.005373000000000001 0.098203592814371285 0.005373000000000001 390.50000000000006 385.00000000000006 390.50000000000006 0.013544500000000003 412.50000000000006 472.55000000000007 0.24959016393442626 0.16081625201222713 100.80000000000001 442.30000000000007 112.50000000000001 1.0734739016393446
decision_type=2 2 2 2 2 2 2 2 2 2 2 2 2 2 2 2 2 2 2 2 2
left_child=1 3 7 -1 5 -3 11 8 -2 -9 20 -5 13 -4 -15 -12 -11 -7 -10 -8 -6
right_child=2 4 12 6 10 17 19 9 18 16 15 -13 -14 14 -16 -17 -18 -19 -20 -21 -22
leaf_value=0.00055012892871905542 0.0014852268440741954 0.0010029146286556949 0.0018864375697706956 -0.00026009732509590943 -6.0096817826979893e-05 0.0003171565231028099 -0.00067590940973545881 0.00093366415815917148 0.00054661391025507503 -0.00034208795450306782 -0.0010073380688123076 -0.00077179768063381803 0.0003701746975451065 0.00080755186110387331 0.0014927623855018621 -0.00034107185481620336 0.00029206625173063146 -0.00028451060363496691 -0.00012453926626446375 -0.0011982844603406892 0.00034026499171264425
leaf_weight=63 122 108 112 315 61 137 106 74 73 199 168 550 100 388 164 233 105 172 73 440 61
leaf_count=63 122 108 112 315 61 137 106 74 73 199 168 550 100 388 164 233 105 172 73 440 61
internal_value=0 -0.000505694 0.000780558 -0.000737071 -0.000136522 0.00025475 -0.000799147 0.000400117 0.000808932 9.29286e-05 -0.000456304 -0.000592718 0.00109246 0.00119158 0.00102908 -0.00063881 -0.000107854 -3.10878e-06 0.000188094 -0.00111096 0.000110336
internal_weight=0 2414 1410 1474 940 417 1411 646 268 378 523 865 764 664 552 401 304 309 146 546 122
internal_count=3824 2414 1410 1474 940 417 1411 646 268 378 523 865 764 664 552 401 304 309 146 546 122
is_linear=0
shrinkage=0.0425396


Tree=37
num_leaves=21
num_cat=0
split_feature=18 18 18 1 7 4 15 7 4 10 18 18 5 5 7 11 7 15 10 13
split_gain=0.736632 0.0979953 0.0947737 0.0674478 0.0589111 0.0508266 0.0537365 0.0497691 0.03683 0.0279926 0.0260884 0.0349963 0.0208959 0.0145871 0.0127861 0.011708 0.00737423 0.00688478 0.00663787 0.00336852
threshold=1.3685313131313135 0.93350000000000011 2.6238459016393452 2225.0000000000005 390.50000000000006 472.55000000000007 0.97368421052631582 385.00000000000006 489.75000000000006 0.0052590000000000007 0.17450000000000002 0.56289266666666671 333.50000000000006 503.50000000000006 507.80000000000007 0.0063370000000000006 423.50000000000006 0.16693989071038254 0.005556000000000001 151.00000000000003
decision_type=2 2 2 2 2 2 2 2 2 2 2 2 2 2 2 2 2 2 2 2
left_child=1 3 4 10 18 6 -6 15 16 -10 -1 -12 -5 -7 -14 -3 -9 -4 -2 -19
right_child=2 7 17 12 5 13 -8 8 9 -11 11 -13 14 -15 -16 -17 -18 19 -20 -21
leaf_value=0.00035295881701957998 0.0014869435948116864 0.00090872908062544224 0.0018972842188205304 -0.00015516157971922631 0.00035011049817810033 0.00058844633279305349 -0.00075017795708649197 -0.00013829982816956357 0.00069448768244644357 -0.0002587259341349402 -0.00071392222425905422 -0.00016768988120272822 -0.0012856577739498813 0.0012810766878341825 -0.00079083930950034364 0.00010350640405880011 -0.00061451781483967531 0.00081460157196820173 0.00069398803455715942 0.0014549428530894236
leaf_weight=67 127 92 94 65 465 239 91 113 104 103 486 425 301 106 296 72 264 101 68 107
leaf_count=67 127 92 94 65 465 239 91 113 104 103 486 425 301 106 296 72 264 101 68 107
internal_value=0 -0.00045523 0.000772675 -0.00063908 0.000578003 0.000421644 0.000157799 -4.49652e-05 -0.000234608 0.000203955 -0.000404017 -0.000465877 -0.000974879 0.000827081 -0.00105509 0.000592993 -0.000486445 0.00144664 0.00125355 0.00118767
internal_weight=0 2388 1398 1640 1096 901 556 748 584 207 978 911 662 345 597 164 377 302 195 208
internal_count=3786 2388 1398 1640 1096 901 556 748 584 207 978 911 662 345 597 164 377 302 195 208
is_linear=0
shrinkage=0.0425396


Tree=38
num_leaves=20
num_cat=0
split_feature=12 7 15 1 17 0 11 11 11 11 0 0 7 6 16 17 16 15 7
split_gain=0.0673316 0.125827 0.0455067 0.0544601 0.0481299 0.0397747 0.0348875 0.0345329 0.0312843 0.0242702 0.023532 0.0233344 0.0219965 0.0141619 0.013926 0.0110092 0.00904808 0.00529072 0.00307874
threshold=0.028171778796844186 442.30000000000007 0.15500000000000003 2470.0000000000005 0.75542635658914736 1385.0000000000002 0.005663500000000001 0.0032070000000000002 0.0063370000000000006 0.0095295000000000015 1100.0000000000002 1385.0000000000002 413.50000000000006 449.00000000000006 1.7423529411764707 1.9090909090909094 2.1961538461538468 0.17110655737704919 513.54000000000008
decision_type=2 2 2 2 2 2 2 2 2 2 2 2 2 2 2 2 2 2 2
left_child=1 5 8 4 -4 16 12 -3 -2 -6 -5 17 -7 15 -12 -10 -1 -9 -13
right_child=2 7 3 10 9 6 -8 11 13 -11 14 18 -14 -15 -16 -17 -18 -19 -20
leaf_value=0.00065183177302267892 -0.0004667776583790624 0.00057202606884205619 -0.00086809098508959786 -0.001123310855273219 0.00010322179885510394 0.0022109148434330786 0.00035651367479989812 -0.00095125579613754329 0.00034988977996089463 -0.0002594418060558422 -0.0008554474216864946 -9.3110128340276891e-05 0.00087566285626444881 2.1188040633193917e-05 -0.00028259576588756741 0.0010336976898310301 0 -0.00035581684834186497 0.00020903322071216777
leaf_weight=69 76 109 121 102 1140 78 63 68 152 467 104 198 63 118 499 87 70 121 83
leaf_count=69 76 109 121 102 1140 78 63 68 152 467 104 198 63 118 499 87 70 121 83
internal_value=0 0.000292216 -0.000124563 -0.000197142 -6.52219e-05 0.000933442 0.00131417 -8.42905e-05 0.000271164 0 -0.000511941 -0.000249566 0.00168849 0.000444084 -0.000394016 0.000630808 0.000321247 -0.000609249 0
internal_weight=0 922 2866 2433 1728 343 204 579 433 1607 705 470 141 357 603 239 139 189 281
internal_count=3788 922 2866 2433 1728 343 204 579 433 1607 705 470 141 357 603 239 139 189 281
is_linear=0
shrinkage=0.0425396


Tree=39
num_leaves=26
num_cat=0
split_feature=18 18 11 18 3 17 7 4 11 16 16 18 18 11 7 0 16 3 8 11 3 17 2 8 16
split_gain=0.745035 0.0922905 0.078665 0.0891883 0.0772035 0.0438032 0.0401842 0.0433694 0.0247154 0.0240498 0.0306204 0.0225022 0.0213468 0.0275042 0.0187135 0.0162977 0.0138758 0.010833 0.0073859 0.00615175 0.00557989 0.00604274 0.00556697 0.00361149 0.0036009
threshold=1.2193329431693991 2.0193087431693995 0.005373000000000001 0.64584598239823998 27.150000000000002 2.4209302325581397 414.31500000000005 424.50000000000006 0.004811000000000001 2.27 1.6518467852257184 0.97057826729846308 3.0933188888888892 0.010339000000000001 396.50000000000006 1219.6000000000001 1.7171428571428573 21.650000000000002 0.0067505000000000004 0.0064105000000000013 46.900000000000006 2.0083333333333342 151.00000000000003 0.0051859938779914953 1.5652777777777778
decision_type=2 2 2 2 2 2 2 2 2 2 2 2 2 2 2 2 2 2 2 2 2 2 2 2 2
left_child=2 5 3 9 24 6 17 -8 -7 10 -1 16 13 19 -6 -15 23 -2 -10 -3 21 -13 -18 -4 -5
right_child=1 12 11 4 14 8 7 -9 18 -11 -12 20 -14 15 -16 -17 22 -19 -20 -21 -22 -23 -24 -25 -26
leaf_value=-0.00069402417320652964 0.0015097268877441127 0.00092854113702286914 -0.00032146987796347304 0.0010108019604187527 0.00017181688401421118 0.00038737409426585278 -0.0003098452930166853 0.00055752407796779454 -7.4419908232240927e-05 -0.0011297878023109698 0 0 0.0015661407365017554 2.5534358041014225e-05 -0.00043284774167574094 0.00083050643447053025 -0.00099742125108470974 0.00070612936335818707 -0.00079084945838625727 0.0015268883522853095 -0.00075971312118454728 -0.00052135439167805655 -0.0016608018903724552 -0.00078799687351254779 0.0004074278426408593
leaf_weight=351 80 238 86 109 123 95 129 412 66 147 164 95 144 103 276 99 321 129 68 102 61 62 66 243 69
leaf_count=351 80 238 86 109 123 95 129 412 66 147 164 95 144 103 276 99 321 129 68 102 61 62 66 243 69
internal_value=0 0.000670056 -0.000524427 -0.000295025 8.49175e-05 0.000394933 0.00055239 0.000341868 -0.000102722 -0.000631129 -0.000472099 -0.000821302 0.00105139 0.000895236 -0.000235773 0.000450426 -0.000941804 0.00105875 -0.000483012 0.00113778 -0.000395181 -0.000209785 -0.00113895 -0.000684948 0.000816188
internal_weight=0 1665 2173 1239 577 979 750 541 229 662 515 934 686 542 399 202 716 209 134 340 218 157 387 329 178
internal_count=3838 1665 2173 1239 577 979 750 541 229 662 515 934 686 542 399 202 716 209 134 340 218 157 387 329 178
is_linear=0
shrinkage=0.0425396


Tree=40
num_leaves=26
num_cat=0
split_feature=18 18 3 7 12 18 3 18 12 18 8 18 17 3 9 12 17 2 8 17 7 3 13 17 17
split_gain=0.666559 0.129534 0.0437343 0.0416891 0.0451771 0.0360525 0.0377992 0.0402981 0.034712 0.0324658 0.0448982 0.0293366 0.0285225 0.0264123 0.0247127 0.0210617 0.0191923 0.0176625 0.0138154 0.0131811 0.0112929 0.00855291 0.00770623 0.00593871 0.000145497
threshold=1.0835000000000001 1.7449550000000003 27.150000000000002 405.15000000000003 0.098203592814371285 0.6685313131313132 29.800000000000001 0.24028500000000005 0.098203592814371285 0.60686153333333348 0.0054460000000000003 2.6238459016393452 1.1125000000000003 14.300000000000002 0.014050000000000002 0.23681324701195219 2.4209302325581397 151.00000000000003 0.0032410000000000004 1.1656862745098042 362.50000000000006 21.650000000000002 111.00000000000001 1.4309523809523812 2.4973633132859492
decision_type=2 2 2 2 2 2 2 2 2 2 2 2 2 2 2 2 2 2 2 2 2 2 2 2 2
left_child=3 2 13 5 9 6 19 -8 18 23 -11 14 -7 -2 16 -6 -3 -10 -4 -1 -14 -15 -13 -5 -24
right_child=1 11 8 4 15 12 7 -9 17 10 -12 22 20 21 -16 -17 -18 -19 -20 -21 -22 -23 24 -25 -26
leaf_value=-0.00048685840001196491 0 0.00095413453518189808 0.00072090502432001105 -0.00047117799318623142 -0.0012180932691067681 0.00069673661650684307 0.00076409833105313082 -0.00046590260358977389 -7.5159783786472089e-05 0.00018115905844845137 -0.00079887237632029172 0.0007256626036844262 0.00015834769202001994 0.0012953160968171976 -3.0470555353636751e-06 -0.00042937187944529177 0.0002975591245639158 -0.00079463942393487113 9.5609766273976467e-05 -0.0012338018360115186 -0.00046724818560719955 0.00049736455726557768 0.0015987587881275624 -0.00095942073859347479 0.00092293785722142088
leaf_weight=119 61 449 115 137 363 87 61 170 284 216 129 79 74 89 63 104 130 82 184 123 119 77 161 205 62
leaf_count=119 61 449 115 137 363 87 61 170 284 216 129 79 74 89 63 104 130 82 184 123 119 77 161 205 62
internal_value=0 0.000571468 0.000196123 -0.000562751 -0.000726189 -0.000303771 -0.000529694 -0.000114403 1.40274e-05 -0.000489543 -0.000178173 0.000919 6.47805e-05 0.000700382 0.000730768 -0.00105731 0.000817529 -0.000255602 0.000357409 -0.000899341 -0.000207044 0.000973011 0.00128881 -0.000784838 0.00145136
internal_weight=0 1836 892 1907 1154 753 473 231 665 687 345 944 280 227 642 467 579 366 299 242 193 166 302 342 223
internal_count=3743 1836 892 1907 1154 753 473 231 665 687 345 944 280 227 642 467 579 366 299 242 193 166 302 342 223
is_linear=0
shrinkage=0.0425396


Tree=41
num_leaves=23
num_cat=0
split_feature=18 18 11 11 18 3 3 5 18 10 3 9 16 10 11 13 0 18 4 18 18 9
split_gain=0.566922 0.114088 0.0660112 0.0499051 0.049444 0.0791598 0.0473705 0.0450762 0.0366237 0.0308924 0.0316814 0.0175294 0.0163389 0.0132036 0.010468 0.0101024 0.00860358 0.00706542 0.0059654 0.00256983 0.002421 0.00131188
threshold=1.0835000000000001 1.8631695000000004 0.005373000000000001 0.0093825000000000019 0.65305117647058841 27.450000000000003 22.300000000000004 275.50000000000006 0.15118145454545459 0.013544500000000003 18.500000000000004 0.014050000000000002 1.7171428571428573 0.003003 0.010933000000000003 151.00000000000003 1385.0000000000002 0.70986573408503661 489.75000000000006 0.40158953488372096 0.67248194444444453 0.0065985000000000011
decision_type=2 2 2 2 2 2 2 2 2 2 2 2 2 2 2 2 2 2 2 2 2 2
left_child=2 3 4 6 8 15 -2 -8 -1 10 -3 -12 18 -10 -5 -6 -7 19 20 -14 -4 -16
right_child=1 9 12 14 5 16 7 -9 13 -11 11 -13 17 -15 21 -17 -18 -19 -20 -21 -22 -23
leaf_value=0.00040176532326308432 0.0012036344082701107 1.5552889942160187e-05 -0.00081838210345922566 -0.00069309804098516129 0.00041357055105664095 -0.00057848976768679072 0.0012775936394540768 0.0001271057460549778 -0.00094528661605184847 0.00018195608333098566 0.0011955002751021706 0.00046985049380446169 -0.00071673519403281144 -0.00046446707571450735 -0.00019830481472634607 0.0012437037811224329 -8.5191300662608218e-05 -0.00074250979341549501 -0.00014098859715046058 -0.0014051006353673697 -0.00040259062499468419 0
leaf_weight=63 116 62 145 65 91 150 67 576 183 109 563 100 62 458 80 66 154 209 79 143 121 145
leaf_count=63 116 62 145 65 91 150 67 576 183 109 563 100 62 458 80 66 154 209 79 143 121 145
internal_value=0 0.000536971 -0.000500079 0.000234504 -0.000291304 4.25171e-05 0.00041728 0.000261525 -0.000514985 0.000909006 0.00101058 0.00109638 -0.000811317 -0.000613961 -0.000228119 0.000813775 -0.000347498 -0.00100815 -0.000552983 -0.00123703 -0.000654938 -6.41306e-05
internal_weight=0 1883 1924 1049 1165 461 759 643 704 834 725 663 759 641 290 157 304 414 345 205 266 225
internal_count=3807 1883 1924 1049 1165 461 759 643 704 834 725 663 759 641 290 157 304 414 345 205 266 225
is_linear=0
shrinkage=0.0425396


Tree=42
num_leaves=23
num_cat=0
split_feature=18 18 7 12 12 18 18 7 12 4 10 7 18 2 0 13 8 12 13 0 9 9
split_gain=0.570876 0.100423 0.0561212 0.0497843 0.0435518 0.0520153 0.0396977 0.0517758 0.0486055 0.033024 0.0274324 0.0335593 0.0223027 0.0215034 0.0180492 0.0158416 0.0145012 0.0138949 0.0138311 0.00782586 0.00433509 0.00740661
threshold=1.043303747126437 1.8631695000000004 385.00000000000006 0.098203592814371285 0.217 0.31933294316939898 0.68007407407407416 385.00000000000006 0.098203592814371285 427.70000000000005 0.018100500000000002 412.50000000000006 2.7655000000000007 151.00000000000003 1385.0000000000002 220.00000000000003 0.0027990000000000007 0.077120072859744995 137.50000000000003 1325.0000000000002 0.008461500000000002 0.0062815000000000006
decision_type=2 2 2 2 2 2 2 2 2 2 2 2 2 2 2 2 2 2 2 2 2 2
left_child=4 2 15 9 6 -6 16 14 -9 -4 11 -3 -13 -5 -8 18 17 -1 -2 -18 21 -7
right_child=1 10 3 13 5 20 7 8 -10 -11 -12 12 -14 -15 -16 -17 19 -19 -20 -21 -22 -23
leaf_value=-0.00023585835224893803 0.00041863845386911448 0.0015419329351409913 -0.00015458209230654945 -6.4265529307797173e-05 0.00095722932783168083 -0.00040192880115228727 -0.0001741235131731383 -0.0001912974865958029 -0.0010943702766794611 0.00065626285062106784 0 0.00056132096720715565 0.0011529153510775774 -0.00078225894780204863 0.00068106419033533072 0.00020735761450569733 -0.0011767597795324337 -0.00098255249651562943 0.0014016659376583482 -0.00077064301230993606 -0.00065827595736896226 0.00012352472764188131
leaf_weight=177 63 140 118 393 64 118 71 272 195 291 63 443 202 95 89 75 238 73 94 441 73 61
leaf_count=177 63 140 118 393 64 118 71 272 195 291 63 443 202 95 89 75 238 73 94 441 73 61
internal_value=0 0.000493736 0.000224267 6.49595e-05 -0.000541582 -6.93776e-05 -0.000634219 -0.000356288 -0.000584281 0.000412594 0.000844392 0.000912575 0.000759815 -0.000218597 0.000280435 0.000809175 -0.00081458 -0.000484163 0.00105623 -0.000925981 -0.000358981 -0.000200355
internal_weight=0 1977 1129 897 1872 316 1556 627 467 409 848 785 645 488 160 232 929 250 157 679 252 179
internal_count=3849 1977 1129 897 1872 316 1556 627 467 409 848 785 645 488 160 232 929 250 157 679 252 179
is_linear=0
shrinkage=0.0425396


Tree=43
num_leaves=26
num_cat=0
split_feature=18 18 1 11 11 10 18 18 17 7 18 11 15 4 17 0 2 4 11 5 15 18 1 5 15
split_gain=0.492869 0.0998546 0.079535 0.0373994 0.0346826 0.0331465 0.0388553 0.0366069 0.0291228 0.0305043 0.0228651 0.0217425 0.0203777 0.0214263 0.0190801 0.0176518 0.01294 0.01236 0.00847796 0.0157741 0.0127691 0.00694216 0.00626682 0.00624886 0.00550202
threshold=1.0835000000000001 1.8631695000000004 2225.0000000000005 0.004811000000000001 0.005373000000000001 0.0030675000000000003 0.50596066666666673 0.19995677083333332 2.4209302325581397 415.56500000000005 2.8855000000000008 0.010339000000000001 0.49154589371980678 489.75000000000006 2.7941666666666669 1219.6000000000001 122.50000000000001 447.05000000000007 0.0059005000000000004 530.25000000000011 0.4558316080055213 1.4521714211462704 3579.0000000000005 368.28000000000003 0.16693989071038254
decision_type=2 2 2 2 2 2 2 2 2 2 2 2 2 2 2 2 2 2 2 2 2 2 2 2 2
left_child=2 3 4 12 5 6 -1 -7 9 -5 11 16 22 -14 18 -13 -3 23 19 -4 -20 -10 -2 -6 -12
right_child=1 10 14 8 17 7 -8 -9 21 -11 24 15 13 -15 -16 -17 -18 -19 20 -21 -22 -23 -24 -25 -26
leaf_value=-0.0010775275321803534 0.0011255814302050457 0.0011299116990304318 -0.00027574483346931323 0.00068162080744453622 -0.0003915134955983439 0.0010317106007657591 0 -2.3244623029558767e-05 -0.00087821157494645638 -4.4587750115990994e-05 0.0017392294220508256 0 0 0.00089895795855276552 -0.0013790238522662318 0.00072422580056206943 0.00052234484196588796 -9.0535791401053617e-05 -0.0010217638411107474 -0.001010879464714015 -0.00035349894722323441 -0.0001347146957343856 0.00043279097952021657 -0.00092692509246762838 0.00095252667068940558
leaf_weight=108 104 233 235 139 115 62 123 514 63 352 71 116 180 61 106 103 152 91 266 80 100 62 75 159 113
leaf_count=108 104 233 235 139 115 62 123 514 63 352 71 116 180 61 106 103 152 91 266 80 100 62 75 159 113
internal_value=0 0.000501579 -0.000469035 0.000219866 -0.000240105 -7.71057e-05 -0.000505495 8.9673e-05 1.00956e-06 0.000156365 0.000863194 0.000710723 0.000527255 0.000239234 -0.000801238 0.000330285 0.00090979 -0.000583501 -0.000696736 -0.000487368 -0.00085728 -0.000560167 0.000876312 -0.000727548 0.00131249
internal_weight=0 1824 1959 1036 1172 807 231 576 616 491 788 604 420 241 787 219 385 365 681 315 366 125 179 274 184
internal_count=3783 1824 1959 1036 1172 807 231 576 616 491 788 604 420 241 787 219 385 365 681 315 366 125 179 274 184
is_linear=0
shrinkage=0.0425396


Tree=44
num_leaves=19
num_cat=0
split_feature=12 7 11 9 11 0 12 12 15 17 17 9 5 9 7 12 9 0
split_gain=0.0795729 0.0772377 0.0506097 0.0407304 0.0363448 0.0291542 0.0267371 0.0347542 0.0244926 0.0203969 0.0151891 0.0128444 0.0123567 0.0120653 0.0120083 0.0068113 0.00633356 0.00522997
threshold=0.028171778796844186 442.30000000000007 0.0032070000000000002 0.00088000000000000003 0.013011000000000002 1385.0000000000002 0.217 0.1722663906142167 0.18900523560209428 2.4209302325581397 1.6696428571428574 0.0059170000000000013 396.00000000000006 0.0096210000000000011 352.50000000000006 0.39993777708641209 0.0040580000000000008 1867.0000000000002
decision_type=2 2 2 2 2 2 2 2 2 2 2 2 2 2 2 2 2 2
left_child=1 4 -3 12 5 -1 7 8 -5 10 -8 16 -2 -9 -7 -11 -4 -13
right_child=3 2 11 6 -6 14 9 13 -10 15 -12 17 -14 -15 -16 -17 -18 -19
leaf_value=0.00041211133451787217 -0.00024261182284803127 0.00076293862375112844 -6.0545555558067754e-05 0.00018870289172983956 0 0.001898792122420162 -0.00011182018461576355 -0.00098731514187545182 -0.00016703101070583701 -0.00040603797972635402 0.00052201076066344743 -0.0005303957085217104 -0.0011756050935357893 -0.00032100510606246666 0.00090835215951077684 0.00010118136275606423 0.00041479207621459153 -0.00011471800102832355
leaf_weight=104 61 131 143 439 85 74 75 102 1541 100 274 148 80 159 91 66 66 142
leaf_count=104 61 131 143 439 85 74 75 102 1541 100 274 148 80 159 91 66 66 142
internal_value=0 0.000318123 2.71032e-05 -0.000123687 0.000817222 0.00105647 -8.51689e-05 -0.000149764 -8.57159e-05 0.000186401 0.000373737 -0.000162323 -0.000821394 -0.0006098 0.00141576 -0.000181296 7.44876e-05 -0.000346409
internal_weight=0 984 630 2897 354 269 2756 2241 1980 515 349 499 141 261 165 166 209 290
internal_count=3881 984 630 2897 354 269 2756 2241 1980 515 349 499 141 261 165 166 209 290
is_linear=0
shrinkage=0.0425396


Tree=45
num_leaves=22
num_cat=0
split_feature=18 18 1 7 8 0 14 1 18 18 10 4 0 10 15 6 7 4 18 1 10
split_gain=0.467209 0.0782845 0.0611846 0.046904 0.0383956 0.034772 0.0284187 0.0278719 0.0323505 0.0282263 0.0208285 0.0270861 0.017162 0.016553 0.0152245 0.00940116 0.00928397 0.0186131 0.00780352 0.00797225 0.00326579
threshold=1.0835000000000001 2.1678908333333342 2010.0000000000002 358.85000000000008 0.0030650000000000004 875.00000000000011 198.00000000000003 1510.0000000000002 0.60000677083333342 0.24028500000000005 0.0040195000000000014 413.50000000000006 1952.5000000000002 0.013544500000000003 2.8958333333333335 521.30000000000007 412.50000000000006 472.55000000000007 0.7651363555555557 1070.0000000000002 0.0027025000000000005
decision_type=2 2 2 2 2 2 2 2 2 2 2 2 2 2 2 2 2 2 2 2 2
left_child=2 3 5 -2 6 18 -4 8 -7 -9 11 -5 15 16 -12 -6 -3 -18 19 -1 -8
right_child=1 13 4 10 12 7 20 9 -10 -11 14 -13 -14 -15 -16 -17 17 -19 -20 -21 -22
leaf_value=-0.00043137085495610779 0.0013206468857206715 0.0014870021253878094 0.00049035402820232375 0 -0.0010755700919518369 -0.000785314142780556 -0.00072977920337814479 0.00098219782749400125 0.00019481848318329866 2.028222496725361e-05 0.00015194211609031424 0.00064886681371629498 -0.00030322594076213005 0.00022689031130787278 -0.00047044253421760674 -0.00059648720489188301 0.00063853958959717201 0.0013394374101575849 -0.00022139003913482284 -0.001095099497523974 -0.0002314315331476502
leaf_weight=129 75 89 68 157 414 144 78 63 91 366 661 354 117 77 73 177 300 124 124 80 93
leaf_count=129 75 89 68 157 414 144 78 63 91 366 661 354 117 77 73 177 300 124 124 80 93
internal_value=0 0.000493125 -0.000442505 0.000304294 -0.000688708 -0.000202307 -0.000193761 -1.66877e-05 -0.000390882 0.000180077 0.000235179 0.000444584 -0.000847447 0.000902918 8.17153e-05 -0.000944841 0.000993179 0.000865255 -0.000554485 -0.000723079 -0.000496145
internal_weight=0 1910 1944 1320 947 997 239 664 235 429 1245 511 708 590 734 591 513 424 333 209 171
internal_count=3854 1910 1944 1320 947 997 239 664 235 429 1245 511 708 590 734 591 513 424 333 209 171
is_linear=0
shrinkage=0.0425396


Tree=46
num_leaves=12
num_cat=0
split_feature=16 1 17 17 6 16 5 8 8 4 8
split_gain=0.0408084 0.0365144 0.034135 0.0613135 0.0508499 0.0285375 0.0273034 0.0247603 0.0135791 0.0102072 0.00822203
threshold=2.4998633132859491 2225.0000000000005 0.67220528455284556 1.0500000000000003 333.50000000000006 1.7001661129568109 360.63000000000005 0.0084115000000000023 0.0032615000000000001 616.09000000000003 0.0044795
decision_type=2 2 2 2 2 2 2 2 2 2 2
left_child=2 -2 7 6 -5 -6 -4 -1 -3 -8 -10
right_child=1 8 3 4 5 -7 9 -9 10 -11 -12
leaf_value=-0.0011420061593466558 0.00028451289146376121 0 0 0.00080244239322015576 -0.00017666254917241578 0.00010922368980055518 0.00098459945187997469 -1.4658526164525498e-05 -0.00098498163031191443 0.00030528627904639557 -0.00043912094364883234
leaf_weight=64 124 82 110 143 1080 1504 206 90 108 82 216
leaf_count=64 124 82 110 143 1080 1504 206 90 108 82 216
internal_value=0 -0.000324761 7.56537e-05 0.000107556 3.34734e-05 -8.67264e-06 0.000598438 -0.000529283 -0.000522537 0.000813559 -0.000645034
internal_weight=0 530 3279 3125 2727 2584 398 154 406 288 324
internal_count=3809 530 3279 3125 2727 2584 398 154 406 288 324
is_linear=0
shrinkage=0.0425396


Tree=47
num_leaves=13
num_cat=0
split_feature=7 10 1 7 11 10 10 2 17 11 16 1
split_gain=0.0441025 0.0307633 0.0361548 0.0316084 0.0231577 0.0337199 0.0239167 0.0215161 0.0228648 0.018229 0.0177679 0.0152908
threshold=290.00000000000006 0.0044440000000000009 2725.0000000000005 326.65000000000003 0.010339000000000001 0.011932000000000002 0.0070885000000000002 140.00000000000003 2.6000000000000005 0.0015395000000000001 1.466666666666667 4135.0000000000009
decision_type=2 2 2 2 2 2 2 2 2 2 2 2
left_child=-1 3 4 -2 6 -6 -3 8 -5 -9 -4 -12
right_child=1 2 10 7 5 -7 -8 9 -10 -11 11 -13
leaf_value=0.00098746125618156123 0.0010459830345207681 0.00049404738261857458 0.00010038522182866685 0.00023551289400021905 -6.7187905754857908e-05 -0.0009882564911399144 -7.5666456578702383e-07 -0.00077876780603977321 -0.00040844474903170222 -3.1508865772984836e-05 -0.00070719267420557986 -0.00015961957097787582
leaf_weight=78 61 229 87 1122 444 85 658 69 101 384 295 172
leaf_count=78 61 229 87 1122 444 85 658 69 101 384 295 172
internal_value=0 -7.05808e-06 -0.00012311 0.00012203 -5.64089e-06 -0.00023024 0.000123877 8.31777e-05 0.000177512 -0.000161216 -0.000413144 -0.000518125
internal_weight=0 3707 1970 1737 1416 529 887 1676 1223 453 554 467
internal_count=3785 3707 1970 1737 1416 529 887 1676 1223 453 554 467
is_linear=0
shrinkage=0.0425396


Tree=48
num_leaves=22
num_cat=0
split_feature=18 11 18 18 3 18 12 18 10 11 18 16 17 3 12 5 14 18 17 18 3
split_gain=0.409867 0.0778772 0.0541855 0.0474241 0.0564838 0.0395565 0.0392028 0.0276703 0.0272032 0.0272802 0.0253604 0.0136663 0.00990537 0.0115888 0.00776713 0.00438037 0.00301428 0.00443928 0.00201486 0.00428894 0.00586646
threshold=1.3171050000000004 0.005373000000000001 2.7005000000000003 0.70279200000000019 27.150000000000002 0.15118145454545459 0.028171778796844186 1.0252706044444448 0.013544500000000003 0.012591000000000003 1.6317631578947371 2.3428571428571456 2.2650000000000001 46.900000000000006 0.10985969135878705 416.94100000000009 101.80000000000001 0.73033723196881117 1.9090909090909094 3.4115000000000006 41.900000000000006
decision_type=2 2 2 2 2 2 2 2 2 2 2 2 2 2 2 2 2 2 2 2 2
left_child=1 3 8 5 15 -1 -6 16 9 10 -2 -7 13 -9 -11 -5 -3 -18 -4 20 -20
right_child=2 7 18 4 6 11 -8 12 -10 14 -12 -13 -14 -15 -16 -17 17 -19 19 -21 -22
leaf_value=0.00060402097507169389 0.00028024092201717378 -0.00045451163977802407 0.0014191418201274569 0.00038207892771723967 0.00073216004120177337 -0.0003613490481303123 -0.00030205830630973752 0.00018498237815500155 -0.00016157640894575405 -0.00011565469497513002 0.00080219215357129128 -0.00093238171505538885 -0.000627894607855013 -0.00049876554410035242 0.00031545893036191421 0.0010535895293836467 -0.00096037932029735811 -0.00060649636498132076 0.00020379429296223895 0.0012580986759136619 0.00091932010876091754
leaf_weight=63 312 119 88 62 76 608 350 119 120 131 495 102 79 64 145 93 369 235 62 66 65
leaf_count=63 312 119 88 62 76 608 350 119 120 131 495 102 79 64 145 93 369 235 62 66 65
internal_value=0 -0.000355124 0.000547547 -0.000140826 0.000143661 -0.000359879 -0.000101854 -0.000643368 0.000414628 0.000482883 0.00060837 -0.000454686 -0.00023883 -3.686e-05 9.66347e-05 0.000830189 -0.000781649 -0.000835203 0.00108626 0.000884373 0.000621612
internal_weight=0 2339 1484 1354 581 773 426 985 1203 1083 807 710 262 183 276 155 723 604 281 193 127
internal_count=3823 2339 1484 1354 581 773 426 985 1203 1083 807 710 262 183 276 155 723 604 281 193 127
is_linear=0
shrinkage=0.0425396


Tree=49
num_leaves=19
num_cat=0
split_feature=18 18 11 12 11 10 18 16 18 16 3 9 12 11 3 18 3 8
split_gain=0.401708 0.0719612 0.0514341 0.0428652 0.0411982 0.0386163 0.0334894 0.0296143 0.0285361 0.0256041 0.0338327 0.0243494 0.0301209 0.01397 0.00983762 0.01094 0.00773081 0.00653062
threshold=1.4272500000000004 0.78711424275560427 0.004811000000000001 0.028171778796844186 0.0032070000000000002 0.021796500000000003 2.2409518199233722 2.3428571428571456 0.15118145454545459 2.4998633132859491 47.650000000000006 0.014050000000000002 0.035692068608362944 0.005373000000000001 49.750000000000007 3.3221590909090915 27.150000000000002 0.0035906400000000004
decision_type=2 2 2 2 2 2 2 2 2 2 2 2 2 2 2 2 2 2
left_child=1 7 3 4 -3 6 11 8 -1 10 -4 12 -2 -10 15 -8 -5 -9
right_child=5 2 9 16 -6 -7 14 17 13 -11 -12 -13 -14 -15 -16 -17 -18 -19
leaf_value=0.0003930352692417647 0.0010833668668885285 0.001635044601820458 0 0.0003535578851426894 4.2270925415644777e-05 -0.00030057511615063206 0.00061884272971549558 -0.000620117042477009 -0.00036108176483525618 -0.0010762302010685796 -0.00071108642269068734 -0.00028296632163782792 0.00035979541903901333 -0.00070795512356863592 0.0013844683365307052 0.001276769517441666 -9.9855435611274115e-05 -0.0012501132816448107
leaf_weight=61 142 63 371 84 63 75 302 112 686 74 171 65 533 399 99 82 291 126
leaf_count=61 142 63 371 84 63 75 302 112 686 74 171 65 533 399 99 82 291 126
