{"learner":{"attributes":{"best_iteration":"1424","best_score":"0.00945276445743119"},"feature_names":[],"feature_types":[],"gradient_booster":{"model":{"gbtree_model_param":{"num_parallel_tree":"1","num_trees":"1475"},"iteration_indptr":[0,1,2,3,4,5,6,7,8,9,10,11,12,13,14,15,16,17,18,19,20,21,22,23,24,25,26,27,28,29,30,31,32,33,34,35,36,37,38,39,40,41,42,43,44,45,46,47,48,49,50,51,52,53,54,55,56,57,58,59,60,61,62,63,64,65,66,67,68,69,70,71,72,73,74,75,76,77,78,79,80,81,82,83,84,85,86,87,88,89,90,91,92,93,94,95,96,97,98,99,100,101,102,103,104,105,106,107,108,109,110,111,112,113,114,115,116,117,118,119,120,121,122,123,124,125,126,127,128,129,130,131,132,133,134,135,136,137,138,139,140,141,142,143,144,145,146,147,148,149,150,151,152,153,154,155,156,157,158,159,160,161,162,163,164,165,166,167,168,169,170,171,172,173,174,175,176,177,178,179,180,181,182,183,184,185,186,187,188,189,190,191,192,193,194,195,196,197,198,199,200,201,202,203,204,205,206,207,208,209,210,211,212,213,214,215,216,217,218,219,220,221,222,223,224,225,226,227,228,229,230,231,232,233,234,235,236,237,238,239,240,241,242,243,244,245,246,247,248,249,250,251,252,253,254,255,256,257,258,259,260,261,262,263,264,265,266,267,268,269,270,271,272,273,274,275,276,277,278,279,280,281,282,283,284,285,286,287,288,289,290,291,292,293,294,295,296,297,298,299,300,301,302,303,304,305,306,307,308,309,310,311,312,313,314,315,316,317,318,319,320,321,322,323,324,325,326,327,328,329,330,331,332,333,334,335,336,337,338,339,340,341,342,343,344,345,346,347,348,349,350,351,352,353,354,355,356,357,358,359,360,361,362,363,364,365,366,367,368,369,370,371,372,373,374,375,376,377,378,379,380,381,382,383,384,385,386,387,388,389,390,391,392,393,394,395,396,397,398,399,400,401,402,403,404,405,406,407,408,409,410,411,412,413,414,415,416,417,418,419,420,421,422,423,424,425,426,427,428,429,430,431,432,433,434,435,436,437,438,439,440,441,442,443,444,445,446,447,448,449,450,451,452,453,454,455,456,457,458,459,460,461,462,463,464,465,466,467,468,469,470,471,472,473,474,475,476,477,478,479,480,481,482,483,484,485,486,487,488,489,490,491,492,493,494,495,496,497,498,499,500,501,502,503,504,505,506,507,508,509,510,511,512,513,514,515,516,517,518,519,520,521,522,523,524,525,526,527,528,529,530,531,532,533,534,535,536,537,538,539,540,541,542,543,544,545,546,547,548,549,550,551,552,553,554,555,556,557,558,559,560,561,562,563,564,565,566,567,568,569,570,571,572,573,574,575,576,577,578,579,580,581,582,583,584,585,586,587,588,589,590,591,592,593,594,595,596,597,598,599,600,601,602,603,604,605,606,607,608,609,610,611,612,613,614,615,616,617,618,619,620,621,622,623,624,625,626,627,628,629,630,631,632,633,634,635,636,637,638,639,640,641,642,643,644,645,646,647,648,649,650,651,652,653,654,655,656,657,658,659,660,661,662,663,664,665,666,667,668,669,670,671,672,673,674,675,676,677,678,679,680,681,682,683,684,685,686,687,688,689,690,691,692,693,694,695,696,697,698,699,700,701,702,703,704,705,706,707,708,709,710,711,712,713,714,715,716,717,718,719,720,721,722,723,724,725,726,727,728,729,730,731,732,733,734,735,736,737,738,739,740,741,742,743,744,745,746,747,748,749,750,751,752,753,754,755,756,757,758,759,760,761,762,763,764,765,766,767,768,769,770,771,772,773,774,775,776,777,778,779,780,781,782,783,784,785,786,787,788,789,790,791,792,793,794,795,796,797,798,799,800,801,802,803,804,805,806,807,808,809,810,811,812,813,814,815,816,817,818,819,820,821,822,823,824,825,826,827,828,829,830,831,832,833,834,835,836,837,838,839,840,841,842,843,844,845,846,847,848,849,850,851,852,853,854,855,856,857,858,859,860,861,862,863,864,865,866,867,868,869,870,871,872,873,874,875,876,877,878,879,880,881,882,883,884,885,886,887,888,889,890,891,892,893,894,895,896,897,898,899,900,901,902,903,904,905,906,907,908,909,910,911,912,913,914,915,916,917,918,919,920,921,922,923,924,925,926,927,928,929,930,931,932,933,934,935,936,937,938,939,940,941,942,943,944,945,946,947,948,949,950,951,952,953,954,955,956,957,958,959,960,961,962,963,964,965,966,967,968,969,970,971,972,973,974,975,976,977,978,979,980,981,982,983,984,985,986,987,988,989,990,991,992,993,994,995,996,997,998,999,1000,1001,1002,1003,1004,1005,1006,1007,1008,1009,1010,1011,1012,1013,1014,1015,1016,1017,1018,1019,1020,1021,1022,1023,1024,1025,1026,1027,1028,1029,1030,1031,1032,1033,1034,1035,1036,1037,1038,1039,1040,1041,1042,1043,1044,1045,1046,1047,1048,1049,1050,1051,1052,1053,1054,1055,1056,1057,1058,1059,1060,1061,1062,1063,1064,1065,1066,1067,1068,1069,1070,1071,1072,1073,1074,1075,1076,1077,1078,1079,1080,1081,1082,1083,1084,1085,1086,1087,1088,1089,1090,1091,1092,1093,1094,1095,1096,1097,1098,1099,1100,1101,1102,1103,1104,1105,1106,1107,1108,1109,1110,1111,1112,1113,1114,1115,1116,1117,1118,1119,1120,1121,1122,1123,1124,1125,1126,1127,1128,1129,1130,1131,1132,1133,1134,1135,1136,1137,1138,1139,1140,1141,1142,1143,1144,1145,1146,1147,1148,1149,1150,1151,1152,1153,1154,1155,1156,1157,1158,1159,1160,1161,1162,1163,1164,1165,1166,1167,1168,1169,1170,1171,1172,1173,1174,1175,1176,1177,1178,1179,1180,1181,1182,1183,1184,1185,1186,1187,1188,1189,1190,1191,1192,1193,1194,1195,1196,1197,1198,1199,1200,1201,1202,1203,1204,1205,1206,1207,1208,1209,1210,1211,1212,1213,1214,1215,1216,1217,1218,1219,1220,1221,1222,1223,1224,1225,1226,1227,1228,1229,1230,1231,1232,1233,1234,1235,1236,1237,1238,1239,1240,1241,1242,1243,1244,1245,1246,1247,1248,1249,1250,1251,1252,1253,1254,1255,1256,1257,1258,1259,1260,1261,1262,1263,1264,1265,1266,1267,1268,1269,1270,1271,1272,1273,1274,1275,1276,1277,1278,1279,1280,1281,1282,1283,1284,1285,1286,1287,1288,1289,1290,1291,1292,1293,1294,1295,1296,1297,1298,1299,1300,1301,1302,1303,1304,1305,1306,1307,1308,1309,1310,1311,1312,1313,1314,1315,1316,1317,1318,1319,1320,1321,1322,1323,1324,1325,1326,1327,1328,1329,1330,1331,1332,1333,1334,1335,1336,1337,1338,1339,1340,1341,1342,1343,1344,1345,1346,1347,1348,1349,1350,1351,1352,1353,1354,1355,1356,1357,1358,1359,1360,1361,1362,1363,1364,1365,1366,1367,1368,1369,1370,1371,1372,1373,1374,1375,1376,1377,1378,1379,1380,1381,1382,1383,1384,1385,1386,1387,1388,1389,1390,1391,1392,1393,1394,1395,1396,1397,1398,1399,1400,1401,1402,1403,1404,1405,1406,1407,1408,1409,1410,1411,1412,1413,1414,1415,1416,1417,1418,1419,1420,1421,1422,1423,1424,1425,1426,1427,1428,1429,1430,1431,1432,1433,1434,1435,1436,1437,1438,1439,1440,1441,1442,1443,1444,1445,1446,1447,1448,1449,1450,1451,1452,1453,1454,1455,1456,1457,1458,1459,1460,1461,1462,1463,1464,1465,1466,1467,1468,1469,1470,1471,1472,1473,1474,1475],"tree_info":[0,0,0,0,0,0,0,0,0,0,0,0,0,0,0,0,0,0,0,0,0,0,0,0,0,0,0,0,0,0,0,0,0,0,0,0,0,0,0,0,0,0,0,0,0,0,0,0,0,0,0,0,0,0,0,0,0,0,0,0,0,0,0,0,0,0,0,0,0,0,0,0,0,0,0,0,0,0,0,0,0,0,0,0,0,0,0,0,0,0,0,0,0,0,0,0,0,0,0,0,0,0,0,0,0,0,0,0,0,0,0,0,0,0,0,0,0,0,0,0,0,0,0,0,0,0,0,0,0,0,0,0,0,0,0,0,0,0,0,0,0,0,0,0,0,0,0,0,0,0,0,0,0,0,0,0,0,0,0,0,0,0,0,0,0,0,0,0,0,0,0,0,0,0,0,0,0,0,0,0,0,0,0,0,0,0,0,0,0,0,0,0,0,0,0,0,0,0,0,0,0,0,0,0,0,0,0,0,0,0,0,0,0,0,0,0,0,0,0,0,0,0,0,0,0,0,0,0,0,0,0,0,0,0,0,0,0,0,0,0,0,0,0,0,0,0,0,0,0,0,0,0,0,0,0,0,0,0,0,0,0,0,0,0,0,0,0,0,0,0,0,0,0,0,0,0,0,0,0,0,0,0,0,0,0,0,0,0,0,0,0,0,0,0,0,0,0,0,0,0,0,0,0,0,0,0,0,0,0,0,0,0,0,0,0,0,0,0,0,0,0,0,0,0,0,0,0,0,0,0,0,0,0,0,0,0,0,0,0,0,0,0,0,0,0,0,0,0,0,0,0,0,0,0,0,0,0,0,0,0,0,0,0,0,0,0,0,0,0,0,0,0,0,0,0,0,0,0,0,0,0,0,0,0,0,0,0,0,0,0,0,0,0,0,0,0,0,0,0,0,0,0,0,0,0,0,0,0,0,0,0,0,0,0,0,0,0,0,0,0,0,0,0,0,0,0,0,0,0,0,0,0,0,0,0,0,0,0,0,0,0,0,0,0,0,0,0,0,0,0,0,0,0,0,0,0,0,0,0,0,0,0,0,0,0,0,0,0,0,0,0,0,0,0,0,0,0,0,0,0,0,0,0,0,0,0,0,0,0,0,0,0,0,0,0,0,0,0,0,0,0,0,0,0,0,0,0,0,0,0,0,0,0,0,0,0,0,0,0,0,0,0,0,0,0,0,0,0,0,0,0,0,0,0,0,0,0,0,0,0,0,0,0,0,0,0,0,0,0,0,0,0,0,0,0,0,0,0,0,0,0,0,0,0,0,0,0,0,0,0,0,0,0,0,0,0,0,0,0,0,0,0,0,0,0,0,0,0,0,0,0,0,0,0,0,0,0,0,0,0,0,0,0,0,0,0,0,0,0,0,0,0,0,0,0,0,0,0,0,0,0,0,0,0,0,0,0,0,0,0,0,0,0,0,0,0,0,0,0,0,0,0,0,0,0,0,0,0,0,0,0,0,0,0,0,0,0,0,0,0,0,0,0,0,0,0,0,0,0,0,0,0,0,0,0,0,0,0,0,0,0,0,0,0,0,0,0,0,0,0,0,0,0,0,0,0,0,0,0,0,0,0,0,0,0,0,0,0,0,0,0,0,0,0,0,0,0,0,0,0,0,0,0,0,0,0,0,0,0,0,0,0,0,0,0,0,0,0,0,0,0,0,0,0,0,0,0,0,0,0,0,0,0,0,0,0,0,0,0,0,0,0,0,0,0,0,0,0,0,0,0,0,0,0,0,0,0,0,0,0,0,0,0,0,0,0,0,0,0,0,0,0,0,0,0,0,0,0,0,0,0,0,0,0,0,0,0,0,0,0,0,0,0,0,0,0,0,0,0,0,0,0,0,0,0,0,0,0,0,0,0,0,0,0,0,0,0,0,0,0,0,0,0,0,0,0,0,0,0,0,0,0,0,0,0,0,0,0,0,0,0,0,0,0,0,0,0,0,0,0,0,0,0,0,0,0,0,0,0,0,0,0,0,0,0,0,0,0,0,0,0,0,0,0,0,0,0,0,0,0,0,0,0,0,0,0,0,0,0,0,0,0,0,0,0,0,0,0,0,0,0,0,0,0,0,0,0,0,0,0,0,0,0,0,0,0,0,0,0,0,0,0,0,0,0,0,0,0,0,0,0,0,0,0,0,0,0,0,0,0,0,0,0,0,0,0,0,0,0,0,0,0,0,0,0,0,0,0,0,0,0,0,0,0,0,0,0,0,0,0,0,0,0,0,0,0,0,0,0,0,0,0,0,0,0,0,0,0,0,0,0,0,0,0,0,0,0,0,0,0,0,0,0,0,0,0,0,0,0,0,0,0,0,0,0,0,0,0,0,0,0,0,0,0,0,0,0,0,0,0,0,0,0,0,0,0,0,0,0,0,0,0,0,0,0,0,0,0,0,0,0,0,0,0,0,0,0,0,0,0,0,0,0,0,0,0,0,0,0,0,0,0,0,0,0,0,0,0,0,0,0,0,0,0,0,0,0,0,0,0,0,0,0,0,0,0,0,0,0,0,0,0,0,0,0,0,0,0,0,0,0,0,0,0,0,0,0,0,0,0,0,0,0,0,0,0,0,0,0,0,0,0,0,0,0,0,0,0,0,0,0,0,0,0,0,0,0,0,0,0,0,0,0,0,0,0,0,0,0,0,0,0,0,0,0,0,0,0,0,0,0,0,0,0,0,0,0,0,0,0,0,0,0,0,0,0,0,0,0,0,0,0,0,0,0,0,0,0,0,0,0,0,0,0,0,0,0,0,0,0,0,0,0,0,0,0,0,0,0,0,0,0,0,0,0,0,0,0,0,0,0,0,0,0,0,0,0,0,0,0,0,0,0,0,0,0,0,0,0,0,0,0,0,0,0,0,0,0,0,0,0,0,0,0,0,0,0,0,0,0,0,0,0,0,0,0,0,0,0,0,0,0,0,0,0,0,0,0,0,0,0,0,0,0,0,0,0,0,0,0,0,0,0,0,0,0,0,0,0,0,0,0,0,0,0,0,0,0,0,0,0,0,0,0,0,0,0,0,0,0,0,0,0,0,0,0,0,0,0,0,0,0,0,0,0,0,0,0,0,0,0,0,0,0,0,0,0,0,0,0,0,0,0,0,0,0,0,0,0,0,0,0,0,0,0,0,0,0,0,0,0,0,0,0,0,0,0,0,0,0,0,0,0,0,0,0,0,0,0,0,0,0,0,0,0,0,0,0,0,0,0,0,0,0,0,0,0,0,0,0,0,0,0,0,0,0,0,0,0,0,0,0,0,0,0,0,0,0,0,0,0,0,0,0,0,0,0,0,0,0,0,0,0,0,0],"trees":[{"base_weights":[-1.3044474E-4,-2.5627218E-2,3.8642623E-2,-3.5106614E-2,-4.041068E-3,2.7679518E-2,6.637646E-2,-2.2736467E-2,-5.3554896E-2,2.7527286E-2,-1.6219653E-2,6.0559057E-2,1.9487854E-2,1.4435688E-2,6.962871E-2,-2.898948E-3,-3.413364E-2,-1.6904647E-2,-5.709468E-2,5.1327985E-2,7.8710075E-4,2.9524579E-3,-1.9071251E-2,4.1445508E-3,1.1977849E-2,1.2747688E-2,4.4572007E-2,2.045304E-4,1.6976716E-2,1.2771082E-2,7.212748E-2,-5.389853E-2,4.387434E-3,-1.4498015E-2,-4.184461E-2,1.7528394E-2,-2.852134E-2,-1.5769791E-3,-5.9120685E-2,5.6302246E-2,2.2581955E-2,1.6526909E-3,-2.2326753E-2,-2.5346223E-2,-1.5888715E-3,-1.1349039E-2,2.3620566E-2,-1.9951724E-2,1.7028967E-2,5.9944488E-2,8.768016E-3,1.1711487E-3,2.5406864E-4,2.3715175E-3,-5.833319E-4,4.161016E-3,1.6954946E-3,-3.3467668E-3,-3.0108553E-4,3.557761E-3,-4.9467216E-4,-2.7824795E-2,1.22602945E-2,-4.77197E-2,-2.696318E-2,1.3968013E-3,9.101842E-5,-3.2976817E-2,-5.2785977E-5,-3.4416614E-3,-3.926036E-2,3.1733897E-2,3.5051133E-3,1.8188113E-3,-8.6532045E-6,-7.5123813E-3,-3.71256E-2,-1.40474085E-2,-3.4458846E-2,1.0443865E-2,-1.098793E-2,-9.474097E-4,1.2235454E-4,2.3092024E-4,1.4114936E-3,-2.5185717E-2,8.062169E-4,-1.6292469E-3,2.4510248E-2,1.2287892E-2,6.925976E-2,-6.649931E-3,2.486657E-3,2.0535004E-4,-2.786856E-3,-1.1028853E-3,-3.075154E-3,-4.9139555E-5,1.4209355E-3,-2.6859986E-3,-3.0191682E-4,-1.7192785E-3,5.4059597E-4,-2.9594268E-4,-2.0138987E-3,-6.3577236E-4,-2.4066311E-3,2.1272937E-3,2.0470747E-4,-7.7712734E-4,1.1463397E-4,-2.293432E-3,-4.0847823E-4,-1.7794112E-3,-2.574514E-4,-2.2830672E-3,-1.1771824E-3,1.4117637E-3,-1.8317872E-4,-8.312216E-4,5.4053427E-4,-1.5513373E-3,-4.2137524E-4,7.1049924E-4,-4.0420337E-4,1.0384059E-3,2.0808491E-3,9.50335E-5,9.1998343E-4,4.158164E-3,1.9226312E-3,-7.0023723E-4,1.0640855E-3],"categories":[],"categories_nodes":[],"categories_segments":[],"categories_sizes":[],"default_left":[0,0,0,0,0,0,0,0,0,0,0,0,0,0,0,0,0,0,0,0,0,0,0,0,0,0,0,0,0,0,0,0,0,0,0,0,0,0,0,0,0,0,0,0,0,0,0,0,0,0,0,0,0,0,0,0,0,0,0,0,0,0,0,0,0,0,0,0,0,0,0,0,0,0,0,0,0,0,0,0,0,0,0,0,0,0,0,0,0,0,0,0,0,0,0,0,0,0,0,0,0,0,0,0,0,0,0,0,0,0,0,0,0,0,0,0,0,0,0,0,0,0,0,0,0,0,0,0,0,0,0,0,0],"id":0,"left_children":[1,3,5,7,9,11,13,15,17,19,21,23,25,27,29,31,33,35,37,39,41,-1,43,-1,45,47,49,-1,51,53,55,57,59,61,63,65,67,-1,69,71,73,-1,75,77,79,81,83,85,87,89,91,-1,-1,-1,-1,-1,-1,-1,-1,-1,93,95,97,99,101,-1,-1,103,-1,-1,105,107,-1,-1,-1,109,111,113,115,117,119,-1,-1,-1,-1,121,-1,123,125,127,129,131,-1,-1,-1,-1,-1,-1,-1,-1,-1,-1,-1,-1,-1,-1,-1,-1,-1,-1,-1,-1,-1,-1,-1,-1,-1,-1,-1,-1,-1,-1,-1,-1,-1,-1,-1,-1,-1,-1,-1,-1,-1],"loss_changes":[3.5128024E0,4.376793E-1,4.1648793E-1,3.3168507E-1,2.5738817E-1,2.6740116E-1,5.99643E-2,2.0340607E-1,7.047081E-2,1.18486434E-1,1.0280551E-1,1.3779986E-1,1.361981E-1,4.3395255E-4,4.6364427E-2,1.2684432E-1,8.267939E-2,2.8024739E-2,1.9763827E-2,5.6809187E-3,6.850945E-2,0E0,5.1016107E-2,0E0,1.667042E-2,9.491975E-2,9.150332E-2,0E0,5.9720455E-4,1.988236E-2,3.537011E-2,1.2024E-2,8.8887416E-2,6.352717E-2,2.7136922E-2,2.1561505E-3,5.7296753E-3,0E0,1.7452002E-2,1.1005104E-3,6.1969087E-3,0E0,1.0568164E-2,3.2181367E-2,1.5578283E-2,2.091655E-3,7.889569E-4,1.691373E-2,8.247642E-2,4.7430128E-2,3.560524E-2,0E0,0E0,0E0,0E0,0E0,0E0,0E0,0E0,0E0,6.176061E-2,1.8099375E-2,1.120761E-2,1.1236191E-2,2.2646986E-2,0E0,0E0,2.8264932E-3,0E0,0E0,7.864639E-3,5.1524676E-3,0E0,0E0,0E0,2.552561E-3,1.5220493E-3,2.7215362E-2,1.1184365E-2,1.333333E-2,7.5834477E-3,0E0,0E0,0E0,0E0,2.3287907E-3,0E0,1.5176908E-2,2.6861578E-2,1.0928353E-3,3.8752854E-3,9.193038E-3,0E0,0E0,0E0,0E0,0E0,0E0,0E0,0E0,0E0,0E0,0E0,0E0,0E0,0E0,0E0,0E0,0E0,0E0,0E0,0E0,0E0,0E0,0E0,0E0,0E0,0E0,0E0,0E0,0E0,0E0,0E0,0E0,0E0,0E0,0E0,0E0,0E0,0E0,0E0,0E0,0E0],"parents":[2147483647,0,0,1,1,2,2,3,3,4,4,5,5,6,6,7,7,8,8,9,9,10,10,11,11,12,12,13,13,14,14,15,15,16,16,17,17,18,18,19,19,20,20,22,22,24,24,25,25,26,26,28,28,29,29,30,30,31,31,32,32,33,33,34,34,35,35,36,36,38,38,39,39,40,40,42,42,43,43,44,44,45,45,46,46,47,47,48,48,49,49,50,50,60,60,61,61,62,62,63,63,64,64,67,67,70,70,71,71,75,75,76,76,77,77,78,78,79,79,80,80,85,85,87,87,88,88,89,89,90,90,91,91],"right_children":[2,4,6,8,10,12,14,16,18,20,22,24,26,28,30,32,34,36,38,40,42,-1,44,-1,46,48,50,-1,52,54,56,58,60,62,64,66,68,-1,70,72,74,-1,76,78,80,82,84,86,88,90,92,-1,-1,-1,-1,-1,-1,-1,-1,-1,94,96,98,100,102,-1,-1,104,-1,-1,106,108,-1,-1,-1,110,112,114,116,118,120,-1,-1,-1,-1,122,-1,124,126,128,130,132,-1,-1,-1,-1,-1,-1,-1,-1,-1,-1,-1,-1,-1,-1,-1,-1,-1,-1,-1,-1,-1,-1,-1,-1,-1,-1,-1,-1,-1,-1,-1,-1,-1,-1,-1,-1,-1,-1,-1,-1,-1],"split_conditions":[7.101981E-2,-4.0097022E-1,1.3416783E0,-3.0345803E-1,-6.169969E-1,-5.9196633E-1,-1.4257344E0,-5.9196633E-1,-1.0931273E0,-3.0345803E-1,-1.0846629E0,4.5781973E-1,4.0070498E-1,1.5325452E0,-1.4262685E0,-1.1836076E0,-5.9303427E-1,-9.285106E-1,-1.4257344E0,-2.8973526E-1,-5.092915E-1,2.9524579E-3,6.7679185E-1,4.1445508E-3,1.2430004E0,-1.2547731E0,1.3778889E0,2.045304E-4,1.8820331E0,-1.5395101E0,2.011645E0,-7.165501E-1,-1.0022361E0,-7.6953924E-1,-5.5612165E-1,-1.10823E0,-6.10768E-1,-1.5769791E-3,1.0003396E0,-2.9385135E-1,-4.2466933E-1,1.6526909E-3,-1.4257344E0,-3.8453916E-1,-4.4476125E-1,4.865916E-1,2.2901197E-1,1.4318048E0,3.637745E-1,-8.959005E-1,9.865999E-1,1.1711487E-3,2.5406864E-4,2.3715175E-3,-5.833319E-4,4.161016E-3,1.6954946E-3,-3.3467668E-3,-3.0108553E-4,3.557761E-3,-3.7737095E-1,1.0136383E0,-5.8734715E-1,-4.2687604E-1,1.4769897E-1,1.3968013E-3,9.101842E-5,-8.959005E-1,-5.2785977E-5,-3.4416614E-3,-8.6013633E-1,-6.173991E-1,3.5051133E-3,1.8188113E-3,-8.6532045E-6,-1.5250996E-1,6.1900496E-1,-7.7917886E-1,-2.6279077E-1,5.044585E-1,4.0070498E-1,-9.474097E-4,1.2235454E-4,2.3092024E-4,1.4114936E-3,1.2011993E0,8.062169E-4,-3.8453916E-1,4.6163264E-1,3.0473801E-1,1.0817168E-1,3.3727748E0,2.486657E-3,2.0535004E-4,-2.786856E-3,-1.1028853E-3,-3.075154E-3,-4.9139555E-5,1.4209355E-3,-2.6859986E-3,-3.0191682E-4,-1.7192785E-3,5.4059597E-4,-2.9594268E-4,-2.0138987E-3,-6.3577236E-4,-2.4066311E-3,2.1272937E-3,2.0470747E-4,-7.7712734E-4,1.1463397E-4,-2.293432E-3,-4.0847823E-4,-1.7794112E-3,-2.574514E-4,-2.2830672E-3,-1.1771824E-3,1.4117637E-3,-1.8317872E-4,-8.312216E-4,5.4053427E-4,-1.5513373E-3,-4.2137524E-4,7.1049924E-4,-4.0420337E-4,1.0384059E-3,2.0808491E-3,9.50335E-5,9.1998343E-4,4.158164E-3,1.9226312E-3,-7.0023723E-4,1.0640855E-3],"split_indices":[18,18,18,11,3,7,3,7,6,11,11,1,6,18,0,0,3,3,3,8,1,0,0,0,0,1,3,0,18,0,1,18,11,18,11,3,18,0,0,0,1,0,3,11,11,18,18,3,18,8,18,0,0,0,0,0,0,0,0,0,3,6,18,18,7,0,0,8,0,0,8,0,0,0,0,18,1,11,0,7,6,0,0,0,0,8,0,11,0,18,11,3,0,0,0,0,0,0,0,0,0,0,0,0,0,0,0,0,0,0,0,0,0,0,0,0,0,0,0,0,0,0,0,0,0,0,0,0,0,0,0,0,0],"split_type":[0,0,0,0,0,0,0,0,0,0,0,0,0,0,0,0,0,0,0,0,0,0,0,0,0,0,0,0,0,0,0,0,0,0,0,0,0,0,0,0,0,0,0,0,0,0,0,0,0,0,0,0,0,0,0,0,0,0,0,0,0,0,0,0,0,0,0,0,0,0,0,0,0,0,0,0,0,0,0,0,0,0,0,0,0,0,0,0,0,0,0,0,0,0,0,0,0,0,0,0,0,0,0,0,0,0,0,0,0,0,0,0,0,0,0,0,0,0,0,0,0,0,0,0,0,0,0,0,0,0,0,0,0],"sum_hessian":[3.54E3,2.137E3,1.403E3,1.482E3,6.55E2,1.015E3,3.88E2,8.96E2,5.86E2,1.8E2,4.75E2,1.94E2,8.21E2,2.5E1,3.63E2,3.3E2,5.66E2,5.5E1,5.31E2,9.2E1,8.8E1,1.4E1,4.61E2,1.46E2,4.8E1,6.55E2,1.66E2,8E0,1.7E1,1.7E1,3.46E2,3.6E1,2.94E2,1.65E2,4.01E2,1.3E1,4.2E1,4.2E1,4.89E2,7.3E1,1.9E1,3.8E1,5E1,3.37E2,1.24E2,1.6E1,3.2E1,7.3E1,5.82E2,1.13E2,5.3E1,9E0,8E0,5E0,1.2E1,3.14E2,3.2E1,3E1,6E0,1.6E1,2.78E2,1.1E2,5.5E1,2.77E2,1.24E2,6E0,7E0,3.5E1,7E0,4.05E2,8.4E1,2.5E1,4.8E1,1.1E1,8E0,3E1,2E1,1.58E2,1.79E2,5.4E1,7E1,1E1,6E0,5E0,2.7E1,6.5E1,8E0,1.68E2,4.14E2,2.1E1,9.2E1,4.1E1,1.2E1,2.62E2,1.6E1,9.5E1,1.5E1,3.1E1,2.4E1,2.69E2,8E0,1.12E2,1.2E1,6E0,2.9E1,1.5E1,6.9E1,1.8E1,7E0,1.6E1,1.4E1,1.5E1,5E0,4.8E1,1.1E2,1.07E2,7.2E1,2.3E1,3.1E1,6E1,1E1,5.2E1,1.3E1,4.5E1,1.23E2,3.02E2,1.12E2,9E0,1.2E1,7.1E1,2.1E1,3.6E1,5E0],"tree_param":{"num_deleted":"0","num_feature":"19","num_nodes":"133","size_leaf_vector":"1"}},{"base_weights":[-4.1383412E-4,5.341669E-3,-1.9457687E-2,3.0208793E-2,-1.4496384E-3,-2.2034222E-2,1.981381E-2,-3.913381E-2,3.6542874E-2,3.6930323E-2,-5.238557E-3,-1.4427832E-2,-3.1797003E-2,-5.4278213E-4,1.3729264E-3,-1.9329127E-4,-3.0778698E-3,8.646566E-2,2.7517458E-2,6.287867E-2,7.103652E-3,-2.357652E-2,-1.7009395E-5,-2.0494915E-3,-4.287445E-3,-1.4872791E-2,-4.0013626E-2,5.683121E-3,-1.8607024E-3,3.9914574E-2,1.6306045E-2,3.8069538E-3,1.8325263E-3,1.0318401E-3,-1.8773796E-3,-3.14514E-2,1.1485958E-3,-4.8460618E-2,2.3732067E-3,-1.08068455E-2,9.8663075E-3,-7.8900745E-3,-9.908407E-4,-4.636673E-2,-1.3488582E-3,1.587015E-2,2.4218913E-3,5.187276E-3,2.772831E-3,-2.5131794E-2,-3.138194E-3,-3.1730488E-3,2.6788088E-4,-4.1709606E-2,4.6741543E-3,1.3528782E-3,-1.2927387E-2,-3.002901E-4,1.6410658E-2,-6.478005E-4,2.7485386E-5,-9.787158E-4,-2.7751047E-3,1.0844963E-3,-2.8379064E-4,-2.0181207E-4,6.330006E-4,-1.5288404E-3,-1.43153E-4,-1.1356886E-3,-2.5652666E-3,1.1422705E-3,1.3725122E-5,-3.9384645E-4,-1.03851E-3,1.1129219E-3,4.3263283E-4],"categories":[],"categories_nodes":[],"categories_segments":[],"categories_sizes":[],"default_left":[0,0,0,0,0,0,0,0,0,0,0,0,0,0,0,0,0,0,0,0,0,0,0,0,0,0,0,0,0,0,0,0,0,0,0,0,0,0,0,0,0,0,0,0,0,0,0,0,0,0,0,0,0,0,0,0,0,0,0,0,0,0,0,0,0,0,0,0,0,0,0,0,0,0,0,0,0],"id":1,"left_children":[1,3,5,7,9,11,13,15,17,19,21,23,25,-1,-1,-1,-1,27,29,31,33,35,37,-1,39,41,43,-1,-1,45,47,-1,-1,-1,-1,49,-1,51,53,55,57,59,-1,61,-1,63,-1,65,-1,67,-1,-1,-1,69,71,-1,73,-1,75,-1,-1,-1,-1,-1,-1,-1,-1,-1,-1,-1,-1,-1,-1,-1,-1,-1,-1],"loss_changes":[3.847843E-1,4.5562568E-1,8.536437E-2,2.6367837E-1,3.101499E-1,5.3977817E-2,9.848259E-3,2.9551856E-2,2.2478133E-1,1.4533526E-1,1.8563965E-1,1.0159164E-1,4.2035878E-2,0E0,0E0,0E0,0E0,1.82141E-1,5.9864998E-2,3.708005E-3,5.0690338E-2,1.547881E-1,1.7643888E-1,0E0,2.97754E-2,1.6521849E-3,1.4020234E-2,0E0,0E0,1.65008E-2,9.440425E-2,0E0,0E0,0E0,0E0,4.998392E-2,0E0,3.7080467E-2,1.4848831E-1,1.8555058E-2,1.09236725E-2,1.646891E-3,0E0,1.1188865E-2,0E0,4.06814E-3,0E0,1.1419535E-2,0E0,1.7804444E-2,0E0,0E0,0E0,1.1383891E-3,9.851339E-2,0E0,6.333001E-3,0E0,1.3443064E-3,0E0,0E0,0E0,0E0,0E0,0E0,0E0,0E0,0E0,0E0,0E0,0E0,0E0,0E0,0E0,0E0,0E0,0E0],"parents":[2147483647,0,0,1,1,2,2,3,3,4,4,5,5,6,6,7,7,8,8,9,9,10,10,11,11,12,12,17,17,18,18,19,19,20,20,21,21,22,22,24,24,25,25,26,26,29,29,30,30,35,35,37,37,38,38,39,39,40,40,41,41,43,43,45,45,47,47,49,49,53,53,54,54,56,56,58,58],"right_children":[2,4,6,8,10,12,14,16,18,20,22,24,26,-1,-1,-1,-1,28,30,32,34,36,38,-1,40,42,44,-1,-1,46,48,-1,-1,-1,-1,50,-1,52,54,56,58,60,-1,62,-1,64,-1,66,-1,68,-1,-1,-1,70,72,-1,74,-1,76,-1,-1,-1,-1,-1,-1,-1,-1,-1,-1,-1,-1,-1,-1,-1,-1,-1,-1],"split_conditions":[6.035392E-1,-7.750376E-1,2.941626E0,-1.0203966E0,-1.2009296E0,2.2382504E-1,2.0463316E-1,-9.3450123E-1,-9.015937E-1,-7.84735E-1,-6.3823974E-1,-2.191584E-1,1.0912023E0,-5.4278213E-4,1.3729264E-3,-1.9329127E-4,-3.0778698E-3,-1.4972633E-1,-1.4472684E-1,-7.7917296E-1,-7.068566E-1,3.3910364E-1,-8.5142696E-1,-2.0494915E-3,5.6915146E-1,5.2852774E-1,2.5859922E-1,5.683121E-3,-1.8607024E-3,-3.855481E-1,3.3691567E-1,3.8069538E-3,1.8325263E-3,1.0318401E-3,-1.8773796E-3,-2.7366304E-1,1.1485958E-3,-2.9385135E-1,-1.2490174E0,-8.805854E-1,-7.7917296E-1,3.2832342E-1,-9.908407E-4,2.9290265E-1,-1.3488582E-3,1.0003396E0,2.4218913E-3,3.986678E-5,2.772831E-3,2.514926E0,-3.138194E-3,-3.1730488E-3,2.6788088E-4,-3.8471198E-1,-4.1258043E-1,1.3528782E-3,-9.348173E-2,-3.002901E-4,-2.688108E-1,-6.478005E-4,2.7485386E-5,-9.787158E-4,-2.7751047E-3,1.0844963E-3,-2.8379064E-4,-2.0181207E-4,6.330006E-4,-1.5288404E-3,-1.43153E-4,-1.1356886E-3,-2.5652666E-3,1.1422705E-3,1.3725122E-5,-3.9384645E-4,-1.03851E-3,1.1129219E-3,4.3263283E-4],"split_indices":[7,12,0,2,6,0,2,3,7,3,1,6,7,0,0,0,0,3,7,0,3,6,2,0,3,6,12,0,0,7,7,0,0,0,0,13,0,0,9,3,0,6,0,6,0,0,0,3,0,12,0,0,0,6,1,0,9,0,12,0,0,0,0,0,0,0,0,0,0,0,0,0,0,0,0,0,0],"split_type":[0,0,0,0,0,0,0,0,0,0,0,0,0,0,0,0,0,0,0,0,0,0,0,0,0,0,0,0,0,0,0,0,0,0,0,0,0,0,0,0,0,0,0,0,0,0,0,0,0,0,0,0,0,0,0,0,0,0,0,0,0,0,0,0,0,0,0,0,0,0,0,0,0,0,0,0,0],"sum_hessian":[3.497E3,2.689E3,8.08E2,5.72E2,2.117E3,7.61E2,4.7E1,4.5E1,5.27E2,1.85E2,1.932E3,4.37E2,3.24E2,6E0,4.1E1,1.7E1,2.8E1,7.2E1,4.55E2,9.5E1,9E1,4.23E2,1.509E3,1.29E2,3.08E2,1.12E2,2.12E2,6.4E1,8E0,2.08E2,2.47E2,7.1E1,2.4E1,7.3E1,1.7E1,3.61E2,6.2E1,6.5E1,1.444E3,2.12E2,9.6E1,4.2E1,7E1,1.41E2,7.1E1,3.5E1,1.73E2,1.92E2,5.5E1,3E2,6.1E1,5.5E1,1E1,6.6E1,1.378E3,8E0,2.04E2,2.9E1,6.7E1,2.7E1,1.5E1,2.2E1,1.19E2,3E1,5E0,8.1E1,1.11E2,2.67E2,3.3E1,1.9E1,4.7E1,2.92E2,1.086E3,1.11E2,9.3E1,4E1,2.7E1],"tree_param":{"num_deleted":"0","num_feature":"19","num_nodes":"77","size_leaf_vector":"1"}},{"base_weights":[6.9442973E-4,6.2765E-3,-1.8776199E-2,3.1165624E-2,-4.223269E-4,-1.1336497E-2,-4.200208E-2,1.0659836E-2,5.1950336E-2,2.3590038E-2,-7.498302E-3,2.4668342E-2,-1.4379905E-2,-2.6501615E-3,-1.5125901E-3,-1.9562421E-2,2.562528E-2,8.880817E-2,3.8094334E-2,3.5915142E-3,1.5132055E-2,-3.4513142E-2,-2.9732718E-3,-2.7911717E-4,1.583849E-3,-1.8924704E-2,8.824234E-3,-3.9232407E-2,-1.3124582E-3,3.192207E-2,1.3759645E-2,5.491359E-3,-1.4610592E-3,4.2363215E-2,-1.1621885E-2,-1.4625365E-2,2.4234014E-2,-5.39025E-3,-3.962479E-2,9.572244E-3,-9.361195E-3,-2.0401148E-2,1.0977649E-3,-3.9145048E-4,1.41706765E-2,-8.1082026E-4,-2.6397044E-3,-8.666331E-4,2.876402E-4,3.657365E-2,8.730319E-4,4.319856E-4,1.2409044E-3,3.1854227E-2,3.1831176E-3,1.0728417E-5,-1.0056038E-3,8.457454E-4,-2.45821E-2,3.2551665E-2,-2.0809485E-2,5.3694188E-3,-1.1248174E-3,-5.2331155E-4,-4.310572E-2,-3.7177599E-3,1.6304178E-2,-2.8360134E-3,-2.7921027E-2,-1.6467784E-3,-1.5456217E-2,3.665835E-4,1.1408934E-3,2.1411001E-3,7.9672196E-4,2.346571E-3,1.2175803E-3,-9.3030307E-4,-1.9238507E-3,2.071741E-3,1.12363035E-4,-6.1086996E-4,-1.6301087E-3,-7.666935E-5,6.0314E-4,-2.9772092E-3,-1.6418741E-3,-1.1241954E-3,3.7427832E-4,1.0409156E-3,-1.2420701E-3,-7.660011E-6,-2.5118862E-3,-1.8563996E-3,7.2876207E-4,-2.257669E-3,-7.406548E-4],"categories":[],"categories_nodes":[],"categories_segments":[],"categories_sizes":[],"default_left":[0,0,0,0,0,0,0,0,0,0,0,0,0,0,0,0,0,0,0,0,0,0,0,0,0,0,0,0,0,0,0,0,0,0,0,0,0,0,0,0,0,0,0,0,0,0,0,0,0,0,0,0,0,0,0,0,0,0,0,0,0,0,0,0,0,0,0,0,0,0,0,0,0,0,0,0,0,0,0,0,0,0,0,0,0,0,0,0,0,0,0,0,0,0,0,0,0],"id":2,"left_children":[1,3,5,7,9,11,13,15,17,19,21,23,25,-1,-1,27,29,31,33,-1,35,37,39,-1,-1,41,43,45,47,49,51,-1,-1,53,55,57,59,61,63,65,67,69,-1,-1,71,-1,-1,-1,-1,73,-1,-1,-1,75,-1,-1,-1,-1,77,79,81,83,-1,-1,85,87,89,91,93,-1,95,-1,-1,-1,-1,-1,-1,-1,-1,-1,-1,-1,-1,-1,-1,-1,-1,-1,-1,-1,-1,-1,-1,-1,-1,-1,-1],"loss_changes":[3.8422537E-1,4.5812494E-1,1.3297072E-1,2.4465394E-1,3.7003246E-1,6.875726E-2,8.110732E-3,1.3981158E-1,1.2458843E-1,1.6821697E-1,2.0491512E-1,7.083703E-3,6.0478963E-2,0E0,0E0,3.685093E-2,1.2381911E-2,1.1088854E-1,5.0145328E-2,0E0,1.1632972E-1,3.4377128E-2,1.1664162E-1,0E0,0E0,2.9864088E-2,8.936666E-3,5.9321076E-3,6.3270065E-3,5.7630986E-3,3.1264909E-3,0E0,0E0,2.113539E-2,1.840167E-3,3.3208355E-2,1.2616983E-1,7.854883E-3,1.8604815E-2,4.4424415E-2,1.16069466E-1,1.8552393E-2,0E0,0E0,2.7632304E-3,0E0,0E0,0E0,0E0,1.1377782E-3,0E0,0E0,0E0,8.112684E-3,0E0,0E0,0E0,0E0,2.4460629E-3,4.246354E-2,2.5010277E-3,1.2875309E-3,0E0,0E0,1.5700012E-2,3.0982157E-2,3.6130734E-2,8.3086625E-2,6.274971E-2,0E0,1.250378E-2,0E0,0E0,0E0,0E0,0E0,0E0,0E0,0E0,0E0,0E0,0E0,0E0,0E0,0E0,0E0,0E0,0E0,0E0,0E0,0E0,0E0,0E0,0E0,0E0,0E0,0E0],"parents":[2147483647,0,0,1,1,2,2,3,3,4,4,5,5,6,6,7,7,8,8,9,9,10,10,11,11,12,12,15,15,16,16,17,17,18,18,20,20,21,21,22,22,25,25,26,26,27,27,28,28,29,29,30,30,33,33,34,34,35,35,36,36,37,37,38,38,39,39,40,40,41,41,44,44,49,49,53,53,58,58,59,59,60,60,61,61,64,64,65,65,66,66,67,67,68,68,70,70],"right_children":[2,4,6,8,10,12,14,16,18,20,22,24,26,-1,-1,28,30,32,34,-1,36,38,40,-1,-1,42,44,46,48,50,52,-1,-1,54,56,58,60,62,64,66,68,70,-1,-1,72,-1,-1,-1,-1,74,-1,-1,-1,76,-1,-1,-1,-1,78,80,82,84,-1,-1,86,88,90,92,94,-1,96,-1,-1,-1,-1,-1,-1,-1,-1,-1,-1,-1,-1,-1,-1,-1,-1,-1,-1,-1,-1,-1,-1,-1,-1,-1,-1],"split_conditions":[6.035392E-1,-7.750376E-1,5.780106E-1,-5.9501076E-1,-2.5183696E-1,-8.404481E-1,2.5859922E-1,1.0969044E-1,-9.015937E-1,-9.285106E-1,-3.4997562E-1,-1.3538465E0,2.1722488E0,-2.6501615E-3,-1.5125901E-3,7.749056E-1,1.0379801E-1,-1.4972633E-1,3.0342954E-1,3.5915142E-3,-2.89603E-1,-6.8692505E-1,-7.583762E-1,-2.7911717E-4,1.583849E-3,-1.1598514E-1,-1.4850631E0,-9.3450123E-1,-7.7838555E-2,-1.0013026E0,4.9726367E-1,5.491359E-3,-1.4610592E-3,-3.8935226E-1,-6.864884E-1,-7.727537E-1,1.5938327E-1,-6.7091274E-1,-3.501254E-1,-1.4017718E0,-7.020388E-2,-6.613361E-1,1.0977649E-3,-3.9145048E-4,2.5221026E0,-8.1082026E-4,-2.6397044E-3,-8.666331E-4,2.876402E-4,6.410392E-1,8.730319E-4,4.319856E-4,1.2409044E-3,-3.6292812E-1,3.1831176E-3,1.0728417E-5,-1.0056038E-3,8.457454E-4,7.6288444E-1,-1.3189214E-1,9.902714E-2,-6.7690337E-1,-1.1248174E-3,-5.2331155E-4,-2.811545E-1,7.441412E-1,5.0333446E-1,9.2335665E-1,2.514926E0,-1.6467784E-3,-1.0405898E0,3.665835E-4,1.1408934E-3,2.1411001E-3,7.9672196E-4,2.346571E-3,1.2175803E-3,-9.3030307E-4,-1.9238507E-3,2.071741E-3,1.12363035E-4,-6.1086996E-4,-1.6301087E-3,-7.666935E-5,6.0314E-4,-2.9772092E-3,-1.6418741E-3,-1.1241954E-3,3.7427832E-4,1.0409156E-3,-1.2420701E-3,-7.660011E-6,-2.5118862E-3,-1.8563996E-3,7.2876207E-4,-2.257669E-3,-7.406548E-4],"split_indices":[7,12,5,10,15,3,12,4,7,3,12,3,3,0,0,2,11,3,4,0,2,10,3,0,0,15,2,3,3,12,3,0,0,3,3,3,4,3,4,3,15,2,0,0,3,0,0,0,0,3,0,0,0,7,0,0,0,0,10,10,2,3,0,0,2,12,10,11,12,0,11,0,0,0,0,0,0,0,0,0,0,0,0,0,0,0,0,0,0,0,0,0,0,0,0,0,0],"split_type":[0,0,0,0,0,0,0,0,0,0,0,0,0,0,0,0,0,0,0,0,0,0,0,0,0,0,0,0,0,0,0,0,0,0,0,0,0,0,0,0,0,0,0,0,0,0,0,0,0,0,0,0,0,0,0,0,0,0,0,0,0,0,0,0,0,0,0,0,0,0,0,0,0,0,0,0,0,0,0,0,0,0,0,0,0,0,0,0,0,0,0,0,0,0,0,0,0],"sum_hessian":[3.521E3,2.74E3,7.81E2,5.76E2,2.164E3,5.99E2,1.82E2,2.95E2,2.81E2,4.89E2,1.675E3,4.3E1,5.56E2,1.17E2,6.5E1,9.7E1,1.98E2,6.7E1,2.14E2,7.5E1,4.14E2,2.34E2,1.441E3,5E0,3.8E1,4.66E2,9E1,4.3E1,5.4E1,1.22E2,7.6E1,6.2E1,5E0,1.98E2,1.6E1,9.6E1,3.18E2,3.7E1,1.97E2,4.85E2,9.56E2,4.52E2,1.4E1,2.2E1,6.8E1,1.6E1,2.7E1,1.4E1,4E1,8.8E1,3.4E1,5.3E1,2.3E1,1.3E2,6.8E1,8E0,8E0,2.3E1,7.3E1,2.7E2,4.8E1,2.4E1,1.3E1,2.3E1,1.74E2,1.64E2,3.21E2,7.13E2,2.43E2,1.43E2,3.09E2,3.8E1,3E1,7.5E1,1.3E1,5.1E1,7.9E1,5.2E1,2.1E1,2.3E2,4E1,3E1,1.8E1,1.3E1,1.1E1,8.4E1,9E1,6.1E1,1.03E2,3.04E2,1.7E1,6.77E2,3.6E1,2.14E2,2.9E1,1.3E1,2.96E2],"tree_param":{"num_deleted":"0","num_feature":"19","num_nodes":"97","size_leaf_vector":"1"}},{"base_weights":[-4.6466978E-4,-2.3082329E-2,3.746522E-2,-3.3711232E-2,-7.0001287E-3,2.7865913E-2,6.7538425E-2,-2.3452248E-2,-4.9704593E-2,1.8906299E-2,-1.6249916E-2,4.2423274E-2,1.6320145E-2,7.2733335E-2,2.909726E-2,-1.5123107E-2,-4.1223116E-2,-2.314459E-2,-5.2605852E-2,4.3093767E-2,-6.0907947E-3,-3.3588193E-3,-2.6461268E-2,4.534747E-3,3.1739123E-2,-1.2089273E-2,2.021431E-2,7.854387E-4,4.235525E-3,-3.7827683E-4,1.9402747E-3,-2.7241822E-2,7.075987E-5,2.2676564E-3,-4.458865E-2,-1.818444E-3,3.97046E-3,-1.546156E-2,-5.3370968E-2,4.931651E-2,2.502627E-2,2.2851765E-2,-2.7426068E-2,-6.9616754E-3,1.5145367E-3,-4.013667E-2,-1.718285E-2,2.202629E-2,6.3272506E-2,1.00543415E-2,-2.637091E-2,3.6032185E-2,1.4051845E-2,-3.2500766E-2,-1.4591557E-2,4.3780217E-3,-4.853446E-3,-0E0,-4.6613667E-2,-5.2605313E-4,7.7964924E-4,-1.224122E-3,6.475103E-5,-1.5863186E-3,-5.4989073E-2,1.3909149E-3,3.010021E-3,-1.4894055E-4,3.161131E-2,3.1503774E-3,1.7036104E-3,-9.364311E-3,-4.2171225E-2,2.8184969E-2,-1.001976E-2,-2.4401315E-3,-1.8396283E-2,-2.302058E-2,5.4364735E-3,1.7882071E-3,3.0352825E-2,5.0956476E-4,3.6724035E-3,4.977451E-5,1.1400946E-2,-3.849955E-3,-1.7929346E-3,2.881999E-3,2.3547912E-2,5.1734145E-3,2.5828043E-2,-2.3327314E-3,-1.2913012E-3,-1.3556753E-3,8.726643E-5,-2.2151694E-3,2.2762959E-4,-4.512441E-4,4.8428064E-4,-2.7556815E-3,-1.0902536E-3,-3.1941696E-3,-2.057104E-3,2.1571158E-3,-1.8004309E-4,3.9945127E-4,-1.815594E-4,-9.7167684E-4,1.01471225E-4,-7.209409E-4,-2.5812348E-3,3.0453605E-4,2.314867E-3,-9.4008504E-4,1.446835E-4,-1.2667476E-3,-0E0,-1.6591421E-3,-4.2482495E-4,-4.239436E-4,1.7753774E-3,-3.689388E-4,8.564097E-4,6.480907E-4,2.0217954E-3,9.61346E-4,2.2226412E-4,-3.787518E-4,8.388733E-5,-1.8125334E-4,1.9099644E-3,4.2812788E-4,-9.3242555E-4,-5.0764455E-4,1.5314869E-3],"categories":[],"categories_nodes":[],"categories_segments":[],"categories_sizes":[],"default_left":[0,0,0,0,0,0,0,0,0,0,0,0,0,0,0,0,0,0,0,0,0,0,0,0,0,0,0,0,0,0,0,0,0,0,0,0,0,0,0,0,0,0,0,0,0,0,0,0,0,0,0,0,0,0,0,0,0,0,0,0,0,0,0,0,0,0,0,0,0,0,0,0,0,0,0,0,0,0,0,0,0,0,0,0,0,0,0,0,0,0,0,0,0,0,0,0,0,0,0,0,0,0,0,0,0,0,0,0,0,0,0,0,0,0,0,0,0,0,0,0,0,0,0,0,0,0,0,0,0,0,0,0,0,0,0],"id":3,"left_children":[1,3,5,7,9,11,13,15,17,19,21,23,25,27,29,31,33,35,37,39,41,43,45,-1,47,49,51,-1,-1,-1,-1,53,55,-1,57,-1,59,61,63,65,67,69,71,73,-1,75,77,79,81,83,85,87,89,91,93,-1,95,97,99,-1,-1,-1,-1,-1,101,-1,-1,-1,103,105,-1,107,109,111,113,-1,115,117,119,121,123,-1,-1,-1,125,127,-1,-1,129,131,133,-1,-1,-1,-1,-1,-1,-1,-1,-1,-1,-1,-1,-1,-1,-1,-1,-1,-1,-1,-1,-1,-1,-1,-1,-1,-1,-1,-1,-1,-1,-1,-1,-1,-1,-1,-1,-1,-1,-1,-1,-1,-1,-1,-1],"loss_changes":[3.039834E0,3.7784564E-1,3.6970937E-1,2.1129227E-1,2.157474E-1,1.6596597E-1,4.9020886E-2,1.1810124E-1,3.1668782E-2,1.4551063E-1,8.636831E-2,1.7270243E-1,6.545262E-2,6.0408473E-2,1.2438532E-2,1.0551068E-1,8.425677E-2,1.7741263E-2,7.5718164E-3,5.514264E-3,7.995593E-2,3.4649916E-2,4.2099E-2,0E0,1.015836E-1,2.5106601E-2,4.6346262E-2,0E0,0E0,0E0,0E0,1.8057495E-2,1.0485645E-1,0E0,2.2755086E-2,0E0,4.0672338E-3,2.3185713E-3,7.29084E-3,1.6712397E-3,8.769212E-3,8.220701E-3,1.6991228E-2,3.1325966E-2,0E0,7.724449E-3,3.1325966E-2,4.792206E-2,1.1117339E-2,3.3598393E-4,5.66867E-3,2.0141035E-2,3.8601547E-2,1.30613E-2,1.7474001E-2,0E0,8.131488E-2,1.7884208E-3,1.5844882E-2,0E0,0E0,0E0,0E0,0E0,7.8623295E-3,0E0,0E0,0E0,1.0605786E-2,8.071643E-4,0E0,4.1271187E-3,1.227729E-3,5.8721676E-3,2.3264809E-2,0E0,2.9264987E-3,1.8590279E-2,2.0298952E-2,1.1349683E-2,2.11671E-2,0E0,0E0,0E0,8.104986E-4,3.7445352E-4,0E0,0E0,2.7968895E-2,1.3797744E-2,1.3015799E-2,0E0,0E0,0E0,0E0,0E0,0E0,0E0,0E0,0E0,0E0,0E0,0E0,0E0,0E0,0E0,0E0,0E0,0E0,0E0,0E0,0E0,0E0,0E0,0E0,0E0,0E0,0E0,0E0,0E0,0E0,0E0,0E0,0E0,0E0,0E0,0E0,0E0,0E0,0E0,0E0,0E0,0E0,0E0,0E0],"parents":[2147483647,0,0,1,1,2,2,3,3,4,4,5,5,6,6,7,7,8,8,9,9,10,10,11,11,12,12,13,13,14,14,15,15,16,16,17,17,18,18,19,19,20,20,21,21,22,22,24,24,25,25,26,26,31,31,32,32,34,34,36,36,37,37,38,38,39,39,40,40,41,41,42,42,43,43,45,45,46,46,47,47,48,48,49,49,50,50,51,51,52,52,53,53,54,54,56,56,57,57,58,58,64,64,68,68,69,69,71,71,72,72,73,73,74,74,76,76,77,77,78,78,79,79,80,80,84,84,85,85,88,88,89,89,90,90],"right_children":[2,4,6,8,10,12,14,16,18,20,22,24,26,28,30,32,34,36,38,40,42,44,46,-1,48,50,52,-1,-1,-1,-1,54,56,-1,58,-1,60,62,64,66,68,70,72,74,-1,76,78,80,82,84,86,88,90,92,94,-1,96,98,100,-1,-1,-1,-1,-1,102,-1,-1,-1,104,106,-1,108,110,112,114,-1,116,118,120,122,124,-1,-1,-1,126,128,-1,-1,130,132,134,-1,-1,-1,-1,-1,-1,-1,-1,-1,-1,-1,-1,-1,-1,-1,-1,-1,-1,-1,-1,-1,-1,-1,-1,-1,-1,-1,-1,-1,-1,-1,-1,-1,-1,-1,-1,-1,-1,-1,-1,-1,-1,-1,-1],"split_conditions":[1.2989666E-1,-5.0341594E-1,1.4951258E0,-3.0345803E-1,-6.1100626E-1,-4.0794352E-1,1.0668495E0,-1.4662482E-1,-1.0931273E0,-3.0345803E-1,-3.8453916E-1,-9.285106E-1,-1.2547731E0,-1.4257344E0,-1.2547731E0,-2.89603E-1,-9.206493E-1,-7.2479284E-1,-1.319449E0,-6.457819E-1,-5.092915E-1,1.7247355E0,-3.2339692E-1,4.534747E-3,4.0070498E-1,-5.243284E-1,-2.9230997E-1,7.854387E-4,4.235525E-3,-3.7827683E-4,1.9402747E-3,-7.6953924E-1,-1.3382561E0,2.2676564E-3,-5.9303427E-1,-1.818444E-3,-1.5201082E0,-1.8406332E-1,-1.4257344E0,-1.3756621E0,-4.7286958E-1,-3.1919146E-1,-1.4257344E0,-9.776248E-1,1.5145367E-3,-8.731142E-3,2.852025E-1,4.5656016E-1,-6.4590293E-1,1.9133079E-1,-1.4683436E0,-5.2114654E-1,7.804739E-1,-8.362048E-1,1.3107723E-1,4.3780217E-3,-6.3865465E-1,-1.1687242E0,1.7247355E0,-5.2605313E-4,7.7964924E-4,-1.224122E-3,6.475103E-5,-1.5863186E-3,5.154375E-1,1.3909149E-3,3.010021E-3,-1.4894055E-4,-1.4883803E-1,-9.767287E-1,1.7036104E-3,-1.9961143E-1,-6.906263E-1,-5.570904E-1,-2.0545009E-1,-2.4401315E-3,2.6799543E0,-1.0181888E-1,4.9726367E-1,-2.0545009E-1,-9.139216E-1,5.0956476E-4,3.6724035E-3,4.977451E-5,3.0473801E-1,7.918746E-1,-1.7929346E-3,2.881999E-3,-3.7737095E-1,7.749056E-1,-2.191584E-1,-2.3327314E-3,-1.2913012E-3,-1.3556753E-3,8.726643E-5,-2.2151694E-3,2.2762959E-4,-4.512441E-4,4.8428064E-4,-2.7556815E-3,-1.0902536E-3,-3.1941696E-3,-2.057104E-3,2.1571158E-3,-1.8004309E-4,3.9945127E-4,-1.815594E-4,-9.7167684E-4,1.01471225E-4,-7.209409E-4,-2.5812348E-3,3.0453605E-4,2.314867E-3,-9.4008504E-4,1.446835E-4,-1.2667476E-3,-0E0,-1.6591421E-3,-4.2482495E-4,-4.239436E-4,1.7753774E-3,-3.689388E-4,8.564097E-4,6.480907E-4,2.0217954E-3,9.61346E-4,2.2226412E-4,-3.787518E-4,8.388733E-5,-1.8125334E-4,1.9099644E-3,4.2812788E-4,-9.3242555E-4,-5.0764455E-4,1.5314869E-3],"split_indices":[18,18,18,11,3,10,10,1,6,11,11,3,1,3,1,2,4,18,18,11,1,1,2,0,6,11,6,0,0,0,0,18,18,0,3,0,4,4,3,1,10,18,3,6,0,18,6,18,10,18,1,3,18,11,4,0,10,18,1,0,0,0,0,0,6,0,0,0,4,1,0,18,10,3,4,0,6,18,3,4,11,0,0,0,18,18,0,0,3,2,6,0,0,0,0,0,0,0,0,0,0,0,0,0,0,0,0,0,0,0,0,0,0,0,0,0,0,0,0,0,0,0,0,0,0,0,0,0,0,0,0,0,0,0,0],"split_type":[0,0,0,0,0,0,0,0,0,0,0,0,0,0,0,0,0,0,0,0,0,0,0,0,0,0,0,0,0,0,0,0,0,0,0,0,0,0,0,0,0,0,0,0,0,0,0,0,0,0,0,0,0,0,0,0,0,0,0,0,0,0,0,0,0,0,0,0,0,0,0,0,0,0,0,0,0,0,0,0,0,0,0,0,0,0,0,0,0,0,0,0,0,0,0,0,0,0,0,0,0,0,0,0,0,0,0,0,0,0,0,0,0,0,0,0,0,0,0,0,0,0,0,0,0,0,0,0,0,0,0,0,0,0,0],"sum_hessian":[3.53E3,2.213E3,1.317E3,1.328E3,8.85E2,1.008E3,3.09E2,8.19E2,5.09E2,2.31E2,6.54E2,4.38E2,5.7E2,2.67E2,4.2E1,5.66E2,2.53E2,5.6E1,4.53E2,1.15E2,1.16E2,2.93E2,3.61E2,8.3E1,3.55E2,6.7E1,5.03E2,2E1,2.47E2,6E0,3.6E1,3.12E2,2.54E2,7E0,2.46E2,4E1,1.6E1,1.2E1,4.41E2,7.7E1,3.8E1,4.9E1,6.7E1,2.67E2,2.6E1,1.37E2,2.24E2,2.8E2,7.5E1,2.7E1,4E1,1.32E2,3.71E2,2.13E2,9.9E1,9E0,2.45E2,1.1E1,2.35E2,7E0,9E0,7E0,5E0,3.5E1,4.06E2,2.1E1,5.6E1,8E0,3E1,1.7E1,3.2E1,3.5E1,3.2E1,1.7E1,2.5E2,1.09E2,2.8E1,1.78E2,4.6E1,8.4E1,1.96E2,6E0,6.9E1,5E0,2.2E1,1.1E1,2.9E1,4.8E1,8.4E1,2.17E2,1.54E2,9E1,1.23E2,5.9E1,4E1,4.5E1,2E2,6E0,5E0,2.03E2,3.2E1,3.33E2,7.3E1,2.4E1,6E0,1E1,7E0,1.8E1,1.7E1,8E0,2.4E1,1E1,7E0,1.59E2,9.1E1,2.1E1,7E0,1.17E2,6.1E1,3.4E1,1.2E1,5.4E1,3E1,5.5E1,1.41E2,7E0,1.5E1,6E0,5E0,2.6E1,5.8E1,1.98E2,1.9E1,7E0,1.47E2],"tree_param":{"num_deleted":"0","num_feature":"19","num_nodes":"135","size_leaf_vector":"1"}},{"base_weights":[-2.7030817E-4,3.2767747E-2,-2.9082645E-3,-1.5028571E-2,5.3880993E-2,1.4443343E-2,-8.833684E-3,-2.6739929E-2,2.992062E-4,1.4725196E-3,6.724707E-2,4.3869276E-2,5.173419E-4,-2.417255E-2,-2.9643916E-3,-6.2711263E-4,-1.706448E-3,5.579309E-3,5.4477245E-2,6.469442E-2,3.248472E-2,-8.688644E-3,3.30444E-2,-2.9016266E-2,9.682683E-4,3.7037751E-3,-1.9548476E-2,3.580014E-3,9.769977E-4,7.3215894E-2,5.4915296E-4,-1.3642922E-3,3.495574E-2,-2.6415441E-2,1.6213992E-3,-1.5197751E-2,3.88802E-2,-1.8860701E-2,-5.405988E-2,1.1242406E-2,-2.883175E-4,-1.369668E-2,-2.3933998E-3,2.6709437E-3,4.993027E-3,2.1734345E-3,1.3466234E-3,-3.395496E-2,-7.1752626E-3,1.6235685E-2,-4.347656E-3,-0E0,-1.2338305E-3,1.662287E-3,2.9902419E-3,-4.918362E-3,-3.086569E-2,-3.4390115E-3,-2.1134724E-3,1.3683184E-2,-2.5304744E-3,-5.8653466E-3,2.047716E-2,-1.8625049E-2,7.684296E-3,-1.5079885E-3,-2.4825674E-3,1.3324147E-4,-5.9540966E-4,5.619573E-4,1.1760223E-3,-5.0756906E-4,1.1324997E-4,-1.021855E-3,9.5308955E-5,-1.9967007E-3,7.1044204E-5,3.6257994E-4,1.1782654E-3,-2.1968306E-4,-1.4773057E-3,1.4393117E-3,-5.1147916E-4,-8.361458E-4,-1.6906535E-3,-1.2102926E-3,7.8126875E-4],"categories":[],"categories_nodes":[],"categories_segments":[],"categories_sizes":[],"default_left":[0,0,0,0,0,0,0,0,0,0,0,0,0,0,0,0,0,0,0,0,0,0,0,0,0,0,0,0,0,0,0,0,0,0,0,0,0,0,0,0,0,0,0,0,0,0,0,0,0,0,0,0,0,0,0,0,0,0,0,0,0,0,0,0,0,0,0,0,0,0,0,0,0,0,0,0,0,0,0,0,0,0,0,0,0,0,0],"id":4,"left_children":[1,3,5,7,9,11,13,15,-1,-1,17,19,21,23,25,-1,-1,-1,27,29,31,33,35,37,-1,39,41,-1,-1,43,-1,-1,45,47,49,51,53,55,57,59,61,63,-1,-1,-1,-1,-1,65,67,69,71,-1,-1,-1,-1,73,75,-1,-1,77,-1,79,81,83,85,-1,-1,-1,-1,-1,-1,-1,-1,-1,-1,-1,-1,-1,-1,-1,-1,-1,-1,-1,-1,-1,-1],"loss_changes":[3.096029E-1,2.704789E-1,3.390053E-1,2.154585E-2,5.4669917E-2,3.4392464E-1,2.2061251E-1,1.2969784E-3,0E0,0E0,1.5294969E-2,5.0065815E-2,1.7468822E-1,1.4072755E-1,1.9778934E-1,0E0,0E0,0E0,3.1426847E-2,3.643006E-2,3.2350034E-2,8.344737E-2,4.018575E-2,1.4858723E-1,0E0,3.8504448E-2,6.791651E-2,0E0,0E0,3.6216378E-3,0E0,0E0,2.3082793E-3,2.2689752E-2,2.6140565E-2,2.0554918E-3,4.813358E-3,7.341161E-2,6.9440603E-3,6.605291E-2,9.830512E-2,4.541526E-2,0E0,0E0,0E0,0E0,0E0,5.210489E-4,2.143417E-3,1.237845E-3,6.823232E-3,0E0,0E0,0E0,0E0,1.9663379E-2,4.1767135E-2,0E0,0E0,2.2623532E-2,0E0,2.5594424E-2,3.202226E-2,1.1233203E-2,1.8280499E-2,0E0,0E0,0E0,0E0,0E0,0E0,0E0,0E0,0E0,0E0,0E0,0E0,0E0,0E0,0E0,0E0,0E0,0E0,0E0,0E0,0E0,0E0],"parents":[2147483647,0,0,1,1,2,2,3,3,4,4,5,5,6,6,7,7,10,10,11,11,12,12,13,13,14,14,18,18,19,19,20,20,21,21,22,22,23,23,25,25,26,26,29,29,32,32,33,33,34,34,35,35,36,36,37,37,38,38,39,39,40,40,41,41,47,47,48,48,49,49,50,50,55,55,56,56,59,59,61,61,62,62,63,63,64,64],"right_children":[2,4,6,8,10,12,14,16,-1,-1,18,20,22,24,26,-1,-1,-1,28,30,32,34,36,38,-1,40,42,-1,-1,44,-1,-1,46,48,50,52,54,56,58,60,62,64,-1,-1,-1,-1,-1,66,68,70,72,-1,-1,-1,-1,74,76,-1,-1,78,-1,80,82,84,86,-1,-1,-1,-1,-1,-1,-1,-1,-1,-1,-1,-1,-1,-1,-1,-1,-1,-1,-1,-1,-1,-1],"split_conditions":[-1.0931273E0,-1.3880134E0,-7.750376E-1,-8.439686E-1,-1.2394304E0,-1.4472684E-1,-3.9969286E-1,-9.3450123E-1,2.992062E-4,1.4725196E-3,-1.3289347E0,-9.4049186E-1,-1.0013397E0,1.0417768E0,4.0572175E-1,-6.2711263E-4,-1.706448E-3,5.579309E-3,-9.285106E-1,-3.6292812E-1,-1.2628256E0,-7.030009E-2,1.917406E-1,-2.9114127E-1,9.682683E-4,-5.9196633E-1,2.7451284E0,3.580014E-3,9.769977E-4,-7.505818E-1,5.4915296E-4,-1.3642922E-3,1.0379801E-1,-2.6878014E-1,-8.296649E-1,-9.482693E-1,5.811327E-1,-4.6809757E-1,-3.4142706E-1,3.5612518E-1,1.3257344E0,2.6799543E0,-2.3933998E-3,2.6709437E-3,4.993027E-3,2.1734345E-3,1.3466234E-3,-2.2657324E-1,-4.073242E-1,-5.388323E-1,3.986678E-5,-0E0,-1.2338305E-3,1.662287E-3,2.9902419E-3,-1.3289347E0,2.514926E0,-3.4390115E-3,-2.1134724E-3,-7.725823E-1,-2.5304744E-3,1.713347E-1,1.5938327E-1,4.8947844E-1,3.295255E-1,-1.5079885E-3,-2.4825674E-3,1.3324147E-4,-5.9540966E-4,5.619573E-4,1.1760223E-3,-5.0756906E-4,1.1324997E-4,-1.021855E-3,9.5308955E-5,-1.9967007E-3,7.1044204E-5,3.6257994E-4,1.1782654E-3,-2.1968306E-4,-1.4773057E-3,1.4393117E-3,-5.1147916E-4,-8.361458E-4,-1.6906535E-3,-1.2102926E-3,7.8126875E-4],"split_indices":[6,4,12,7,6,7,14,3,0,0,5,3,12,4,7,0,0,0,3,7,7,14,3,5,0,7,7,0,0,11,0,0,11,4,3,12,3,8,3,11,11,6,0,0,0,0,0,5,3,4,3,0,0,0,0,5,12,0,0,7,0,4,4,12,3,0,0,0,0,0,0,0,0,0,0,0,0,0,0,0,0,0,0,0,0,0,0],"split_type":[0,0,0,0,0,0,0,0,0,0,0,0,0,0,0,0,0,0,0,0,0,0,0,0,0,0,0,0,0,0,0,0,0,0,0,0,0,0,0,0,0,0,0,0,0,0,0,0,0,0,0,0,0,0,0,0,0,0,0,0,0,0,0,0,0,0,0,0,0,0,0,0,0,0,0,0,0,0,0,0,0,0,0,0,0,0,0],"sum_hessian":[3.538E3,2.56E2,3.282E3,7.9E1,1.77E2,8.33E2,2.449E3,4.9E1,3E1,6.5E1,1.12E2,2.63E2,5.7E2,6.72E2,1.777E3,1.6E1,3.3E1,1.8E1,9.4E1,8.2E1,1.81E2,4.48E2,1.22E2,6.04E2,6.8E1,1.271E3,5.06E2,6.9E1,2.5E1,6.9E1,1.3E1,5E0,1.76E2,1.61E2,2.87E2,1.2E1,1.1E2,4.38E2,1.66E2,4.36E2,8.35E2,4.15E2,9.1E1,3.9E1,3E1,1.1E2,6.6E1,1.12E2,4.9E1,8E1,2.07E2,6E0,6E0,8.3E1,2.7E1,2.07E2,2.31E2,9.5E1,7.1E1,4.23E2,1.3E1,6.62E2,1.73E2,3.38E2,7.7E1,8.5E1,2.7E1,1.4E1,3.5E1,4.6E1,3.4E1,1.16E2,9.1E1,6.4E1,1.43E2,1.97E2,3.4E1,2.27E2,1.96E2,6.15E2,4.7E1,1.46E2,2.7E1,2.75E2,6.3E1,1.1E1,6.6E1],"tree_param":{"num_deleted":"0","num_feature":"19","num_nodes":"87","size_leaf_vector":"1"}},{"base_weights":[-1.7844337E-4,-2.400761E-2,3.2390416E-2,-1.3996633E-2,-3.7637655E-2,1.8758068E-2,5.2525282E-2,-2.270257E-2,2.3759033E-3,3.7709775E-3,-3.996724E-2,5.3634163E-2,1.2350835E-2,8.566392E-2,4.7629625E-2,-1.6553212E-2,-4.086519E-2,2.0273462E-2,-1.5335073E-2,-4.701739E-2,-2.3388013E-2,-1.4726518E-3,3.4601956E-3,3.2309342E-2,8.106395E-3,5.3293225E-3,4.231134E-2,-7.233994E-3,5.0450504E-2,3.619875E-2,-1.8373458E-2,-2.3154346E-3,-1.4804305E-2,3.705132E-2,-2.7595947E-3,-2.31928E-2,9.300737E-3,-3.2011516E-2,-5.45221E-2,-9.745296E-3,-3.090109E-2,4.2077385E-2,7.3014054E-4,5.4619005E-3,4.0619735E-2,4.675723E-4,2.626965E-3,2.817023E-4,-6.6995027E-4,3.973002E-2,6.423155E-2,-1.034223E-3,3.915485E-3,-3.3899393E-2,-1.3469345E-2,-1.2544849E-3,1.5835131E-4,1.7762037E-2,4.355485E-2,1.6124161E-2,-1.643148E-2,1.061063E-2,-2.7926411E-2,-1.1598215E-2,2.026959E-3,-3.5746016E-2,2.3615768E-3,7.4503245E-4,-5.5872083E-2,-1.521043E-2,1.3987171E-2,-2.5297794E-3,-2.1748405E-2,3.779705E-3,2.815609E-2,-7.935821E-3,1.098986E-3,-2.3568007E-3,1.383941E-2,-2.6537894E-4,2.723364E-3,8.8943104E-4,4.175496E-2,2.6446886E-3,4.0233517E-3,-2.2393756E-3,-6.9969945E-4,-4.4662342E-4,-1.6500306E-3,1.5335252E-3,5.9089005E-5,7.6465483E-4,2.671175E-3,1.0963679E-4,1.2020927E-3,-1.6650219E-3,-5.586349E-4,-2.6658354E-5,7.522367E-4,-8.977461E-4,-2.1301678E-3,-9.1874367E-4,5.0486856E-6,-1.3800862E-3,-2.273911E-3,-9.932431E-4,9.6923776E-4,-2.6713368E-3,-3.8077717E-3,3.2890638E-4,-9.3592517E-4,9.002237E-5,1.0321984E-3,-3.153255E-4,-1.3587411E-3,8.4548054E-4,2.282311E-3,-6.9824717E-4,1.0565586E-4,-3.063829E-4,1.1377563E-3,8.409646E-4,-1.2409666E-3,2.3598466E-3,7.7913806E-4],"categories":[],"categories_nodes":[],"categories_segments":[],"categories_sizes":[],"default_left":[0,0,0,0,0,0,0,0,0,0,0,0,0,0,0,0,0,0,0,0,0,0,0,0,0,0,0,0,0,0,0,0,0,0,0,0,0,0,0,0,0,0,0,0,0,0,0,0,0,0,0,0,0,0,0,0,0,0,0,0,0,0,0,0,0,0,0,0,0,0,0,0,0,0,0,0,0,0,0,0,0,0,0,0,0,0,0,0,0,0,0,0,0,0,0,0,0,0,0,0,0,0,0,0,0,0,0,0,0,0,0,0,0,0,0,0,0,0,0,0,0,0,0,0,0],"id":5,"left_children":[1,3,5,7,9,11,13,15,17,-1,19,21,23,25,27,29,31,33,35,37,39,-1,-1,41,43,-1,45,47,49,51,53,-1,55,57,59,61,63,65,67,69,71,73,75,77,79,-1,-1,-1,-1,81,83,-1,-1,85,87,-1,-1,89,91,93,95,97,99,101,-1,103,105,-1,107,109,111,-1,113,-1,115,117,-1,119,121,-1,-1,-1,123,-1,-1,-1,-1,-1,-1,-1,-1,-1,-1,-1,-1,-1,-1,-1,-1,-1,-1,-1,-1,-1,-1,-1,-1,-1,-1,-1,-1,-1,-1,-1,-1,-1,-1,-1,-1,-1,-1,-1,-1,-1,-1],"loss_changes":[2.6995292E0,2.7060258E-1,3.9689195E-1,1.669796E-1,2.2758889E-1,1.9378465E-1,6.8773866E-2,8.0837935E-2,1.326111E-1,0E0,9.0052605E-2,1.12011254E-1,6.2470354E-2,5.6912005E-3,8.429575E-2,6.03074E-2,1.8095672E-3,8.099276E-2,4.225201E-2,5.3523064E-2,2.4819016E-2,0E0,0E0,4.005429E-2,5.305202E-2,0E0,1.9842722E-3,2.3739995E-3,5.7570934E-2,5.0537053E-2,4.01427E-2,0E0,3.1137834E-3,1.0008991E-2,2.5988538E-2,2.7873322E-2,3.494089E-2,2.7391732E-2,3.959191E-2,1.4761483E-2,1.6252816E-2,2.4149954E-2,7.3988326E-3,3.913846E-2,2.0445742E-2,0E0,0E0,0E0,0E0,9.86594E-3,6.9140196E-3,0E0,0E0,1.550971E-2,3.7450366E-2,0E0,0E0,6.8088984E-3,8.176193E-3,3.1455457E-3,2.9841159E-3,9.043007E-4,1.3813905E-2,2.2250903E-3,0E0,4.373759E-3,1.0460641E-2,0E0,1.3936281E-2,4.0016603E-3,1.1191797E-3,0E0,4.4985823E-3,0E0,8.846473E-3,1.6246126E-3,0E0,2.391754E-2,1.7422128E-2,0E0,0E0,0E0,4.446149E-3,0E0,0E0,0E0,0E0,0E0,0E0,0E0,0E0,0E0,0E0,0E0,0E0,0E0,0E0,0E0,0E0,0E0,0E0,0E0,0E0,0E0,0E0,0E0,0E0,0E0,0E0,0E0,0E0,0E0,0E0,0E0,0E0,0E0,0E0,0E0,0E0,0E0,0E0,0E0,0E0,0E0,0E0],"parents":[2147483647,0,0,1,1,2,2,3,3,4,4,5,5,6,6,7,7,8,8,10,10,11,11,12,12,13,13,14,14,15,15,16,16,17,17,18,18,19,19,20,20,23,23,24,24,26,26,27,27,28,28,29,29,30,30,32,32,33,33,34,34,35,35,36,36,37,37,38,38,39,39,40,40,41,41,42,42,43,43,44,44,49,49,50,50,53,53,54,54,57,57,58,58,59,59,60,60,61,61,62,62,63,63,65,65,66,66,68,68,69,69,70,70,72,72,74,74,75,75,77,77,78,78,82,82],"right_children":[2,4,6,8,10,12,14,16,18,-1,20,22,24,26,28,30,32,34,36,38,40,-1,-1,42,44,-1,46,48,50,52,54,-1,56,58,60,62,64,66,68,70,72,74,76,78,80,-1,-1,-1,-1,82,84,-1,-1,86,88,-1,-1,90,92,94,96,98,100,102,-1,104,106,-1,108,110,112,-1,114,-1,116,118,-1,120,122,-1,-1,-1,124,-1,-1,-1,-1,-1,-1,-1,-1,-1,-1,-1,-1,-1,-1,-1,-1,-1,-1,-1,-1,-1,-1,-1,-1,-1,-1,-1,-1,-1,-1,-1,-1,-1,-1,-1,-1,-1,-1,-1,-1,-1,-1],"split_conditions":[-2.0075703E-2,-1.4662482E-1,9.4246846E-1,-5.5405E-1,-9.206493E-1,-9.6467036E-1,-9.6467036E-1,-4.3897495E-2,-5.9902495E-1,3.7709775E-3,-4.4336155E-1,-1.6489815E0,-7.6673955E-1,-2.8973526E-1,-1.2547731E0,-1.3571302E0,-5.8734715E-1,-3.0345803E-1,-8.593572E-2,-7.4646556E-1,-7.3712593E-1,-1.4726518E-3,3.4601956E-3,-4.4476125E-1,1.3807034E0,5.3293225E-3,1.3692423E0,1.0945015E0,1.7034179E0,-1.0913215E0,-8.6665225E-1,-2.3154346E-3,-4.2358586E-1,-2.9114127E-1,-2.0919885E-1,-3.7737095E-1,-4.189467E-2,8.080989E-1,-8.8271964E-1,1.7247355E0,-1.0612804E-1,4.5781973E-1,7.12927E-1,4.224917E-1,-1.4683436E0,4.675723E-4,2.626965E-3,2.817023E-4,-6.6995027E-4,-1.4257344E0,5.9946347E-2,-1.034223E-3,3.915485E-3,-2.6354864E-1,-8.9819856E-2,-1.2544849E-3,1.5835131E-4,-4.783765E-1,-1.3756621E0,-4.1039053E-1,-5.388323E-1,-4.7515506E-1,-2.3492748E-1,-3.4810635E-1,2.026959E-3,8.722088E-2,-1.0756103E0,7.4503245E-4,8.0844516E-1,-8.3447313E-1,4.6131977E-1,-2.5297794E-3,-4.19367E-1,3.779705E-3,1.7247355E0,3.370248E-1,1.098986E-3,2.1533864E0,3.013336E0,-2.6537894E-4,2.723364E-3,8.8943104E-4,2.011645E0,2.6446886E-3,4.0233517E-3,-2.2393756E-3,-6.9969945E-4,-4.4662342E-4,-1.6500306E-3,1.5335252E-3,5.9089005E-5,7.6465483E-4,2.671175E-3,1.0963679E-4,1.2020927E-3,-1.6650219E-3,-5.586349E-4,-2.6658354E-5,7.522367E-4,-8.977461E-4,-2.1301678E-3,-9.1874367E-4,5.0486856E-6,-1.3800862E-3,-2.273911E-3,-9.932431E-4,9.6923776E-4,-2.6713368E-3,-3.8077717E-3,3.2890638E-4,-9.3592517E-4,9.002237E-5,1.0321984E-3,-3.153255E-4,-1.3587411E-3,8.4548054E-4,2.282311E-3,-6.9824717E-4,1.0565586E-4,-3.063829E-4,1.1377563E-3,8.409646E-4,-1.2409666E-3,2.3598466E-3,7.7913806E-4],"split_indices":[18,1,18,18,4,16,16,11,3,0,18,16,8,8,1,18,18,11,4,8,8,0,0,11,8,0,18,18,18,16,11,0,13,5,5,3,3,16,16,1,8,1,3,18,1,0,0,0,0,3,3,0,0,3,3,0,0,5,1,18,4,18,5,1,0,5,18,0,16,4,3,0,16,0,1,18,0,4,3,0,0,0,1,0,0,0,0,0,0,0,0,0,0,0,0,0,0,0,0,0,0,0,0,0,0,0,0,0,0,0,0,0,0,0,0,0,0,0,0,0,0,0,0,0,0],"split_type":[0,0,0,0,0,0,0,0,0,0,0,0,0,0,0,0,0,0,0,0,0,0,0,0,0,0,0,0,0,0,0,0,0,0,0,0,0,0,0,0,0,0,0,0,0,0,0,0,0,0,0,0,0,0,0,0,0,0,0,0,0,0,0,0,0,0,0,0,0,0,0,0,0,0,0,0,0,0,0,0,0,0,0,0,0,0,0,0,0,0,0,0,0,0,0,0,0,0,0,0,0,0,0,0,0,0,0,0,0,0,0,0,0,0,0,0,0,0,0,0,0,0,0,0,0],"sum_hessian":[3.465E3,2.002E3,1.463E3,1.162E3,8.4E2,8.8E2,5.83E2,7.57E2,4.05E2,1.4E1,8.26E2,1.29E2,7.51E2,6.1E1,5.22E2,5.75E2,1.82E2,2.01E2,2.04E2,5.71E2,2.55E2,1.2E1,1.17E2,1.24E2,6.27E2,4.2E1,1.9E1,2.5E1,4.97E2,1.5E1,5.6E2,1.7E2,1.2E1,1.14E2,8.7E1,1.55E2,4.9E1,2.02E2,3.69E2,9.6E1,1.59E2,9.3E1,3.1E1,5.87E2,4E1,5E0,1.4E1,7E0,1.8E1,2.94E2,2.03E2,7E0,8E0,1.25E2,4.35E2,7E0,5E0,3.5E1,7.9E1,3.6E1,5.1E1,1.8E1,1.37E2,3E1,1.9E1,1.82E2,2E1,6E0,3.63E2,8E1,1.6E1,5E1,1.09E2,2.3E1,7E1,2.4E1,7E0,3.06E2,2.81E2,7E0,3.3E1,2.8E1,2.66E2,8.7E1,1.16E2,9E1,3.5E1,3.36E2,9.9E1,1.9E1,1.6E1,1.5E1,6.4E1,1.3E1,2.3E1,8E0,4.3E1,5E0,1.3E1,7.4E1,6.3E1,1.9E1,1.1E1,7.5E1,1.07E2,8E0,1.2E1,2.54E2,1.09E2,5E0,7.5E1,7E0,9E0,2E1,8.9E1,4.3E1,2.7E1,1.5E1,9E0,2.73E2,3.3E1,2.74E2,7E0,2.52E2,1.4E1],"tree_param":{"num_deleted":"0","num_feature":"19","num_nodes":"125","size_leaf_vector":"1"}},{"base_weights":[-5.706773E-4,4.081152E-3,-1.566311E-2,9.843253E-3,-1.4337292E-2,-2.0805866E-2,4.206584E-3,-2.672616E-2,1.1613426E-2,-2.145085E-2,1.1358955E-2,-2.9066356E-2,-1.1159787E-2,6.3207517E-3,-1.0171292E-3,-2.6521794E-3,-9.345089E-3,9.345654E-3,6.3702635E-2,3.4877853E-4,-2.4595132E-2,2.1899682E-2,-1.2399121E-4,-1.9136434E-2,-3.5529107E-2,2.8311794E-3,-1.5026338E-2,-1.1789996E-4,8.080636E-3,-1.3121373E-2,6.6666864E-4,4.9485858E-3,2.4080291E-2,7.306626E-2,-3.3803456E-4,-2.5916696E-3,-2.111633E-2,1.4710631E-3,5.8691617E-4,8.083019E-4,-2.4101088E-2,-3.7203062E-2,-6.732611E-4,-7.542289E-4,1.3225108E-2,-6.4603416E-3,-2.6129723E-2,3.2778553E-4,6.275589E-4,-2.2672539E-4,-9.175772E-4,3.252032E-3,3.1486452E-3,-2.2884936E-3,2.6615117E-2,2.3099484E-3,5.1608887E-3,-2.5848595E-2,-1.155146E-2,-3.8442697E-4,-2.6155137E-2,-1.4026226E-3,-2.277362E-3,-1.8839699E-5,1.4062488E-3,-8.731951E-4,-7.9562684E-4,-1.6613248E-3,-8.93315E-3,-1.7356126E-3,3.343772E-4,2.1671199E-3,9.0329174E-4,-1.4853858E-3,1.11760266E-4,-6.5314045E-5,-1.1794703E-3,-2.4183771E-4,-1.5108787E-3,3.8901318E-4,-3.3678926E-4,-6.009919E-4,1.4039861E-5],"categories":[],"categories_nodes":[],"categories_segments":[],"categories_sizes":[],"default_left":[0,0,0,0,0,0,0,0,0,0,0,0,0,0,0,0,0,0,0,0,0,0,0,0,0,0,0,0,0,0,0,0,0,0,0,0,0,0,0,0,0,0,0,0,0,0,0,0,0,0,0,0,0,0,0,0,0,0,0,0,0,0,0,0,0,0,0,0,0,0,0,0,0,0,0,0,0,0,0,0,0,0,0],"id":6,"left_children":[1,3,5,7,9,11,13,15,17,19,21,23,25,27,-1,-1,29,31,33,-1,35,37,-1,39,41,43,45,-1,47,49,-1,51,53,55,-1,-1,57,-1,-1,-1,59,61,-1,-1,63,65,67,-1,-1,-1,-1,-1,69,-1,71,-1,-1,73,75,-1,77,-1,-1,-1,-1,79,-1,-1,81,-1,-1,-1,-1,-1,-1,-1,-1,-1,-1,-1,-1,-1,-1],"loss_changes":[2.4667437E-1,2.8599596E-1,8.5190356E-2,1.3477984E-1,1.1912863E-1,5.033624E-2,9.231025E-3,3.3079557E-2,2.2761622E-1,4.525271E-2,2.0986607E-2,1.8009901E-2,1.7331917E-2,2.598159E-3,0E0,0E0,6.0820584E-3,1.2139346E-1,5.5796236E-2,0E0,2.9125541E-2,2.5407933E-3,0E0,2.802265E-2,4.94805E-3,1.39066E-2,2.2438977E-2,0E0,5.3181406E-4,1.3178354E-3,0E0,1.4119107E-1,7.9235375E-2,2.0132631E-2,0E0,0E0,1.6428113E-2,0E0,0E0,0E0,3.5425052E-3,2.2203326E-3,0E0,0E0,8.251112E-3,6.559741E-3,5.576223E-3,0E0,0E0,0E0,0E0,0E0,1.455861E-1,0E0,5.037743E-2,0E0,0E0,8.902073E-3,1.4846042E-2,0E0,2.5339648E-3,0E0,0E0,0E0,0E0,4.2576524E-3,0E0,0E0,5.783113E-4,0E0,0E0,0E0,0E0,0E0,0E0,0E0,0E0,0E0,0E0,0E0,0E0,0E0,0E0],"parents":[2147483647,0,0,1,1,2,2,3,3,4,4,5,5,6,6,7,7,8,8,9,9,10,10,11,11,12,12,13,13,16,16,17,17,18,18,20,20,21,21,23,23,24,24,25,25,26,26,28,28,29,29,31,31,32,32,33,33,36,36,40,40,41,41,44,44,45,45,46,46,52,52,54,54,57,57,58,58,60,60,65,65,68,68],"right_children":[2,4,6,8,10,12,14,16,18,20,22,24,26,28,-1,-1,30,32,34,-1,36,38,-1,40,42,44,46,-1,48,50,-1,52,54,56,-1,-1,58,-1,-1,-1,60,62,-1,-1,64,66,68,-1,-1,-1,-1,-1,70,-1,72,-1,-1,74,76,-1,78,-1,-1,-1,-1,80,-1,-1,82,-1,-1,-1,-1,-1,-1,-1,-1,-1,-1,-1,-1,-1,-1],"split_conditions":[6.035392E-1,7.1712905E-1,2.4841104E-1,-1.6966013E0,4.0919572E-1,1.6944781E-1,1.8033671E0,2.96964E-2,1.809209E0,-1.5395101E0,-1.1109664E-1,-2.2704504E-1,-7.8608763E-1,-7.7917296E-1,-1.0171292E-3,-2.6521794E-3,1.3107723E-1,5.4799736E-1,-2.7211142E-1,3.4877853E-4,-7.0377624E-1,1.9147027E-1,-1.2399121E-4,1.9147027E-1,2.4616075E0,-9.0134484E-1,3.3928385E-1,-1.1789996E-4,1.9147027E-1,-1.706484E0,6.6666864E-4,-1.0846629E0,-1.8723611E0,-7.505818E-1,-3.3803456E-4,-2.5916696E-3,-9.250535E-1,1.4710631E-3,5.8691617E-4,8.083019E-4,-6.9174534E-1,-6.0425067E-1,-6.732611E-4,-7.542289E-4,-9.348173E-2,-1.17858246E-1,5.9265494E-1,3.2778553E-4,6.275589E-4,-2.2672539E-4,-9.175772E-4,3.252032E-3,-9.876013E-1,-2.2884936E-3,-3.683466E-1,2.3099484E-3,5.1608887E-3,1.4427396E0,1.4421163E0,-3.8442697E-4,1.9083442E-1,-1.4026226E-3,-2.277362E-3,-1.8839699E-5,1.4062488E-3,2.2382504E-1,-7.9562684E-4,-1.6613248E-3,1.2430004E0,-1.7356126E-3,3.343772E-4,2.1671199E-3,9.0329174E-4,-1.4853858E-3,1.11760266E-4,-6.5314045E-5,-1.1794703E-3,-2.4183771E-4,-1.5108787E-3,3.8901318E-4,-3.3678926E-4,-6.009919E-4,1.4039861E-5],"split_indices":[7,17,10,17,14,14,9,0,0,0,4,10,10,0,0,0,4,9,9,0,7,0,0,0,4,16,4,0,0,16,0,11,4,11,0,0,14,0,0,0,17,4,0,0,9,10,14,0,0,0,0,0,7,0,7,0,0,16,16,0,4,0,0,0,0,0,0,0,0,0,0,0,0,0,0,0,0,0,0,0,0,0,0],"split_type":[0,0,0,0,0,0,0,0,0,0,0,0,0,0,0,0,0,0,0,0,0,0,0,0,0,0,0,0,0,0,0,0,0,0,0,0,0,0,0,0,0,0,0,0,0,0,0,0,0,0,0,0,0,0,0,0,0,0,0,0,0,0,0,0,0,0,0,0,0,0,0,0,0,0,0,0,0,0,0,0,0,0,0],"sum_hessian":[3.5E3,2.679E3,8.21E2,2.043E3,6.36E2,6.52E2,1.69E2,9E1,1.953E3,4.99E2,1.37E2,3.44E2,3.08E2,1.59E2,1E1,3.5E1,5.5E1,1.879E3,7.4E1,5E1,4.49E2,7.5E1,6.2E1,1.46E2,1.98E2,6.7E1,2.41E2,2.7E1,1.32E2,4.9E1,6E0,1.454E3,4.25E2,6.5E1,9E0,4.9E1,4E2,4.6E1,2.9E1,1.7E1,1.29E2,1.81E2,1.7E1,2.5E1,4.2E1,1.42E2,9.9E1,9.2E1,4E1,1.8E1,3.1E1,4E1,1.414E3,1.2E1,4.13E2,3.4E1,3.1E1,2.6E2,1.4E2,1.7E1,1.12E2,6E1,1.21E2,2.3E1,1.9E1,8.8E1,5.4E1,7.6E1,2.3E1,1.05E2,1.309E3,1.75E2,2.38E2,2.5E2,1E1,7.2E1,6.8E1,8E0,1.04E2,3.4E1,5.4E1,1.8E1,5E0],"tree_param":{"num_deleted":"0","num_feature":"19","num_nodes":"83","size_leaf_vector":"1"}},{"base_weights":[3.3189508E-4,-2.1631632E-2,3.0258013E-2,-1.282332E-2,-3.2837134E-2,1.9670915E-2,5.2942738E-2,-4.1524E-3,-2.6557203E-2,3.7414492E-3,-3.534273E-2,4.318183E-2,1.4235749E-2,-4.642245E-4,5.4553147E-2,-1.4815715E-2,1.3203025E-2,-3.029635E-2,6.041185E-3,-9.446582E-3,-4.005369E-2,5.499255E-2,7.9350884E-4,2.7470512E-2,4.320822E-3,1.0817672E-2,5.725349E-2,-2.0301253E-2,1.29126E-2,2.4516273E-2,-2.7449662E-3,-3.5008084E-2,-1.3795953E-2,-1.7054666E-2,2.6272884E-2,-1.6054144E-2,1.4908405E-2,-4.6003696E-2,-2.3101546E-2,4.7882926E-3,4.6353407E-2,-1.3306281E-2,1.4238863E-2,4.937334E-3,3.599912E-2,-1.5590254E-3,7.836436E-3,9.195276E-4,1.1617109E-3,5.204778E-2,4.3266253E-3,-2.6688864E-2,-1.0376356E-2,3.8666034E-3,-6.0788644E-3,1.2936883E-2,4.1532867E-2,-1.690861E-2,1.9183075E-2,-3.9175376E-2,-5.8240406E-3,1.6682652E-3,-1.9912602E-2,2.6828225E-3,-1.7213087E-3,6.049406E-4,1.8597613E-3,-1.9398382E-2,8.022065E-3,-1.6213019E-4,1.2262571E-3,-5.87373E-2,-4.0284697E-2,-2.724521E-2,-1.0677846E-2,2.9134068E-3,1.676804E-3,-9.3015685E-4,-1.443712E-4,-5.9312726E-5,1.0390971E-3,1.2519603E-2,-1.0697779E-3,1.8794708E-2,4.68327E-2,1.685771E-3,2.1141965E-2,-1.9814249E-4,3.9689327E-4,4.098797E-2,5.748686E-2,-1.031659E-3,-2.0422125E-3,-1.0352391E-3,5.574352E-4,7.5071026E-4,-5.810123E-4,-1.3807173E-4,1.1916817E-3,2.5433586E-3,4.4498185E-4,-1.3370371E-3,-4.0681448E-4,-3.460011E-4,1.516065E-3,-2.3923195E-3,-9.334325E-4,9.4537885E-4,-9.0526737E-4,-1.649512E-3,-6.604146E-5,-2.0921722E-4,4.044112E-4,-1.3516827E-3,-4.7676254E-4,-1.925964E-4,9.397837E-4,-3.4119221E-3,-1.1140808E-3,-2.411355E-3,-1.786824E-3,-1.8293237E-3,-8.725551E-4,5.3541537E-4,-7.9756364E-4,1.6689316E-3,2.5771454E-4,-8.3536934E-4,1.4094983E-3,3.0850812E-3,1.1397045E-3,-5.7803397E-4,5.779351E-4,4.0009464E-4,2.0330644E-3,1.5855118E-3,2.6148348E-3,3.2998621E-3,1.5762509E-3],"categories":[],"categories_nodes":[],"categories_segments":[],"categories_sizes":[],"default_left":[0,0,0,0,0,0,0,0,0,0,0,0,0,0,0,0,0,0,0,0,0,0,0,0,0,0,0,0,0,0,0,0,0,0,0,0,0,0,0,0,0,0,0,0,0,0,0,0,0,0,0,0,0,0,0,0,0,0,0,0,0,0,0,0,0,0,0,0,0,0,0,0,0,0,0,0,0,0,0,0,0,0,0,0,0,0,0,0,0,0,0,0,0,0,0,0,0,0,0,0,0,0,0,0,0,0,0,0,0,0,0,0,0,0,0,0,0,0,0,0,0,0,0,0,0,0,0,0,0,0,0,0,0,0,0,0,0,0,0],"id":7,"left_children":[1,3,5,7,9,11,13,15,17,-1,19,21,23,-1,25,27,29,31,33,35,37,39,41,43,45,47,49,51,53,55,57,59,61,63,65,67,69,71,73,-1,75,77,79,81,83,-1,85,87,-1,89,-1,91,93,-1,95,97,99,101,103,105,107,-1,109,111,-1,-1,-1,113,115,-1,-1,117,119,121,123,-1,-1,-1,-1,-1,-1,125,-1,127,129,131,133,-1,-1,135,137,-1,-1,-1,-1,-1,-1,-1,-1,-1,-1,-1,-1,-1,-1,-1,-1,-1,-1,-1,-1,-1,-1,-1,-1,-1,-1,-1,-1,-1,-1,-1,-1,-1,-1,-1,-1,-1,-1,-1,-1,-1,-1,-1,-1,-1,-1,-1,-1],"loss_changes":[2.2915404E0,1.9567424E-1,3.4753275E-1,1.346311E-1,2.3845476E-1,1.2587434E-1,4.9141645E-2,1.3175043E-1,5.472374E-2,0E0,1.028322E-1,9.3590915E-2,1.0886966E-1,0E0,4.9550533E-2,6.865028E-2,4.9509946E-2,2.7477056E-2,2.6704792E-2,2.4421887E-2,6.64655E-2,1.3975441E-2,1.0342425E-2,6.733918E-2,5.726086E-2,3.3971532E-3,2.0481944E-2,2.159974E-2,8.648843E-2,2.7909696E-2,3.905564E-2,3.5264432E-2,3.0664558E-2,8.381178E-3,9.4133243E-4,1.0296939E-2,4.907966E-3,2.3185372E-2,8.49995E-3,0E0,2.9083788E-3,7.2029047E-4,2.1342812E-3,2.1183474E-2,4.2197764E-2,0E0,3.607701E-2,9.007554E-4,0E0,6.2614083E-3,0E0,1.3672069E-2,2.8231604E-2,0E0,6.6101006E-3,1.4496526E-2,7.149674E-3,4.127132E-3,1.1776388E-2,2.0276606E-2,1.3079971E-2,0E0,1.680997E-2,7.428506E-4,0E0,0E0,0E0,4.276734E-3,2.3839048E-3,0E0,0E0,1.0594666E-2,1.3413429E-3,6.5972283E-3,5.7668514E-3,0E0,0E0,0E0,0E0,0E0,0E0,1.0881396E-2,0E0,2.8255071E-2,2.934882E-2,3.415669E-2,2.8831061E-2,0E0,0E0,2.297163E-3,4.8310757E-3,0E0,0E0,0E0,0E0,0E0,0E0,0E0,0E0,0E0,0E0,0E0,0E0,0E0,0E0,0E0,0E0,0E0,0E0,0E0,0E0,0E0,0E0,0E0,0E0,0E0,0E0,0E0,0E0,0E0,0E0,0E0,0E0,0E0,0E0,0E0,0E0,0E0,0E0,0E0,0E0,0E0,0E0,0E0,0E0,0E0,0E0,0E0,0E0],"parents":[2147483647,0,0,1,1,2,2,3,3,4,4,5,5,6,6,7,7,8,8,10,10,11,11,12,12,14,14,15,15,16,16,17,17,18,18,19,19,20,20,21,21,22,22,23,23,24,24,25,25,26,26,27,27,28,28,29,29,30,30,31,31,32,32,33,33,34,34,35,35,36,36,37,37,38,38,40,40,41,41,42,42,43,43,44,44,46,46,47,47,49,49,51,51,52,52,54,54,55,55,56,56,57,57,58,58,59,59,60,60,62,62,63,63,67,67,68,68,71,71,72,72,73,73,74,74,81,81,83,83,84,84,85,85,86,86,89,89,90,90],"right_children":[2,4,6,8,10,12,14,16,18,-1,20,22,24,-1,26,28,30,32,34,36,38,40,42,44,46,48,50,52,54,56,58,60,62,64,66,68,70,72,74,-1,76,78,80,82,84,-1,86,88,-1,90,-1,92,94,-1,96,98,100,102,104,106,108,-1,110,112,-1,-1,-1,114,116,-1,-1,118,120,122,124,-1,-1,-1,-1,-1,-1,126,-1,128,130,132,134,-1,-1,136,138,-1,-1,-1,-1,-1,-1,-1,-1,-1,-1,-1,-1,-1,-1,-1,-1,-1,-1,-1,-1,-1,-1,-1,-1,-1,-1,-1,-1,-1,-1,-1,-1,-1,-1,-1,-1,-1,-1,-1,-1,-1,-1,-1,-1,-1,-1,-1,-1],"split_conditions":[-2.0075703E-2,-1.4662482E-1,1.194251E0,-3.7737095E-1,-1.0931273E0,-5.9196633E-1,-1.7276877E0,-6.10768E-1,1.7817017E-1,3.7414492E-3,-9.482693E-1,4.5781973E-1,-1.4952056E-1,-4.642245E-4,-1.4257344E0,-3.8935226E-1,-1.860105E-1,2.96964E-2,-7.000646E-1,-2.7732885E-1,-3.750644E-1,-7.1393484E-1,1.2430004E0,-1.9220781E-1,-1.7276877E0,7.441412E-1,1.9585265E-1,-8.931806E-1,-1.2923656E0,-1.883576E-2,-5.0937794E-3,2.514926E0,-2.335954E-1,-1.1231061E0,-2.9385135E-1,1.0003396E0,3.3551615E-1,-1.3207747E-1,-1.919868E-1,4.7882926E-3,-7.84735E-1,3.0473801E-1,1.7837788E-1,-1.8632403E-1,-2.284867E-1,-1.5590254E-3,4.1349134E-1,2.1896107E0,1.1617109E-3,1.6110773E0,4.3266253E-3,-2.0804718E-1,-1.883576E-2,3.8666034E-3,-2.292981E-1,-4.351188E-1,-6.7091274E-1,1.6254766E0,-5.128362E-1,-2.2669478E-1,-1.077918E-1,1.6682652E-3,-6.882222E-1,-2.9385135E-1,-1.7213087E-3,6.049406E-4,1.8597613E-3,-5.8734715E-1,-1.0512233E0,-1.6213019E-4,1.2262571E-3,-7.020388E-2,-2.1418881E-1,7.237063E-1,-2.631143E-1,2.9134068E-3,1.676804E-3,-9.3015685E-4,-1.443712E-4,-5.9312726E-5,1.0390971E-3,-3.683466E-1,-1.0697779E-3,-4.8511377E-1,5.044585E-1,4.7276208E-1,-3.7737095E-1,-1.9814249E-4,3.9689327E-4,-1.9220781E-1,2.011645E0,-1.031659E-3,-2.0422125E-3,-1.0352391E-3,5.574352E-4,7.5071026E-4,-5.810123E-4,-1.3807173E-4,1.1916817E-3,2.5433586E-3,4.4498185E-4,-1.3370371E-3,-4.0681448E-4,-3.460011E-4,1.516065E-3,-2.3923195E-3,-9.334325E-4,9.4537885E-4,-9.0526737E-4,-1.649512E-3,-6.604146E-5,-2.0921722E-4,4.044112E-4,-1.3516827E-3,-4.7676254E-4,-1.925964E-4,9.397837E-4,-3.4119221E-3,-1.1140808E-3,-2.411355E-3,-1.786824E-3,-1.8293237E-3,-8.725551E-4,5.3541537E-4,-7.9756364E-4,1.6689316E-3,2.5771454E-4,-8.3536934E-4,1.4094983E-3,3.0850812E-3,1.1397045E-3,-5.7803397E-4,5.779351E-4,4.0009464E-4,2.0330644E-3,1.5855118E-3,2.6148348E-3,3.2998621E-3,1.5762509E-3],"split_indices":[18,1,18,3,6,7,14,18,6,0,12,1,12,0,3,3,7,0,18,18,18,12,0,6,14,12,12,18,18,0,6,12,3,14,0,0,3,0,15,0,3,18,18,15,15,0,12,18,0,18,0,15,0,0,15,18,3,12,18,18,3,0,18,0,0,0,0,18,18,0,0,15,15,0,0,0,0,0,0,0,0,7,0,1,7,18,3,0,0,6,1,0,0,0,0,0,0,0,0,0,0,0,0,0,0,0,0,0,0,0,0,0,0,0,0,0,0,0,0,0,0,0,0,0,0,0,0,0,0,0,0,0,0,0,0,0,0,0,0],"split_type":[0,0,0,0,0,0,0,0,0,0,0,0,0,0,0,0,0,0,0,0,0,0,0,0,0,0,0,0,0,0,0,0,0,0,0,0,0,0,0,0,0,0,0,0,0,0,0,0,0,0,0,0,0,0,0,0,0,0,0,0,0,0,0,0,0,0,0,0,0,0,0,0,0,0,0,0,0,0,0,0,0,0,0,0,0,0,0,0,0,0,0,0,0,0,0,0,0,0,0,0,0,0,0,0,0,0,0,0,0,0,0,0,0,0,0,0,0,0,0,0,0,0,0,0,0,0,0,0,0,0,0,0,0,0,0,0,0,0,0],"sum_hessian":[3.473E3,2.004E3,1.469E3,1.13E3,8.74E2,1.01E3,4.59E2,6.98E2,4.32E2,1.7E1,8.57E2,1.81E2,8.29E2,1.1E1,4.48E2,4.33E2,2.65E2,3.88E2,4.4E1,1.35E2,7.22E2,1.4E2,4.1E1,3.5E2,4.79E2,2.8E1,4.2E2,3.63E2,7E1,1.53E2,1.12E2,2.96E2,9.2E1,2.1E1,2.3E1,1.08E2,2.7E1,5.26E2,1.96E2,1.7E1,1.23E2,2E1,2.1E1,9.9E1,2.51E2,4.2E1,4.37E2,1.8E1,1E1,3.56E2,6.4E1,2.14E2,1.49E2,1.3E1,5.7E1,9.8E1,5.5E1,6.9E1,4.3E1,2.57E2,3.9E1,8E0,8.4E1,1.1E1,1E1,1.3E1,1E1,9.6E1,1.2E1,9E0,1.8E1,1.44E2,3.82E2,1.41E2,5.5E1,7.6E1,4.7E1,1.2E1,8E0,6E0,1.5E1,7.8E1,2.1E1,1.04E2,1.47E2,3.04E2,1.33E2,1.2E1,6E0,1.36E2,2.2E2,1.32E2,8.2E1,1.06E2,4.3E1,8E0,4.9E1,3.7E1,6.1E1,4.6E1,9E0,3.3E1,3.6E1,1.1E1,3.2E1,2.1E2,4.7E1,1.1E1,2.8E1,5.2E1,3.2E1,5E0,6E0,5.9E1,3.7E1,7E0,5E0,1.29E2,1.5E1,2.42E2,1.4E2,8.4E1,5.7E1,7E0,4.8E1,1.8E1,6E1,1.6E1,8.8E1,1.03E2,4.4E1,1.27E2,1.77E2,7.6E1,5.7E1,6E1,7.6E1,1.96E2,2.4E1],"tree_param":{"num_deleted":"0","num_feature":"19","num_nodes":"139","size_leaf_vector":"1"}},{"base_weights":[-5.6155084E-4,-1.9455573E-2,3.1290926E-2,-2.7831126E-2,-4.8445608E-3,2.0575497E-2,4.6508577E-2,-1.8571606E-2,-4.0894303E-2,8.80007E-3,-1.720485E-2,5.4148518E-2,1.4277242E-2,5.090275E-2,1.6726073E-2,-1.2011944E-2,-3.229912E-2,-2.5164181E-2,-4.5028195E-2,3.4550514E-2,2.9953252E-4,1.231519E-2,-2.097961E-2,-9.797701E-3,3.3660778E-3,1.6590297E-2,-1.5299648E-2,-9.334387E-5,5.1973864E-2,1.3939649E-3,-5.7000667E-4,-2.1021672E-2,3.6587631E-3,2.2539617E-4,-3.600676E-2,-1.1945121E-3,-3.0818658E-2,4.0618266E-4,-4.573475E-2,2.8863112E-3,1.1413949E-2,8.693899E-3,-7.936478E-3,2.4196729E-2,-1.4320902E-3,-1.6587626E-2,-2.3828116E-3,-8.303146E-4,7.774065E-5,1.9781608E-2,1.6928168E-3,-1.4431281E-3,2.3318371E-5,4.187262E-3,4.808625E-2,2.2224556E-3,-2.2972317E-2,4.8377723E-2,-1.7972022E-3,-1.3303555E-3,1.4230849E-3,-3.9068386E-3,-3.7744332E-2,-1.0630856E-2,5.9224723E-4,-1.8127931E-3,-1.1134621E-2,-4.808851E-2,-1.4131439E-3,1.8298829E-2,-1.2128286E-3,-6.064964E-5,1.9597633E-2,-1.283691E-2,1.1016357E-3,2.3692971E-4,1.4962952E-3,-2.5154969E-2,-6.414097E-3,2.4222791E-2,7.797785E-3,1.1453798E-2,-7.0285546E-3,3.9886698E-2,5.678687E-2,-1.585158E-3,-3.2696172E-4,-6.5182416E-5,3.8427021E-3,-7.5574487E-4,8.556306E-4,-8.3100755E-4,5.569462E-4,-4.954616E-4,-2.1200746E-3,2.2104589E-4,-9.199382E-4,-8.030903E-4,-2.1317992E-6,-2.709897E-3,-9.782849E-4,1.1283776E-4,1.148048E-3,3.904732E-4,-6.2886905E-4,1.3810315E-3,3.7979457E-4,-1.0188551E-3,2.8489644E-4,-1.6027474E-3,-7.011574E-4,-1.2376094E-3,-1.1073296E-4,2.4841486E-3,1.0323082E-3,8.5965505E-5,7.654815E-4,-6.4916274E-4,9.2443853E-4,-8.394788E-4,3.0976682E-4,2.6489287E-3,1.3872617E-3,3.2729234E-3,7.891325E-4],"categories":[],"categories_nodes":[],"categories_segments":[],"categories_sizes":[],"default_left":[0,0,0,0,0,0,0,0,0,0,0,0,0,0,0,0,0,0,0,0,0,0,0,0,0,0,0,0,0,0,0,0,0,0,0,0,0,0,0,0,0,0,0,0,0,0,0,0,0,0,0,0,0,0,0,0,0,0,0,0,0,0,0,0,0,0,0,0,0,0,0,0,0,0,0,0,0,0,0,0,0,0,0,0,0,0,0,0,0,0,0,0,0,0,0,0,0,0,0,0,0,0,0,0,0,0,0,0,0,0,0,0,0,0,0,0,0,0,0,0,0,0,0,0,0],"id":8,"left_children":[1,3,5,7,9,11,13,15,17,19,21,23,25,27,29,31,33,35,37,39,41,43,45,47,-1,49,51,-1,53,-1,-1,55,57,59,61,63,65,-1,67,-1,69,71,73,75,-1,77,-1,-1,-1,79,81,-1,-1,-1,83,-1,85,87,89,-1,-1,91,93,95,-1,-1,97,99,-1,101,-1,103,105,107,-1,-1,-1,109,111,113,115,117,119,121,123,-1,-1,-1,-1,-1,-1,-1,-1,-1,-1,-1,-1,-1,-1,-1,-1,-1,-1,-1,-1,-1,-1,-1,-1,-1,-1,-1,-1,-1,-1,-1,-1,-1,-1,-1,-1,-1,-1,-1,-1],"loss_changes":[2.112066E0,2.68646E-1,2.0675159E-1,1.641674E-1,1.3777182E-1,1.5957034E-1,6.431365E-2,7.224321E-2,2.9874682E-2,8.523355E-2,4.9403965E-2,5.819404E-2,4.7188E-2,2.6715279E-2,2.0115752E-2,8.140603E-2,3.2016724E-2,1.79765E-2,1.8833876E-2,3.604745E-2,2.1210687E-2,2.82073E-2,3.2693356E-2,1.2187876E-3,0E0,2.9221341E-2,8.99805E-3,0E0,1.8416643E-2,0E0,0E0,4.987912E-2,5.3109802E-2,2.526787E-2,1.2240738E-2,4.4838656E-3,2.0966604E-3,0E0,1.2676835E-2,0E0,1.4382891E-2,1.4531676E-2,2.2928229E-2,1.8024091E-3,0E0,2.7661279E-2,0E0,0E0,0E0,2.5866285E-2,1.0505254E-2,0E0,0E0,0E0,1.4208794E-2,0E0,3.4380704E-2,2.577835E-2,4.238665E-2,0E0,0E0,4.1460632E-3,2.7205348E-3,2.4101937E-3,0E0,0E0,7.770667E-4,7.7628493E-3,0E0,1.599513E-3,0E0,7.95717E-3,3.5669953E-3,1.4545346E-2,0E0,0E0,0E0,6.244302E-3,1.1009847E-2,3.656286E-2,5.4821568E-3,8.515017E-3,7.444361E-3,2.0149827E-2,1.5159667E-2,0E0,0E0,0E0,0E0,0E0,0E0,0E0,0E0,0E0,0E0,0E0,0E0,0E0,0E0,0E0,0E0,0E0,0E0,0E0,0E0,0E0,0E0,0E0,0E0,0E0,0E0,0E0,0E0,0E0,0E0,0E0,0E0,0E0,0E0,0E0,0E0,0E0,0E0,0E0,0E0],"parents":[2147483647,0,0,1,1,2,2,3,3,4,4,5,5,6,6,7,7,8,8,9,9,10,10,11,11,12,12,13,13,14,14,15,15,16,16,17,17,18,18,19,19,20,20,21,21,22,22,23,23,25,25,26,26,28,28,31,31,32,32,33,33,34,34,35,35,36,36,38,38,40,40,41,41,42,42,43,43,45,45,49,49,50,50,54,54,56,56,57,57,58,58,61,61,62,62,63,63,66,66,67,67,69,69,71,71,72,72,73,73,77,77,78,78,79,79,80,80,81,81,82,82,83,83,84,84],"right_children":[2,4,6,8,10,12,14,16,18,20,22,24,26,28,30,32,34,36,38,40,42,44,46,48,-1,50,52,-1,54,-1,-1,56,58,60,62,64,66,-1,68,-1,70,72,74,76,-1,78,-1,-1,-1,80,82,-1,-1,-1,84,-1,86,88,90,-1,-1,92,94,96,-1,-1,98,100,-1,102,-1,104,106,108,-1,-1,-1,110,112,114,116,118,120,122,124,-1,-1,-1,-1,-1,-1,-1,-1,-1,-1,-1,-1,-1,-1,-1,-1,-1,-1,-1,-1,-1,-1,-1,-1,-1,-1,-1,-1,-1,-1,-1,-1,-1,-1,-1,-1,-1,-1,-1,-1],"split_conditions":[1.2989666E-1,-4.4336155E-1,1.0267931E0,-3.0345803E-1,-3.8453916E-1,-9.6467036E-1,1.0668495E0,-9.348173E-2,-6.746924E-1,-7.750376E-1,-9.6467036E-1,-1.6489815E0,2.4876276E-1,-1.3278129E0,5.312402E-1,-2.810429E-1,-7.8608763E-1,-2.5183696E-1,-1.3895394E0,-6.585665E-1,-1.6168155E-1,2.6180782E0,8.0844516E-1,5.846281E-1,3.3660778E-3,8.0844516E-1,-1.5071553E0,-9.334387E-5,-6.819673E-1,1.3939649E-3,-5.7000667E-4,-1.121671E0,-1.2923656E0,-9.5559007E-1,-1.706484E0,-8.227639E-1,-5.961838E-1,4.0618266E-4,8.2672787E-1,2.8863112E-3,-2.4585973E-1,-2.284867E-1,2.3640367E-1,-3.4444845E-1,-1.4320902E-3,-1.5250996E-1,-2.3828116E-3,-8.303146E-4,7.774065E-5,9.2335665E-1,-4.3029448E-1,-1.4431281E-3,2.3318371E-5,4.187262E-3,1.7877078E0,2.2224556E-3,2.2147888E-1,9.509777E-1,-4.7286958E-1,-1.3303555E-3,1.4230849E-3,-8.802277E-1,-7.6247245E-1,-1.0583619E0,5.9224723E-4,-1.8127931E-3,-1.2418121E-1,1.4047743E0,-1.4131439E-3,-3.5622382E-1,-1.2128286E-3,2.7261353E-1,-2.810429E-1,-1.5600212E-1,1.1016357E-3,2.3692971E-4,1.4962952E-3,-1.919868E-1,-1.0024209E0,-7.1393484E-1,-1.3646911E-1,-1.3278129E0,5.7049763E-1,9.2335665E-1,4.9420685E-1,-1.585158E-3,-3.2696172E-4,-6.5182416E-5,3.8427021E-3,-7.5574487E-4,8.556306E-4,-8.3100755E-4,5.569462E-4,-4.954616E-4,-2.1200746E-3,2.2104589E-4,-9.199382E-4,-8.030903E-4,-2.1317992E-6,-2.709897E-3,-9.782849E-4,1.1283776E-4,1.148048E-3,3.904732E-4,-6.2886905E-4,1.3810315E-3,3.7979457E-4,-1.0188551E-3,2.8489644E-4,-1.6027474E-3,-7.011574E-4,-1.2376094E-3,-1.1073296E-4,2.4841486E-3,1.0323082E-3,8.5965505E-5,7.654815E-4,-6.4916274E-4,9.2443853E-4,-8.394788E-4,3.0976682E-4,2.6489287E-3,1.3872617E-3,3.2729234E-3,7.891325E-4],"split_indices":[18,18,18,11,11,16,10,9,5,12,16,16,15,9,11,9,10,15,9,11,15,0,16,18,0,16,0,0,9,0,0,11,18,18,16,18,18,0,12,0,10,15,5,18,0,18,0,0,0,11,11,0,0,0,18,0,15,12,10,0,0,18,5,18,0,0,10,0,0,18,0,16,9,9,0,0,0,15,0,12,12,9,18,11,12,0,0,0,0,0,0,0,0,0,0,0,0,0,0,0,0,0,0,0,0,0,0,0,0,0,0,0,0,0,0,0,0,0,0,0,0,0,0,0,0],"split_type":[0,0,0,0,0,0,0,0,0,0,0,0,0,0,0,0,0,0,0,0,0,0,0,0,0,0,0,0,0,0,0,0,0,0,0,0,0,0,0,0,0,0,0,0,0,0,0,0,0,0,0,0,0,0,0,0,0,0,0,0,0,0,0,0,0,0,0,0,0,0,0,0,0,0,0,0,0,0,0,0,0,0,0,0,0,0,0,0,0,0,0,0,0,0,0,0,0,0,0,0,0,0,0,0,0,0,0,0,0,0,0,0,0,0,0,0,0,0,0,0,0,0,0,0,0],"sum_hessian":[3.496E3,2.196E3,1.3E3,1.392E3,8.04E2,7.72E2,5.28E2,8.24E2,5.68E2,3.83E2,4.21E2,1.14E2,6.58E2,4.56E2,7.2E1,5.66E2,2.58E2,1.28E2,4.4E2,9E1,2.93E2,4.6E1,3.75E2,1.1E1,1.03E2,6.13E2,4.5E1,9E0,4.47E2,5.5E1,1.7E1,3.58E2,2.08E2,2.7E1,2.31E2,2.6E1,1.02E2,5E0,4.35E2,4.6E1,4.4E1,1.45E2,1.48E2,3.7E1,9E0,3.23E2,5.2E1,6E0,5E0,5.03E2,1.1E2,2.4E1,2.1E1,4.5E1,4.02E2,7E0,3.51E2,1.7E1,1.91E2,1.4E1,1.3E1,1.3E1,2.18E2,1.5E1,1.1E1,8.8E1,1.4E1,3.81E2,5.4E1,3.9E1,5E0,8.4E1,6.1E1,1.29E2,1.9E1,7E0,3E1,1.7E2,1.53E2,3.62E2,1.41E2,5.1E1,5.9E1,2.26E2,1.76E2,2.58E2,9.3E1,7E0,1E1,1.14E2,7.7E1,7E0,6E0,8E0,2.1E2,5E0,1E1,9E0,5E0,3.63E2,1.8E1,7E0,3.2E1,5.3E1,3.1E1,3.8E1,2.3E1,9.8E1,3.1E1,1.22E2,4.8E1,2.7E1,1.26E2,6.5E1,2.97E2,7.4E1,6.7E1,8E0,4.3E1,3.5E1,2.4E1,1.35E2,9.1E1,1.63E2,1.3E1],"tree_param":{"num_deleted":"0","num_feature":"19","num_nodes":"125","size_leaf_vector":"1"}},{"base_weights":[-5.4931827E-4,1.4729312E-2,-3.9098333E-3,-1.8297577E-2,2.3610715E-2,-7.210297E-3,1.3052726E-2,-4.1298937E-2,5.07141E-3,3.0565033E-2,-1.27716875E-2,4.2112004E-3,-7.976025E-3,-5.3197057E-3,1.7165018E-2,-9.602196E-4,-2.5694813E-3,-4.5659407E-3,9.0866163E-4,2.4461865E-2,5.5051666E-2,-3.0092535E-5,-1.0798844E-3,-2.9313874E-3,-2.0510351E-2,-1.1208433E-2,4.1647197E-4,5.237991E-3,1.9810311E-2,2.5193967E-5,-4.5764324E-4,3.2418303E-2,1.3954964E-2,3.3979916E-3,4.533036E-4,-2.030932E-2,6.398319E-4,-2.4887357E-2,9.516088E-3,-1.1408844E-3,-2.945709E-4,-1.2887493E-3,1.5509001E-2,1.6761357E-3,1.5463601E-2,3.488915E-2,-5.928032E-4,1.674868E-2,-5.2118E-4,-2.403663E-2,2.3379219E-3,-1.4136774E-2,3.1440316E-3,-2.6466346E-3,-2.1648537E-2,7.5557164E-4,-8.3435007E-4,4.4569926E-4,1.0445357E-3,2.4512473E-2,6.2421905E-3,8.379928E-4,2.34103E-3,2.349077E-4,1.0817476E-3,-1.443624E-3,-2.4558982E-4,6.832706E-4,-3.2451926E-4,4.6819515E-4,-1.3474089E-3,1.9634881E-5,8.406256E-4,-1.265211E-3,1.7449552E-4,1.4687323E-3,3.6448103E-4,1.2214739E-3,-9.353168E-5],"categories":[],"categories_nodes":[],"categories_segments":[],"categories_sizes":[],"default_left":[0,0,0,0,0,0,0,0,0,0,0,0,0,0,0,0,0,0,0,0,0,0,0,0,0,0,0,0,0,0,0,0,0,0,0,0,0,0,0,0,0,0,0,0,0,0,0,0,0,0,0,0,0,0,0,0,0,0,0,0,0,0,0,0,0,0,0,0,0,0,0,0,0,0,0,0,0,0,0],"id":9,"left_children":[1,3,5,7,9,11,13,15,17,19,21,-1,23,25,27,-1,-1,29,-1,31,33,-1,-1,35,37,39,-1,41,43,-1,-1,45,47,-1,-1,49,51,53,55,-1,-1,-1,57,-1,59,61,-1,63,-1,65,67,69,71,-1,73,-1,-1,-1,-1,75,77,-1,-1,-1,-1,-1,-1,-1,-1,-1,-1,-1,-1,-1,-1,-1,-1,-1,-1],"loss_changes":[1.8132798E-1,1.8965569E-1,1.6265106E-1,7.5997606E-2,1.3031846E-1,1.5972662E-1,3.6423065E-2,3.6829636E-3,8.778237E-3,5.4743677E-2,7.0921974E-3,0E0,1.5203774E-1,7.550019E-3,1.15640685E-2,0E0,0E0,9.049221E-4,0E0,2.6488662E-2,2.1545649E-2,0E0,0E0,1.0730998E-1,9.237954E-2,2.9306374E-3,0E0,2.5899926E-2,1.15083605E-2,0E0,0E0,2.3417339E-2,1.1793505E-2,0E0,0E0,2.5281683E-2,5.3554818E-2,3.8600683E-2,1.1050335E-2,0E0,0E0,0E0,5.913628E-4,0E0,1.8816277E-2,2.3783654E-2,0E0,4.828438E-3,0E0,1.0109946E-2,4.4823713E-3,5.0557964E-2,4.1756306E-2,0E0,1.8600404E-2,0E0,0E0,0E0,0E0,3.3939928E-3,1.6360598E-2,0E0,0E0,0E0,0E0,0E0,0E0,0E0,0E0,0E0,0E0,0E0,0E0,0E0,0E0,0E0,0E0,0E0,0E0],"parents":[2147483647,0,0,1,1,2,2,3,3,4,4,5,5,6,6,7,7,8,8,9,9,10,10,12,12,13,13,14,14,17,17,19,19,20,20,23,23,24,24,25,25,27,27,28,28,31,31,32,32,35,35,36,36,37,37,38,38,42,42,44,44,45,45,47,47,49,49,50,50,51,51,52,52,54,54,59,59,60,60],"right_children":[2,4,6,8,10,12,14,16,18,20,22,-1,24,26,28,-1,-1,30,-1,32,34,-1,-1,36,38,40,-1,42,44,-1,-1,46,48,-1,-1,50,52,54,56,-1,-1,-1,58,-1,60,62,-1,64,-1,66,68,70,72,-1,74,-1,-1,-1,-1,76,78,-1,-1,-1,-1,-1,-1,-1,-1,-1,-1,-1,-1,-1,-1,-1,-1,-1,-1],"split_conditions":[-9.6467036E-1,-1.6552362E0,1.7247355E0,-9.29223E-1,-4.3897495E-2,-1.5552514E0,5.9946347E-2,-1.1142206E0,1.0211676E0,-4.2466933E-1,-7.068566E-1,4.2112004E-3,2.563382E-1,2.4616742E0,-2.3417474E-1,-9.602196E-4,-2.5694813E-3,-7.3495084E-1,9.0866163E-4,-7.374247E-1,-3.6292812E-1,-3.0092535E-5,-1.0798844E-3,-1.1540325E0,2.1916692E0,2.011645E0,4.1647197E-4,-9.453115E-2,-1.4472684E-1,2.5193967E-5,-4.5764324E-4,-6.704768E-1,-3.7737095E-1,3.3979916E-3,4.533036E-4,-3.9969286E-1,-2.6224178E-1,-6.82894E-1,6.1900496E-1,-1.1408844E-3,-2.945709E-4,-1.2887493E-3,2.3367514E-1,1.6761357E-3,4.055813E-1,-1.8215021E0,-5.928032E-4,-1.2040803E0,-5.2118E-4,1.6714307E0,-2.8751123E-1,-7.583762E-1,3.7810066E-1,-2.6466346E-3,2.5603846E-1,7.5557164E-4,-8.3435007E-4,4.4569926E-4,1.0445357E-3,5.5717015E-1,3.1155357E-1,8.379928E-4,2.34103E-3,2.349077E-4,1.0817476E-3,-1.443624E-3,-2.4558982E-4,6.832706E-4,-3.2451926E-4,4.6819515E-4,-1.3474089E-3,1.9634881E-5,8.406256E-4,-1.265211E-3,1.7449552E-4,1.4687323E-3,3.6448103E-4,1.2214739E-3,-9.353168E-5],"split_indices":[16,17,1,14,11,7,3,3,9,1,3,0,1,1,7,0,0,1,0,14,7,0,0,1,14,1,0,11,7,0,0,1,3,0,0,14,15,3,1,0,0,0,3,0,11,14,0,3,0,3,3,3,9,0,15,0,0,0,0,3,3,0,0,0,0,0,0,0,0,0,0,0,0,0,0,0,0,0,0],"split_type":[0,0,0,0,0,0,0,0,0,0,0,0,0,0,0,0,0,0,0,0,0,0,0,0,0,0,0,0,0,0,0,0,0,0,0,0,0,0,0,0,0,0,0,0,0,0,0,0,0,0,0,0,0,0,0,0,0,0,0,0,0,0,0,0,0,0,0,0,0,0,0,0,0,0,0,0,0,0,0],"sum_hessian":[3.517E3,6.3E2,2.887E3,1.32E2,4.98E2,2.42E3,4.67E2,6.4E1,6.8E1,4.19E2,7.9E1,1.6E1,2.404E3,8.5E1,3.82E2,1.7E1,4.7E1,3.9E1,2.9E1,3.46E2,7.3E1,3.1E1,4.8E1,1.72E3,6.84E2,5.9E1,2.6E1,7.3E1,3.09E2,1.9E1,2E1,1.89E2,1.57E2,6.2E1,1.1E1,2.88E2,1.432E3,5.98E2,8.6E1,1.6E1,4.3E1,1.7E1,5.6E1,7.8E1,2.31E2,1.8E2,9E0,1.42E2,1.5E1,2.47E2,4.1E1,2.03E2,1.229E3,6.2E1,5.36E2,7.6E1,1E1,2.5E1,3.1E1,1.11E2,1.2E2,5.6E1,1.24E2,3E1,1.12E2,2.2E2,2.7E1,1.7E1,2.4E1,6.4E1,1.39E2,1.005E3,2.24E2,5.09E2,2.7E1,9.6E1,1.5E1,3.6E1,8.4E1],"tree_param":{"num_deleted":"0","num_feature":"19","num_nodes":"79","size_leaf_vector":"1"}},{"base_weights":[6.2434986E-4,2.1326432E-2,-1.1394861E-3,4.6682592E-2,8.9287956E-4,-2.6724158E-2,1.1336269E-3,4.032178E-3,2.0713983E-3,-6.6939034E-3,1.4864295E-3,-3.5615798E-2,-1.2399215E-2,1.9427223E-2,-8.588789E-4,-3.6412393E-4,-1.5031386E-3,-2.468066E-2,-2.3308648E-3,-1.5769644E-2,4.580291E-4,-2.58713E-2,3.369477E-2,-2.217983E-2,6.2817393E-4,-1.0611486E-3,4.776004E-4,-1.8470995E-4,-1.423035E-3,-8.989381E-3,-1.0256976E-3,-6.0034293E-4,-2.0445727E-3,2.4494452E-2,6.563569E-2,-1.9233966E-3,-1.7246153E-2,3.0049868E-3,-1.0713959E-2,-1.368526E-3,1.12238165E-4,2.1787363E-3,2.0062447E-2,1.3546431E-3,3.9930544E-3,-8.141208E-3,-1.4231575E-3,1.6560922E-4,1.3764804E-2,5.230286E-3,-1.9994127E-2,1.6885444E-3,8.6674385E-4,5.297308E-4,-1.1909284E-3,-1.097821E-3,9.945003E-5,-7.2722265E-5,1.2018662E-3,-9.152522E-5,6.8684365E-4,-6.016757E-4,-1.4158163E-3],"categories":[],"categories_nodes":[],"categories_segments":[],"categories_sizes":[],"default_left":[0,0,0,0,0,0,0,0,0,0,0,0,0,0,0,0,0,0,0,0,0,0,0,0,0,0,0,0,0,0,0,0,0,0,0,0,0,0,0,0,0,0,0,0,0,0,0,0,0,0,0,0,0,0,0,0,0,0,0,0,0,0,0],"id":10,"left_children":[1,3,5,7,9,11,13,-1,-1,15,-1,17,19,21,23,25,-1,27,-1,29,-1,31,33,35,37,-1,-1,-1,-1,39,-1,-1,-1,41,43,-1,45,47,49,-1,-1,-1,51,-1,-1,53,-1,55,57,59,61,-1,-1,-1,-1,-1,-1,-1,-1,-1,-1,-1,-1],"loss_changes":[1.2591183E-1,1.3993187E-1,1.8509956E-1,1.0820627E-2,3.2332573E-2,3.0145332E-2,1.0678437E-1,0E0,0E0,1.6476786E-2,0E0,4.6409816E-3,8.559758E-3,1.9173618E-1,8.399154E-2,1.8911643E-2,0E0,1.3016872E-3,0E0,7.689409E-4,0E0,9.57638E-3,5.4543287E-2,6.9093853E-3,6.7027286E-2,0E0,0E0,0E0,0E0,7.6942765E-3,0E0,0E0,0E0,6.9916174E-3,1.126945E-3,0E0,9.403851E-3,6.273486E-2,6.445898E-2,0E0,0E0,0E0,3.900651E-3,0E0,0E0,1.9821292E-2,0E0,5.4146178E-2,5.245544E-2,8.350711E-3,1.235418E-2,0E0,0E0,0E0,0E0,0E0,0E0,0E0,0E0,0E0,0E0,0E0,0E0],"parents":[2147483647,0,0,1,1,2,2,3,3,4,4,5,5,6,6,9,9,11,11,12,12,13,13,14,14,15,15,17,17,19,19,21,21,22,22,23,23,24,24,29,29,33,33,34,34,36,36,37,37,38,38,42,42,45,45,47,47,48,48,49,49,50,50],"right_children":[2,4,6,8,10,12,14,-1,-1,16,-1,18,20,22,24,26,-1,28,-1,30,-1,32,34,36,38,-1,-1,-1,-1,40,-1,-1,-1,42,44,-1,46,48,50,-1,-1,-1,52,-1,-1,54,-1,56,58,60,62,-1,-1,-1,-1,-1,-1,-1,-1,-1,-1,-1,-1],"split_conditions":[-1.0931273E0,-8.959005E-1,-7.4582094E-1,-1.3289347E0,-6.960592E-1,-4.2471004E-1,-1.2320449E0,4.032178E-3,2.0713983E-3,6.1070606E-2,1.4864295E-3,-2.2657324E-1,3.3910364E-1,-2.0760815E-1,-1.2794634E0,-8.1316096E-1,-1.5031386E-3,-8.9962304E-1,-2.3308648E-3,-1.4850631E0,4.580291E-4,2.0463316E-1,-1.2433028E0,-9.9651664E-1,4.1023406E-1,-1.0611486E-3,4.776004E-4,-1.8470995E-4,-1.423035E-3,-1.8441235E0,-1.0256976E-3,-6.0034293E-4,-2.0445727E-3,-1.0846629E0,-7.505818E-1,-1.9233966E-3,-2.3028316E-1,3.7810066E-1,-3.0906463E-1,-1.368526E-3,1.12238165E-4,2.1787363E-3,-1.4412056E-1,1.3546431E-3,3.9930544E-3,-1.5600212E-1,-1.4231575E-3,-8.8787246E-1,-1.7943351E-1,-2.89603E-1,-6.773183E-1,1.6885444E-3,8.6674385E-4,5.297308E-4,-1.1909284E-3,-1.097821E-3,9.945003E-5,-7.2722265E-5,1.2018662E-3,-9.152522E-5,6.8684365E-4,-6.016757E-4,-1.4158163E-3],"split_indices":[6,8,2,5,9,14,16,0,0,11,0,5,6,6,14,9,0,11,0,2,0,2,16,11,5,0,0,0,0,2,0,0,0,11,11,0,11,9,16,0,0,0,5,0,0,9,0,5,16,2,6,0,0,0,0,0,0,0,0,0,0,0,0],"split_type":[0,0,0,0,0,0,0,0,0,0,0,0,0,0,0,0,0,0,0,0,0,0,0,0,0,0,0,0,0,0,0,0,0,0,0,0,0,0,0,0,0,0,0,0,0,0,0,0,0,0,0,0,0,0,0,0,0,0,0,0,0,0,0],"sum_hessian":[3.435E3,2.64E2,3.171E3,1.14E2,1.5E2,2.53E2,2.918E3,1.7E1,9.7E1,1.2E2,3E1,1.5E2,1.03E2,2.81E2,2.637E3,9.7E1,2.3E1,6.9E1,8.1E1,9E1,1.3E1,6.6E1,2.15E2,1.66E2,2.471E3,2.9E1,6.8E1,5E0,6.4E1,3.5E1,5.5E1,3.4E1,3.2E1,1.76E2,3.9E1,3.5E1,1.31E2,2.047E3,4.24E2,1.1E1,2.4E1,2.8E1,1.48E2,1E1,2.9E1,7E1,6.1E1,1.625E3,4.22E2,1.57E2,2.67E2,3.1E1,1.17E2,3.1E1,3.9E1,1.17E2,1.508E3,1.49E2,2.73E2,8.3E1,7.4E1,1.11E2,1.56E2],"tree_param":{"num_deleted":"0","num_feature":"19","num_nodes":"63","size_leaf_vector":"1"}},{"base_weights":[-4.4475993E-5,-1.5928086E-2,3.1781502E-2,-2.4819868E-2,-1.303515E-4,2.4307985E-2,5.363144E-2,-1.6044725E-2,-3.7741225E-2,2.8110143E-2,-5.648629E-3,4.7887266E-2,1.8997286E-2,1.2350911E-2,5.571266E-2,-1.130284E-3,-2.3804843E-2,-3.0295068E-2,-4.372873E-2,4.24636E-3,1.2527539E-2,7.017235E-3,-1.5571406E-2,6.161713E-3,5.0413128E-2,3.4172915E-2,1.3209521E-2,-8.6545484E-4,1.2875497E-3,2.118054E-3,6.0503222E-2,-1.0710681E-2,1.7428346E-2,-1.187142E-2,-2.9987516E-2,1.5476395E-3,-3.194831E-2,-1.353143E-3,-4.506452E-2,1.4979139E-3,-2.0581207E-3,2.54175E-2,-1.1159602E-3,-1.0671688E-2,-2.9343223E-2,-7.803375E-6,4.991253E-4,3.2659874E-3,1.7287699E-3,1.6062137E-2,4.7331072E-2,1.6989198E-2,-4.0800837E-3,-3.1794055E-4,2.4373425E-4,3.42031E-3,-1.293366E-4,5.2639525E-2,-1.587055E-2,3.3254836E-2,-3.3844504E-4,-2.1500451E-2,5.5461857E-3,-3.6167234E-2,-1.1619309E-2,2.9815378E-4,-1.04722974E-4,-3.3997085E-2,-8.227905E-4,-7.21182E-4,6.08567E-4,-4.6408366E-2,-5.2946205E-3,1.1235699E-2,-7.712822E-3,3.2175243E-2,1.5447663E-2,1.3695888E-3,-7.5085014E-3,-1.6406693E-2,8.495113E-3,-3.510003E-2,-6.93347E-4,6.7541626E-4,2.0710092E-2,1.485207E-3,5.326357E-2,7.636373E-3,2.390351E-2,9.541767E-3,-1.8250382E-2,3.8312917E-4,3.6882826E-3,-1.7147255E-4,-1.7629333E-3,2.994278E-4,2.4063736E-3,-2.9570828E-4,6.2877283E-4,-3.5085308E-5,-1.4685267E-3,1.3151243E-3,-1.1594516E-4,-2.1234774E-3,-1.1640029E-3,-1.0050604E-3,1.2235814E-3,-1.9509871E-3,-9.896264E-4,-1.253766E-3,-2.7341477E-3,3.5553906E-4,-7.3989405E-4,4.589017E-5,8.6726405E-4,-7.577115E-4,-8.471234E-5,2.011361E-3,5.337288E-4,-8.800754E-5,1.4941599E-3,2.5252101E-4,-1.0003482E-3,-1.186858E-3,3.788463E-4,-8.234843E-4,7.4817246E-4,-7.668964E-4,-2.0775506E-3,-3.7701518E-4,2.898202E-4,5.784629E-4,1.5188289E-3,-1.6342057E-4,2.4436414E-4,9.376996E-4,3.0615104E-3,2.3012097E-5,6.060751E-4,1.4190046E-3,-1.1964652E-3,1.6612184E-3,1.1111056E-4,-1.3214716E-3,-4.890734E-4],"categories":[],"categories_nodes":[],"categories_segments":[],"categories_sizes":[],"default_left":[0,0,0,0,0,0,0,0,0,0,0,0,0,0,0,0,0,0,0,0,0,0,0,0,0,0,0,0,0,0,0,0,0,0,0,0,0,0,0,0,0,0,0,0,0,0,0,0,0,0,0,0,0,0,0,0,0,0,0,0,0,0,0,0,0,0,0,0,0,0,0,0,0,0,0,0,0,0,0,0,0,0,0,0,0,0,0,0,0,0,0,0,0,0,0,0,0,0,0,0,0,0,0,0,0,0,0,0,0,0,0,0,0,0,0,0,0,0,0,0,0,0,0,0,0,0,0,0,0,0,0,0,0,0,0,0,0,0,0,0,0,0,0,0,0],"id":11,"left_children":[1,3,5,7,9,11,13,15,17,19,21,23,25,27,29,31,33,35,37,-1,39,41,43,45,47,49,51,53,-1,-1,55,57,59,61,63,65,67,69,71,-1,73,75,77,79,81,-1,-1,-1,-1,83,85,87,89,-1,-1,-1,-1,91,93,95,97,99,101,103,105,-1,-1,107,-1,-1,-1,109,111,113,115,117,119,-1,121,123,125,127,-1,129,131,133,135,137,139,141,143,-1,-1,-1,-1,-1,-1,-1,-1,-1,-1,-1,-1,-1,-1,-1,-1,-1,-1,-1,-1,-1,-1,-1,-1,-1,-1,-1,-1,-1,-1,-1,-1,-1,-1,-1,-1,-1,-1,-1,-1,-1,-1,-1,-1,-1,-1,-1,-1,-1,-1,-1,-1,-1,-1],"loss_changes":[1.7821313E0,3.3029872E-1,1.8306196E-1,1.6661197E-1,1.3412806E-1,1.0504401E-1,2.063483E-2,1.04856715E-1,1.816982E-2,1.0113699E-1,9.121417E-2,1.4615893E-2,6.155598E-2,3.4915765E-3,7.527113E-3,5.776004E-2,4.166141E-2,1.5671164E-2,1.763618E-2,0E0,2.5002183E-2,4.8246052E-2,2.531448E-2,3.3189508E-4,1.2914926E-2,4.2305127E-2,3.5951965E-2,6.2596746E-4,0E0,0E0,2.237612E-2,7.543165E-2,3.1255625E-2,3.683664E-2,4.1321993E-2,3.6228154E-4,6.259531E-3,3.4376828E-3,1.4876425E-2,0E0,5.3909393E-3,3.3599436E-3,3.9290287E-2,3.4997158E-2,6.958075E-3,0E0,0E0,0E0,0E0,6.587779E-3,2.9779345E-2,2.7673423E-2,2.1024065E-2,0E0,0E0,0E0,0E0,8.443013E-3,4.1117504E-2,1.5477993E-2,3.910268E-3,1.4969878E-2,1.1872405E-2,5.051613E-3,2.695075E-2,0E0,0E0,1.408875E-3,0E0,0E0,0E0,1.5618801E-2,2.3051875E-3,9.221367E-4,1.6769504E-3,2.8105006E-3,1.0846899E-2,0E0,2.494954E-2,2.9948518E-2,1.043715E-2,5.8192015E-4,0E0,1.2533284E-3,3.1127073E-3,3.6196655E-4,2.167523E-3,4.8303027E-3,2.5554702E-2,8.404737E-3,1.4257487E-3,0E0,0E0,0E0,0E0,0E0,0E0,0E0,0E0,0E0,0E0,0E0,0E0,0E0,0E0,0E0,0E0,0E0,0E0,0E0,0E0,0E0,0E0,0E0,0E0,0E0,0E0,0E0,0E0,0E0,0E0,0E0,0E0,0E0,0E0,0E0,0E0,0E0,0E0,0E0,0E0,0E0,0E0,0E0,0E0,0E0,0E0,0E0,0E0,0E0,0E0,0E0,0E0,0E0,0E0],"parents":[2147483647,0,0,1,1,2,2,3,3,4,4,5,5,6,6,7,7,8,8,9,9,10,10,11,11,12,12,13,13,14,14,15,15,16,16,17,17,18,18,20,20,21,21,22,22,23,23,24,24,25,25,26,26,27,27,30,30,31,31,32,32,33,33,34,34,35,35,36,36,37,37,38,38,40,40,41,41,42,42,43,43,44,44,49,49,50,50,51,51,52,52,57,57,58,58,59,59,60,60,61,61,62,62,63,63,64,64,67,67,71,71,72,72,73,73,74,74,75,75,76,76,78,78,79,79,80,80,81,81,83,83,84,84,85,85,86,86,87,87,88,88,89,89,90,90],"right_children":[2,4,6,8,10,12,14,16,18,20,22,24,26,28,30,32,34,36,38,-1,40,42,44,46,48,50,52,54,-1,-1,56,58,60,62,64,66,68,70,72,-1,74,76,78,80,82,-1,-1,-1,-1,84,86,88,90,-1,-1,-1,-1,92,94,96,98,100,102,104,106,-1,-1,108,-1,-1,-1,110,112,114,116,118,120,-1,122,124,126,128,-1,130,132,134,136,138,140,142,144,-1,-1,-1,-1,-1,-1,-1,-1,-1,-1,-1,-1,-1,-1,-1,-1,-1,-1,-1,-1,-1,-1,-1,-1,-1,-1,-1,-1,-1,-1,-1,-1,-1,-1,-1,-1,-1,-1,-1,-1,-1,-1,-1,-1,-1,-1,-1,-1,-1,-1,-1,-1,-1,-1],"split_conditions":[2.5211227E-1,-3.844847E-1,1.5678713E0,-3.0345803E-1,-7.321587E-1,-5.9196633E-1,-1.4257344E0,-5.9196633E-1,-1.7943351E-1,-1.0013397E0,-3.8453916E-1,-1.413753E0,-7.750376E-1,7.441412E-1,-3.7057707E-1,-7.6259804E-1,-7.4708545E-1,-9.285106E-1,-1.2193583E0,4.24636E-3,-2.89603E-1,-6.488194E-1,7.1712905E-1,5.1374555E-1,-7.84735E-1,-2.1418881E-1,-1.1029298E-1,2.038886E0,1.2875497E-3,2.118054E-3,-1.5867637E-1,-1.3382561E0,-1.1570487E-3,-7.6259804E-1,4.522508E-2,-8.861154E-1,-1.6928431E-1,-1.2923656E0,4.868104E-2,1.4979139E-3,-5.808497E-1,-6.585665E-1,-7.583762E-1,-1.9674198E-1,7.191399E-1,-7.803375E-6,4.991253E-4,3.2659874E-3,1.7287699E-3,5.391033E-1,-1.379457E0,6.884584E-1,-5.570904E-1,-3.1794055E-4,2.4373425E-4,3.42031E-3,-1.293366E-4,-9.015937E-1,-1.8617928E-1,-1.3949246E0,-7.725823E-1,-1.2499743E0,-1.063619E0,-5.446297E-1,2.514926E0,2.9815378E-4,-1.04722974E-4,8.2672787E-1,-8.227905E-4,-7.21182E-4,6.08567E-4,-1.4257344E0,-6.612059E-1,-9.884171E-1,-2.3834962E-1,-7.750376E-1,-4.189467E-2,1.3695888E-3,-1.4139658E-1,7.441412E-1,-1.379457E0,-1.0013397E0,-6.93347E-4,2.7261353E-1,3.3551615E-1,6.884584E-1,3.0473801E-1,-3.6538967E-1,3.013336E0,-6.613361E-1,8.744215E-1,3.8312917E-4,3.6882826E-3,-1.7147255E-4,-1.7629333E-3,2.994278E-4,2.4063736E-3,-2.9570828E-4,6.2877283E-4,-3.5085308E-5,-1.4685267E-3,1.3151243E-3,-1.1594516E-4,-2.1234774E-3,-1.1640029E-3,-1.0050604E-3,1.2235814E-3,-1.9509871E-3,-9.896264E-4,-1.253766E-3,-2.7341477E-3,3.5553906E-4,-7.3989405E-4,4.589017E-5,8.6726405E-4,-7.577115E-4,-8.471234E-5,2.011361E-3,5.337288E-4,-8.800754E-5,1.4941599E-3,2.5252101E-4,-1.0003482E-3,-1.186858E-3,3.788463E-4,-8.234843E-4,7.4817246E-4,-7.668964E-4,-2.0775506E-3,-3.7701518E-4,2.898202E-4,5.784629E-4,1.5188289E-3,-1.6342057E-4,2.4436414E-4,9.376996E-4,3.0615104E-3,2.3012097E-5,6.060751E-4,1.4190046E-3,-1.1964652E-3,1.6612184E-3,1.1111056E-4,-1.3214716E-3,-4.890734E-4],"split_indices":[18,18,18,11,7,7,3,7,16,12,11,3,12,12,11,18,12,3,18,0,2,12,17,11,3,15,15,18,0,0,15,18,12,18,15,18,15,18,15,0,11,11,3,15,11,0,0,0,0,18,2,18,3,0,0,0,0,7,15,17,7,18,17,18,12,0,0,12,0,0,0,3,18,3,18,12,3,0,15,12,2,12,0,16,3,18,18,3,3,2,18,0,0,0,0,0,0,0,0,0,0,0,0,0,0,0,0,0,0,0,0,0,0,0,0,0,0,0,0,0,0,0,0,0,0,0,0,0,0,0,0,0,0,0,0,0,0,0,0,0,0,0,0,0,0],"split_type":[0,0,0,0,0,0,0,0,0,0,0,0,0,0,0,0,0,0,0,0,0,0,0,0,0,0,0,0,0,0,0,0,0,0,0,0,0,0,0,0,0,0,0,0,0,0,0,0,0,0,0,0,0,0,0,0,0,0,0,0,0,0,0,0,0,0,0,0,0,0,0,0,0,0,0,0,0,0,0,0,0,0,0,0,0,0,0,0,0,0,0,0,0,0,0,0,0,0,0,0,0,0,0,0,0,0,0,0,0,0,0,0,0,0,0,0,0,0,0,0,0,0,0,0,0,0,0,0,0,0,0,0,0,0,0,0,0,0,0,0,0,0,0,0,0],"sum_hessian":[3.512E3,2.345E3,1.167E3,1.498E3,8.47E2,8.8E2,2.87E2,9.01E2,5.97E2,1.34E2,7.13E2,1.52E2,7.28E2,1.6E1,2.71E2,3.11E2,5.9E2,2.84E2,3.13E2,2.6E1,1.08E2,3.14E2,3.99E2,1E1,1.42E2,1.92E2,5.36E2,1E1,6E0,7.2E1,1.99E2,2.07E2,1.04E2,2.08E2,3.82E2,1.4E1,2.7E2,1E1,3.03E2,5.1E1,5.7E1,9.2E1,2.22E2,3.03E2,9.6E1,5E0,5E0,8.7E1,5.5E1,8.7E1,1.05E2,4.4E2,9.6E1,5E0,5E0,1.94E2,5E0,1.1E1,1.96E2,5.2E1,5.2E1,1.33E2,7.5E1,2.81E2,1.01E2,5E0,9E0,2.35E2,3.5E1,5E0,5E0,2.92E2,1.1E1,1.5E1,4.2E1,4.6E1,4.6E1,4E1,1.82E2,2.34E2,6.9E1,6.6E1,3E1,2.2E1,6.5E1,1.3E1,9.2E1,1.93E2,2.47E2,5E1,4.6E1,5E0,6E0,1.14E2,8.2E1,1.7E1,3.5E1,3.9E1,1.3E1,2.8E1,1.05E2,1.8E1,5.7E1,2.33E2,4.8E1,8.7E1,1.4E1,2.08E2,2.7E1,4.2E1,2.5E2,5E0,6E0,7E0,8E0,1.7E1,2.5E1,3.5E1,1.1E1,2.1E1,2.5E1,8.7E1,9.5E1,1.92E2,4.2E1,1E1,5.9E1,1.2E1,5.4E1,7E0,1.5E1,3.3E1,3.2E1,5E0,8E0,9E0,8.3E1,6.4E1,1.29E2,2.4E2,7E0,8E0,4.2E1,2.2E1,2.4E1],"tree_param":{"num_deleted":"0","num_feature":"19","num_nodes":"145","size_leaf_vector":"1"}},{"base_weights":[4.168962E-4,-1.8702362E-2,2.5410125E-2,-2.470406E-2,-6.9727935E-3,1.6867172E-2,4.4573102E-2,-1.7729245E-2,-3.4928262E-2,1.3475899E-2,-1.3176902E-2,4.163051E-2,1.2730069E-2,4.8765462E-2,1.4990691E-2,-1.0807915E-2,-2.742906E-2,-1.1821153E-2,-4.0891215E-2,3.288343E-2,-1.5694922E-2,1.2828043E-2,-1.830801E-2,-1.6647555E-2,4.9270093E-2,2.8398328E-2,8.024061E-3,3.54012E-3,4.412033E-2,-3.2570353E-4,1.217148E-3,2.0362232E-2,-1.5196948E-2,-2.8675113E-2,1.0587556E-3,1.647665E-3,-3.318248E-2,-3.1843837E-2,-4.5259185E-2,-2.2108234E-3,4.3354947E-2,-1.3823018E-3,-6.0284114E-3,-1.3236697E-3,1.871204E-2,-2.3258368E-2,-9.051574E-3,-1.0757287E-3,-1.467486E-4,3.3026498E-3,3.7159678E-2,-5.0286343E-3,3.4230035E-2,6.0387105E-3,2.4575514E-3,1.9446458E-3,5.0987948E-2,-1.2006282E-2,3.2562297E-3,-1.8789215E-2,2.0948995E-3,-3.3093985E-2,-1.8417565E-2,2.5152713E-2,-7.36617E-3,-2.2459724E-3,2.7770622E-4,-1.0392096E-2,-1.8303075E-3,-4.608535E-2,-2.2577356E-4,-1.0342142E-3,6.0492335E-4,2.5863588E-2,5.4781154E-2,-1.515368E-2,5.8883186E-3,-2.7561135E-4,2.2401297E-2,-2.646159E-2,-1.0785524E-2,8.31323E-3,-1.061967E-2,7.405525E-4,2.157866E-3,-8.439602E-4,5.2480993E-4,2.5640253E-3,2.4666805E-2,9.622358E-3,-1.04408385E-2,5.2896813E-2,3.269003E-4,-1.024519E-3,3.279546E-4,-1.4003578E-3,-5.8209006E-4,-6.699765E-4,9.405783E-4,-2.2437675E-3,-1.4031804E-3,-5.774448E-4,-2.231892E-3,4.030775E-4,1.802099E-3,-1.3623169E-3,3.7568103E-4,-1.1265532E-3,4.455523E-4,-2.657449E-3,-1.5171118E-3,1.8287423E-3,7.8628486E-4,3.3014237E-3,9.872579E-4,-1.0712333E-3,-2.6090373E-4,2.2540595E-5,5.296823E-4,9.974772E-5,1.322539E-3,-4.8524758E-4,-1.5766019E-3,-1.3114106E-5,-7.747031E-4,-4.324379E-5,7.4718986E-4,-6.5655133E-4,4.931147E-4,5.655464E-4,1.8869168E-3,2.7504575E-4,1.1201464E-3,-4.75821E-5,-1.2175029E-3,3.4499294E-3,2.1868737E-3],"categories":[],"categories_nodes":[],"categories_segments":[],"categories_sizes":[],"default_left":[0,0,0,0,0,0,0,0,0,0,0,0,0,0,0,0,0,0,0,0,0,0,0,0,0,0,0,0,0,0,0,0,0,0,0,0,0,0,0,0,0,0,0,0,0,0,0,0,0,0,0,0,0,0,0,0,0,0,0,0,0,0,0,0,0,0,0,0,0,0,0,0,0,0,0,0,0,0,0,0,0,0,0,0,0,0,0,0,0,0,0,0,0,0,0,0,0,0,0,0,0,0,0,0,0,0,0,0,0,0,0,0,0,0,0,0,0,0,0,0,0,0,0,0,0,0,0,0,0,0,0,0,0,0,0,0,0],"id":12,"left_children":[1,3,5,7,9,11,13,15,17,19,21,23,25,27,29,31,33,35,37,39,41,43,45,47,49,51,53,-1,55,-1,-1,57,59,61,-1,63,65,67,69,71,73,-1,75,-1,77,79,81,-1,-1,-1,83,85,87,89,-1,-1,91,93,-1,95,97,99,101,103,105,-1,-1,107,-1,109,-1,-1,-1,111,113,115,117,-1,119,121,123,125,127,-1,-1,-1,-1,-1,129,131,133,135,-1,-1,-1,-1,-1,-1,-1,-1,-1,-1,-1,-1,-1,-1,-1,-1,-1,-1,-1,-1,-1,-1,-1,-1,-1,-1,-1,-1,-1,-1,-1,-1,-1,-1,-1,-1,-1,-1,-1,-1,-1,-1,-1,-1,-1],"loss_changes":[1.7152057E0,1.4201623E-1,2.4971843E-1,9.166229E-2,8.972238E-2,1.0785046E-1,5.4128647E-2,5.2535057E-2,7.086307E-2,9.726579E-2,7.346921E-2,7.345337E-2,6.7865625E-2,1.1194825E-2,1.1140067E-2,6.8393916E-2,2.310282E-2,3.486885E-2,7.266104E-3,3.805279E-2,5.4320134E-3,2.313313E-2,1.9344926E-2,5.5832695E-4,3.0620396E-3,4.303305E-2,5.154835E-2,0E0,8.594155E-3,0E0,0E0,8.35107E-2,2.6918553E-2,1.0820687E-2,0E0,1.8187754E-2,1.5030153E-2,2.5737435E-3,7.902205E-3,7.923214E-3,6.354168E-3,0E0,5.3795315E-3,0E0,8.1000365E-3,9.7157955E-3,5.2013285E-3,0E0,0E0,0E0,4.6168268E-4,6.667417E-3,1.4128953E-2,4.219061E-2,0E0,0E0,1.297164E-2,5.483181E-3,0E0,1.7663538E-2,1.8482279E-2,6.009221E-3,1.7140657E-2,1.5996639E-3,1.6649056E-2,0E0,0E0,4.8074424E-3,0E0,2.0028949E-3,0E0,0E0,0E0,5.80661E-4,8.468479E-4,5.777534E-4,4.548921E-4,0E0,2.161011E-3,7.06248E-3,2.4200696E-3,9.4503677E-4,4.781071E-3,0E0,0E0,0E0,0E0,0E0,1.3951644E-2,2.815244E-2,1.4264315E-2,5.1599145E-3,0E0,0E0,0E0,0E0,0E0,0E0,0E0,0E0,0E0,0E0,0E0,0E0,0E0,0E0,0E0,0E0,0E0,0E0,0E0,0E0,0E0,0E0,0E0,0E0,0E0,0E0,0E0,0E0,0E0,0E0,0E0,0E0,0E0,0E0,0E0,0E0,0E0,0E0,0E0,0E0,0E0,0E0,0E0,0E0,0E0],"parents":[2147483647,0,0,1,1,2,2,3,3,4,4,5,5,6,6,7,7,8,8,9,9,10,10,11,11,12,12,13,13,14,14,15,15,16,16,17,17,18,18,19,19,20,20,21,21,22,22,23,23,24,24,25,25,26,26,28,28,31,31,32,32,33,33,35,35,36,36,37,37,38,38,39,39,40,40,42,42,44,44,45,45,46,46,50,50,51,51,52,52,53,53,56,56,57,57,59,59,60,60,61,61,62,62,63,63,64,64,67,67,69,69,73,73,74,74,75,75,76,76,78,78,79,79,80,80,81,81,82,82,88,88,89,89,90,90,91,91],"right_children":[2,4,6,8,10,12,14,16,18,20,22,24,26,28,30,32,34,36,38,40,42,44,46,48,50,52,54,-1,56,-1,-1,58,60,62,-1,64,66,68,70,72,74,-1,76,-1,78,80,82,-1,-1,-1,84,86,88,90,-1,-1,92,94,-1,96,98,100,102,104,106,-1,-1,108,-1,110,-1,-1,-1,112,114,116,118,-1,120,122,124,126,128,-1,-1,-1,-1,-1,130,132,134,136,-1,-1,-1,-1,-1,-1,-1,-1,-1,-1,-1,-1,-1,-1,-1,-1,-1,-1,-1,-1,-1,-1,-1,-1,-1,-1,-1,-1,-1,-1,-1,-1,-1,-1,-1,-1,-1,-1,-1,-1,-1,-1,-1,-1,-1],"split_conditions":[-4.294204E-2,-5.0341594E-1,1.194251E0,-1.4662482E-1,-7.750376E-1,-9.6467036E-1,1.0668495E0,7.3149027E-3,-7.1393484E-1,-2.80165E-1,-9.6467036E-1,-1.6489815E0,-7.1393484E-1,-5.48531E-1,-1.5071553E0,-1.2499743E0,2.5153134E0,-6.706092E-1,-7.4646556E-1,-1.0186831E0,-4.2234683E-1,-1.4038695E0,-2.1962956E-1,5.391033E-1,-1.2320449E0,-4.9049357E-1,1.269994E0,3.54012E-3,1.7482415E0,-3.2570353E-4,1.217148E-3,-4.19367E-1,2.2382504E-1,-1.3207747E-1,1.0587556E-3,4.5781973E-1,5.626832E-1,-2.631143E-1,1.765608E0,-2.623551E-1,-6.337196E-1,-1.3823018E-3,-2.4155022E-1,-1.3236697E-3,-5.843949E-1,8.2672787E-1,-4.7810325E-1,-1.0757287E-3,-1.467486E-4,3.3026498E-3,5.9647556E-2,3.7502652E-1,-2.80165E-1,-1.1029298E-1,2.4575514E-3,1.9446458E-3,3.4747866E-1,2.96964E-2,3.2562297E-3,6.528467E-2,-8.227639E-1,5.2119922E-2,2.6957297E0,-1.180379E0,-1.0671985E0,-2.2459724E-3,2.7770622E-4,-7.5488544E-1,-1.8303075E-3,1.0003396E0,-2.2577356E-4,-1.0342142E-3,6.0492335E-4,-7.8608763E-1,2.2147888E-1,-4.8511377E-1,-2.1962956E-1,-2.7561135E-4,-1.706484E0,-8.959005E-1,-4.7286958E-1,4.4126832E-1,1.3807034E0,7.405525E-4,2.157866E-3,-8.439602E-4,5.2480993E-4,2.5640253E-3,-2.1418881E-1,7.411709E-1,-4.6809757E-1,-2.4401735E-1,3.269003E-4,-1.024519E-3,3.279546E-4,-1.4003578E-3,-5.8209006E-4,-6.699765E-4,9.405783E-4,-2.2437675E-3,-1.4031804E-3,-5.774448E-4,-2.231892E-3,4.030775E-4,1.802099E-3,-1.3623169E-3,3.7568103E-4,-1.1265532E-3,4.455523E-4,-2.657449E-3,-1.5171118E-3,1.8287423E-3,7.8628486E-4,3.3014237E-3,9.872579E-4,-1.0712333E-3,-2.6090373E-4,2.2540595E-5,5.296823E-4,9.974772E-5,1.322539E-3,-4.8524758E-4,-1.5766019E-3,-1.3114106E-5,-7.747031E-4,-4.324379E-5,7.4718986E-4,-6.5655133E-4,4.931147E-4,5.655464E-4,1.8869168E-3,2.7504575E-4,1.1201464E-3,-4.75821E-5,-1.2175029E-3,3.4499294E-3,2.1868737E-3],"split_indices":[18,18,18,1,12,16,10,8,12,8,16,16,12,16,0,18,12,8,8,8,13,1,18,18,16,13,8,0,18,0,0,16,0,0,0,1,13,0,12,15,10,0,15,0,12,12,13,0,0,0,18,18,8,15,0,0,12,0,0,12,18,12,0,18,18,0,0,18,0,0,0,0,0,10,15,1,18,0,16,8,10,8,8,0,0,0,0,0,15,18,8,15,0,0,0,0,0,0,0,0,0,0,0,0,0,0,0,0,0,0,0,0,0,0,0,0,0,0,0,0,0,0,0,0,0,0,0,0,0,0,0,0,0,0,0,0,0],"split_type":[0,0,0,0,0,0,0,0,0,0,0,0,0,0,0,0,0,0,0,0,0,0,0,0,0,0,0,0,0,0,0,0,0,0,0,0,0,0,0,0,0,0,0,0,0,0,0,0,0,0,0,0,0,0,0,0,0,0,0,0,0,0,0,0,0,0,0,0,0,0,0,0,0,0,0,0,0,0,0,0,0,0,0,0,0,0,0,0,0,0,0,0,0,0,0,0,0,0,0,0,0,0,0,0,0,0,0,0,0,0,0,0,0,0,0,0,0,0,0,0,0,0,0,0,0,0,0,0,0,0,0,0,0,0,0,0,0],"sum_hessian":[3.576E3,2.027E3,1.549E3,1.336E3,6.91E2,1.08E3,4.69E2,8.05E2,5.31E2,1.59E2,5.32E2,1.46E2,9.34E2,4.07E2,6.2E1,4.78E2,3.27E2,1.13E2,4.18E2,9.5E1,6.4E1,8.6E1,4.46E2,1.6E1,1.3E2,2.08E2,7.26E2,7.4E1,3.33E2,1.6E1,4.6E1,5.6E1,4.22E2,3.21E2,6E0,7.3E1,4E1,1.54E2,2.64E2,2.3E1,7.2E1,2.7E1,3.7E1,9E0,7.7E1,2.84E2,1.62E2,1.1E1,5E0,5.5E1,7.5E1,3.1E1,1.77E2,6.96E2,3E1,1.64E2,1.69E2,3.3E1,2.3E1,3.49E2,7.3E1,2.14E2,1.07E2,1.7E1,5.6E1,3.3E1,7E0,1.3E1,1.41E2,2.58E2,6E0,9E0,1.4E1,3.7E1,3.5E1,2E1,1.7E1,1E1,6.7E1,2.2E2,6.4E1,1.1E1,1.51E2,1E1,6.5E1,1.8E1,1.3E1,6.6E1,1.11E2,5.74E2,1.22E2,1.61E2,8E0,2.4E1,9E0,1.85E2,1.64E2,3.8E1,3.5E1,9.2E1,1.22E2,8.6E1,2.1E1,9E0,8E0,2.3E1,3.3E1,8E0,5E0,2.21E2,3.7E1,1.5E1,2.2E1,2.7E1,8E0,1E1,1E1,1E1,7E0,6E0,6.1E1,2.8E1,1.92E2,1.7E1,4.7E1,6E0,5E0,1.44E2,7E0,5E1,6.1E1,4.08E2,1.66E2,7.1E1,5.1E1,7.8E1,8.3E1],"tree_param":{"num_deleted":"0","num_feature":"19","num_nodes":"137","size_leaf_vector":"1"}},{"base_weights":[-1.6819437E-4,2.7503425E-3,-1.2029841E-2,2.9229189E-3,1.8396799E-3,-1.4010165E-2,9.845276E-4,1.3647917E-2,-1.4740584E-3,-1.5622309E-2,4.7470517E-3,2.9799972E-2,1.1454222E-3,-4.399704E-3,1.404869E-2,-2.5203967E-2,-1.290362E-2,-3.2408236E-4,7.778719E-4,3.436043E-2,-3.582817E-4,-1.5405482E-3,4.8043835E-3,-2.16653E-3,-3.4693298E-3,1.2052859E-3,7.898874E-3,-1.5617504E-3,-5.2214647E-4,-2.902426E-2,-1.1048948E-2,3.9798878E-2,1.046334E-2,1.3193921E-2,5.6291674E-4,2.1207232E-3,-9.925256E-3,1.5712281E-3,4.166215E-3,-1.912748E-3,-3.62169E-5,-1.2506872E-3,-1.4329423E-2,1.3473304E-3,2.6586412E-3,6.205683E-5,1.375634E-3,1.0257628E-3,4.207228E-4,-4.5509991E-4,5.332744E-4,1.5395516E-4,-1.8631594E-3,1.4286909E-3,-6.610764E-4,-7.291456E-4,3.498818E-4,-3.4927548E-4,5.8487995E-4,-8.7813474E-4,7.8511024E-5],"categories":[],"categories_nodes":[],"categories_segments":[],"categories_sizes":[],"default_left":[0,0,0,0,0,0,0,0,0,0,0,0,0,0,0,0,0,0,0,0,0,0,0,0,0,0,0,0,0,0,0,0,0,0,0,0,0,0,0,0,0,0,0,0,0,0,0,0,0,0,0,0,0,0,0,0,0,0,0,0,0],"id":13,"left_children":[1,3,5,-1,7,9,-1,11,13,15,17,19,21,23,25,27,29,-1,-1,31,-1,-1,33,-1,35,-1,37,-1,-1,39,41,43,45,47,49,51,53,-1,55,-1,-1,57,59,-1,-1,-1,-1,-1,-1,-1,-1,-1,-1,-1,-1,-1,-1,-1,-1,-1,-1],"loss_changes":[1.2356498E-1,1.3075787E-1,4.3448217E-2,0E0,1.105112E-1,2.0616263E-2,0E0,1.2469953E-1,1.0069461E-1,1.3847277E-2,6.350008E-3,4.6182737E-2,3.8852964E-2,5.9742685E-2,1.5842505E-2,4.6262816E-3,1.2600698E-2,0E0,0E0,2.8498173E-2,0E0,0E0,1.13999685E-2,0E0,6.591021E-2,0E0,1.5240855E-2,0E0,0E0,7.3992833E-3,1.4389116E-2,1.7431349E-2,7.0931637E-3,2.3111776E-3,1.8360289E-2,2.4579711E-2,6.554147E-2,0E0,7.5946944E-3,0E0,0E0,7.780469E-3,8.835912E-3,0E0,0E0,0E0,0E0,0E0,0E0,0E0,0E0,0E0,0E0,0E0,0E0,0E0,0E0,0E0,0E0,0E0,0E0],"parents":[2147483647,0,0,1,1,2,2,4,4,5,5,7,7,8,8,9,9,10,10,11,11,12,12,13,13,14,14,15,15,16,16,19,19,22,22,24,24,26,26,29,29,30,30,31,31,32,32,33,33,34,34,35,35,36,36,38,38,41,41,42,42],"right_children":[2,4,6,-1,8,10,-1,12,14,16,18,20,22,24,26,28,30,-1,-1,32,-1,-1,34,-1,36,-1,38,-1,-1,40,42,44,46,48,50,52,54,-1,56,-1,-1,58,60,-1,-1,-1,-1,-1,-1,-1,-1,-1,-1,-1,-1,-1,-1,-1,-1,-1,-1],"split_conditions":[7.1712905E-1,-1.0846629E0,4.071727E0,2.9229189E-3,-8.404481E-1,2.9593778E0,9.845276E-4,7.3149027E-3,6.6052246E-1,-4.1577014E-1,3.4749746E-1,1.4215314E-1,-7.4582094E-1,-1.8894683E0,-1.439639E-2,2.4520861E-2,-6.050156E-1,-3.2408236E-4,7.778719E-4,2.0463316E-1,-3.582817E-4,-1.5405482E-3,-2.7721602E-1,-2.16653E-3,4.796505E-2,1.2052859E-3,8.390894E-2,-1.5617504E-3,-5.2214647E-4,3.1023917E-1,-1.3189214E-1,-1.4580305E0,3.1023917E-1,-8.582414E-1,7.441412E-1,4.576823E-1,-9.959759E-1,1.5712281E-3,1.1548444E-2,-1.912748E-3,-3.62169E-5,-1.7967957E-1,2.514926E0,1.3473304E-3,2.6586412E-3,6.205683E-5,1.375634E-3,1.0257628E-3,4.207228E-4,-4.5509991E-4,5.332744E-4,1.5395516E-4,-1.8631594E-3,1.4286909E-3,-6.610764E-4,-7.291456E-4,3.498818E-4,-3.4927548E-4,5.8487995E-4,-8.7813474E-4,7.8511024E-5],"split_indices":[17,11,11,0,3,17,0,8,17,12,3,17,2,17,5,5,3,0,0,2,0,0,11,0,3,0,3,0,0,2,10,17,2,11,12,17,5,0,5,0,0,3,12,0,0,0,0,0,0,0,0,0,0,0,0,0,0,0,0,0,0],"split_type":[0,0,0,0,0,0,0,0,0,0,0,0,0,0,0,0,0,0,0,0,0,0,0,0,0,0,0,0,0,0,0,0,0,0,0,0,0,0,0,0,0,0,0,0,0,0,0,0,0,0,0,0,0,0,0,0,0,0,0,0,0],"sum_hessian":[3.555E3,2.857E3,6.98E2,4.4E1,2.813E3,6.58E2,4E1,6.12E2,2.201E3,6.07E2,5.1E1,2.63E2,3.49E2,1.856E3,3.45E2,1.22E2,4.85E2,2.5E1,2.6E1,2.34E2,2.9E1,3.4E1,3.15E2,4.1E1,1.815E3,1.44E2,2.01E2,9.7E1,2.5E1,4E1,4.45E2,1.87E2,4.7E1,1.01E2,2.14E2,9.75E2,8.4E2,2.4E1,1.77E2,3.2E1,8E0,1.14E2,3.31E2,7.6E1,1.11E2,3.3E1,1.4E1,4.3E1,5.8E1,1.09E2,1.05E2,9.63E2,1.2E1,4.2E1,7.98E2,1.6E1,1.61E2,8.2E1,3.2E1,3E2,3.1E1],"tree_param":{"num_deleted":"0","num_feature":"19","num_nodes":"61","size_leaf_vector":"1"}},{"base_weights":[1.6392801E-4,-2.717682E-2,1.4214574E-3,-1.6644193E-3,-8.706093E-4,1.4473861E-2,-2.4934448E-3,3.3913817E-2,9.020291E-3,1.7990412E-2,-4.138741E-3,4.2453762E-2,4.0659012E-4,3.6568695E-3,6.939145E-3,-3.3989844E-3,2.486375E-2,-1.459244E-2,-5.223608E-4,6.7084446E-5,4.4461343E-2,-3.6993045E-3,1.2897769E-2,-7.5745623E-4,1.715688E-4,1.7633583E-2,3.1573933E-2,8.78982E-3,-1.9648058E-2,-3.208113E-3,8.609042E-3,2.7316364E-3,1.4536667E-3,-9.977211E-4,2.7616372E-4,-6.9075375E-4,1.8224627E-2,2.2175658E-2,1.8820875E-4,2.1943809E-3,9.5305464E-4,1.3702732E-2,-8.164885E-3,-4.688542E-3,-2.2889938E-2,-5.777088E-3,7.0032584E-3,9.906688E-4,1.0661037E-3,9.384221E-5,-5.246623E-4,1.1950468E-3,-3.342872E-4,1.2348028E-3,4.361113E-4,1.5768922E-3,6.951991E-4,2.6358405E-4,8.5895724E-4,-8.6501066E-4,5.041643E-5,3.6945357E-4,-8.54448E-4,-1.3778327E-3,1.255067E-4,-2.112384E-4,-1.4992453E-3,6.6656835E-4,-2.5206234E-4,1.0676254E-3,-2.002502E-4],"categories":[],"categories_nodes":[],"categories_segments":[],"categories_sizes":[],"default_left":[0,0,0,0,0,0,0,0,0,0,0,0,0,0,0,0,0,0,0,0,0,0,0,0,0,0,0,0,0,0,0,0,0,0,0,0,0,0,0,0,0,0,0,0,0,0,0,0,0,0,0,0,0,0,0,0,0,0,0,0,0,0,0,0,0,0,0,0,0,0,0],"id":14,"left_children":[1,3,5,-1,-1,7,9,11,13,15,17,19,-1,-1,21,23,25,27,29,-1,31,33,35,-1,-1,37,39,41,43,45,47,-1,-1,-1,49,51,53,55,-1,-1,-1,57,59,61,63,65,67,-1,69,-1,-1,-1,-1,-1,-1,-1,-1,-1,-1,-1,-1,-1,-1,-1,-1,-1,-1,-1,-1,-1,-1],"loss_changes":[1.20169915E-1,2.1857992E-3,1.709426E-1,0E0,0E0,7.980232E-2,8.729266E-2,3.5646155E-2,7.0129305E-2,2.892591E-2,9.0258256E-2,9.906873E-3,0E0,0E0,3.823304E-2,3.8838414E-3,3.4388006E-3,7.3722735E-2,4.3897193E-2,0E0,2.4145544E-3,1.2691671E-2,2.7959399E-2,0E0,0E0,5.0133746E-3,3.43664E-3,1.0240683E-2,2.3845494E-2,3.6532804E-2,2.8684355E-2,0E0,0E0,0E0,2.6291625E-3,1.4743918E-2,1.0824472E-2,1.5403107E-3,0E0,0E0,0E0,1.0370612E-3,2.1657231E-3,1.2928365E-2,2.2831723E-2,4.5426033E-2,1.700813E-2,0E0,2.060679E-2,0E0,0E0,0E0,0E0,0E0,0E0,0E0,0E0,0E0,0E0,0E0,0E0,0E0,0E0,0E0,0E0,0E0,0E0,0E0,0E0,0E0,0E0],"parents":[2147483647,0,0,1,1,2,2,5,5,6,6,7,7,8,8,9,9,10,10,11,11,14,14,15,15,16,16,17,17,18,18,20,20,21,21,22,22,25,25,26,26,27,27,28,28,29,29,30,30,34,34,35,35,36,36,37,37,41,41,42,42,43,43,44,44,45,45,46,46,48,48],"right_children":[2,4,6,-1,-1,8,10,12,14,16,18,20,-1,-1,22,24,26,28,30,-1,32,34,36,-1,-1,38,40,42,44,46,48,-1,-1,-1,50,52,54,56,-1,-1,-1,58,60,62,64,66,68,-1,70,-1,-1,-1,-1,-1,-1,-1,-1,-1,-1,-1,-1,-1,-1,-1,-1,-1,-1,-1,-1,-1,-1],"split_conditions":[-5.0598145E-1,-1.0047078E-1,